-0.058518585,0.0084408615,-0.103389785,0.18958458,0.06434335,0.06661956,0.00024955467,0.037218962,-0.12205978,0.048639264,-0.1299126,-0.025645511,0.09268201,-0.0639835,-0.1253118,-0.03339636,0.0025328933,0.17194487,0.02171514,0.054244757,0.01876782,-0.12271221,-0.06590907,0.14170587,0.13505265,-0.019896725,0.14786914,-0.05030815,0.055558443,0.037040863,-0.13884117,-0.026762022,0.052650407,-0.09283668,-0.060729187,0.060765084,0.05917462,0.03494499,-0.14512211,0.0757414,0.12375369,0.015767228,0.064136565,-0.0034597644,-0.0053042667,-0.07042124,0.05548379,0.095063664,-0.04197495,-0.107907556,0.0080065215,0.12505953,-0.041866843,-0.014390862,0.022073152,0.012396794,-0.08118997,0.029376866,-0.018062716,0.09238337,0.079878315,0.04844116,0.099200115,0.016885221,0.05828161,0.12154578,0.021641193,-0.016115217,0.047001913,0.13688129,0.10404182,0.11735159,0.090925135,-0.06794947,-0.16643924,0.019665902,-0.047088753,0.16447201,0.053392366,-0.03167199,-0.16703498,-0.13790703,0.040006086,-0.26167017,-0.030190611,-0.0079875,0.072792985,-0.09488317,0.06300281,-0.0015162932,0.016044786,0.13638066,0.14421354,-0.07277335,0.103611484,0.09846786,-0.0047064982,-0.12526977,-0.09794237,0.04362735,0.08482998,-0.06837808,-0.15500036,-0.068062864,0.09094341,-0.14854376,0.0813118,-0.17650643,0.12543692,-0.054253045,0.09103172,-0.07303321,-0.019781789,0.057217706,-0.07236352,-0.059053488,-0.07136992,-0.03515224,-0.022542683,0.0993535,-0.03902203,-0.017218411,0.10734133,-0.07395851,-0.10100217,0.08350441,-0.082967356,0.068336844,0.06945304,0.021985764,0.0590095,-0.055497095,-0.20598535,0.018589871,0.1055629,0.15208092,0.13223019,-0.008846938,0.001137906,-0.05095218,0.0050873873,0.018216198,-0.048209075,0.035281766,0.06700825,0.070564464,-0.08026451,0.06600419,0.053026687,0.1252191,-0.101428166,0.027408933,-0.009501725,0.088290535,-0.055089857,-0.038219996,-0.017575225,0.13351758,-0.103617154,0.026690051,0.051106203,0.08012162,-0.04376511,-0.0982466,0.016141728,-0.069796115,0.043184776,0.06356225,-0.08046475,-0.08801971,0.112585664,-0.040141124,0.020957462,0.08124355,-0.053021647,-0.026814643,-0.033235908,-0.09440513,-0.09841209,-0.16767508,-0.1601383,-0.08834522,-0.0026298994,0.068120524,0.020669153,0.00448605,-0.059938017,-0.10351065,-0.07893835,0.069113724,-0.17426494,0.015273703,0.19146794,-0.040873464,0.00017176358,0.029888773,0.08973164,0.013340485,-0.014434472,-0.05709575,0.0141439745,-0.05772704,-0.052442003,0.13519102,-0.07706447,0.081316,-0.08665861,0.059382934,-0.06158741,0.050847135,0.022440767,-0.050314013,0.016745754,0.07439252,0.10231131,0.07070435,0.073122784,-0.0014772806,-0.17300014,-0.06129838,0.04526191,-0.016121013,-0.0110528115,0.05098121,0.04046291,0.103030264,-0.154272,0.1127092,-0.018776324,-0.069865085,0.07576008,-0.08932693,0.015140027,-0.018661225,-0.0068835504,-0.009884579,0.05322537,-0.025135329,-0.09856931,-0.08866168,0.024508009,0.04840048,0.04777749,0.15412313,-0.040732186,-0.061957825,0.07954606,-0.11781438,-0.021239791,0.018125787,-0.19775108,-0.04447148,0.041061442,-0.06798689,-0.03440278,0.03959813,-0.030301634,-0.034578506,0.0250377,-0.097797185,-0.097878434,-0.0013510312,-0.08359068,0.08572718,0.02719989,0.039219327,0.123759985,-0.044996254,0.05741291,-0.09499884,-0.08296974,-0.034845944,0.03522002,0.0363609,0.05831856,-0.08688436,-0.03004387,0.12873738,-0.13818997,0.044538792,0.07403288,0.021770619,-0.044576634,0.054285984,0.043858066,-0.039954137,-0.023932014,0.13498878,-0.022731246,0.056763392,-0.108492926,-0.012407382,-0.0016805431,-0.109225266,0.083722755,0.19220957,-0.081382796,0.00637675,0.07406939,-0.05539103,-0.062006988,-0.059487566,0.03453931,0.037330598,0.11133289,0.07078833,-0.07321812,0.0434961,-0.0575734,0.10722144,0.10374266,-0.10475501,-0.07360617,-0.005681949,-0.06287079,-0.02461128,0.050138175,0.059214946,0.08368838,0.12121672,-0.07751772,-0.020673182,-0.06683348,-0.06712608,0.032175492,0.08742728,-0.012897323,0.004090392,0.06568894,0.05535656,0.052763715,0.055007607,0.026876042,0.03962665,-0.03128208,0.05653844,0.11014726,-0.119936496,-0.015187179,0.024017898,-0.009990979,0.007852666,0.04494039,0.013617598,0.10955596,-0.11964758,-0.0036508674,-0.14153244,0.029325588,0.038876664,0.036686882,-0.09210377,0.0123282615,0.089927845,0.09505466,0.08010185,-0.033625405,0.0738284,-0.04687389,-0.06679432,0.11620409,0.12181749,-0.04275782,0.12803024,0.054121982,0.09746716,0.040762905,0.073996216,0.05380993,-0.041888967,-0.07788289,0.07311807,-0.045696046,0.08223915,0.05920501,0.11681851,-0.0024379226,-0.16456671,0.04080879,0.018386737,-0.009982945,0.19814566,-0.07161173,-0.0168395,-0.16018847,0.015311647,-0.06540119,0.030093238,0.0787737,0.030345747,0.1418911,0.104953825,-0.10714209,-0.036453463,-0.059835125,-0.057264365,0.016338771,0.004367821,0.08105214,-0.02002717,-0.10064983,-0.06102475,-0.17655914,0.09676889,0.111254126,0.1450795,-0.045646913,0.08861348,0.087031,0.048574485,0.14308546,-0.044379417,-0.054070186,-0.07864703,0.011804582,-0.08594648,-0.07494959,0.08426296,-0.08848259,0.06631009,0.00027316756,-0.054709416,-0.08943477,0.0055589927,-0.12120866,-0.020797586,0.08418862,-0.039181747,-0.03317006,0.00686516,-0.05030878,-0.030548465,-0.027145918,0.03590846,0.026929492,-0.031958234,-0.0022607795,-0.083036914,0.005578157,0.054598846,0.037224058,0.024750188,0.089417316,-0.13383222,0.032440364,0.05360971,0.07599441,-0.03498206,0.056239232,-0.025270564,-0.02482078,-0.22484812,0.0499823,-0.013286405,0.0138415415,0.021364853,0.14053623,0.02891655,0.11990213,-0.013372102,0.04063593,0.08263515,-0.040324833,0.020311944,-0.009030765,0.09498164,-0.06804332,0.008621874,0.020609308,-0.07197687,-0.024491904,-0.05227503,-0.09827083,0.021035843,0.2010513,0.032936715,0.055406615,0.050673105,0.0037482313,-0.13816077,0.03288506,0.0048221285,0.03909875,0.10416385,-0.044565156,-0.058764007,-0.009000539,0.038415197,-0.12291179,0.08994409,-0.0056561925,-0.036547575,0.20799826,-0.01937785,0.016972365,-0.024330547,0.11041316,0.05894066,-0.10404657,-0.021306986,-0.10247521,0.008642417,0.06486585,-0.08710125,-0.046128828,0.05784516,0.009653917,0.009787244,0.017318727,-0.08253322,0.07456808,0.008030057,0.10321465,0.08425146,-0.028008414,-0.04162853,0.0872513,0.059445214,-0.04995942,-0.059006073,-0.042440135,-0.051999982,0.05804836,0.13418043,0.04674342,-0.003007789,-0.051561832,0.08631378,0.028016955,0.0783172,-0.09271225,-0.12260428,0.053300686,0.029775308,-0.0709222,0.1676986,-0.021530118,-0.03192177,-0.05202062,0.18227099,-0.0050705746,-0.051598348,0.004946707,0.10050717,-0.11567721,0.07342142,0.09533071,0.051098365,0.092537105,0.19634473,0.119053714,-0.093308695,0.029625013,-0.039123427,-0.049334846,-0.037747167,0.042668022,0.038780343,-0.0069129285,-0.07011535,-0.09964957,0.0015041165,0.05471251,0.11369731,-0.056013707,0.07060456,-0.0006086848,-0.10195917,-0.0658196,0.061174784,0.09583546,0.13392332,0.11363734,-0.0952413,0.05240185,-0.047408316,0.081625074,-0.091135725,-0.01195459,-0.019807449,0.053316407,-0.044608213,0.1167277,-0.00043022397,-0.012542283,-0.110400185,0.10848,-0.09996045,-0.07285485,-0.019142114,-0.08726301,-0.099589474,0.045733646,0.04495274,0.053216346,0.12152367,0.05603816,-0.012348485,0.027812662,-0.055878572,-0.075786695,-0.036768112,-0.034207083,-0.090970844,0.12094528,0.010373761,-0.09546138,0.03910691,0.072007395,0.07842286,-0.24202724,-0.11094653,-0.06419396,-0.08924507,-0.08865441,0.07350659,-0.07146294,0.06757178,-0.09244602,-0.02933676,-0.035399646,-0.0003039014,0.033225156,0.021766007,0.011908682,-0.07971677,-0.044364445,-0.04676622,0.06915024,-0.113585524,-0.009730103,0.0252048,0.07808817,0.08743705,0.011211579,0.042631794,-0.014107789,0.004529948,0.001169234,0.05244126,0.040217325,0.017401751,0.10656182,-0.027085662,-0.060378235,-0.19737943,0.018104779,0.11096306,0.07101401,-0.037004538,-0.12323667,0.13824104,0.060765307,-0.10844401,0.0453927,0.11826942,-0.061466347,-0.025323965,0.15263528,0.03199322,0.021928268,0.014871184,0.08879838,-0.048144527,-0.021734186,-0.05423287,-0.05076935,-0.07829799,0.009184031,-0.10881235,0.06957173,-0.08048286,0.11295309,0.05117668,0.0682655,0.015325625,-0.093607835,0.045608554,-0.019642755,-0.019268459,0.01771188,-0.09758413,0.08086915,-0.22890042,0.09010259,-0.026988285,-0.025629774,0.119830705,-0.032727562,0.020618908,-0.046028007,0.052561004,-0.04946906,-0.06990959,-0.05478511,0.05645181,0.15444961,0.05080911,0.025224492,-0.045904595,-0.08998433,0.018797217,-0.090709455,-0.07419488,0.06880796,0.0017066585,0.06907036,0.04602951,-0.0084760105,0.08196547,0.03701995,-0.102312095,-0.0040762383,0.08082875,0.07908426,0.019366222,0.09021633,-0.055496793,0.046654176,0.014216383,0.032993205,0.051992677,0.07548988,0.000681664,0.031458378,-0.01721056,0.1006156,0.07098124,0.06450849,-0.018506493,-0.054577976,0.061765976,-0.12825638,-0.0063170334,0.06605845,-0.09289397,0.0010112312,-0.015158665,-0.09982965,0.03397222,0.120826736,-0.103935726,0.11002495,0.012135163,0.06720808,-0.052023392,-0.038920574,0.0485162,-0.0334078,0.055488065,0.02450362,-0.025494467,0.06254263,-0.13917056,0.015266111,-0.1152421,-0.023671592,0.046036694,0.1693592,-0.12653424,4.053161e-05,0.06119887,0.017771382,-0.14494008,-0.060076136,0.074312575,0.04043781,-0.03865785,0.005558705,-0.025492366,-0.14008592,0.10930488,-0.01170518,0.07591941,0.040722564,-0.20530076,0.088983625,-0.07120765,-0.14864978,-0.19355959,0.11948401,-0.0199722,-0.079342365,0.03021206,-0.0024329443,0.02259434,0.12628955,-0.0010315342,0.054700438,-0.17689142,-0.14484857,-0.091467455,0.046953782,0.0470533,0.046959303,-0.16847953,-0.05286684,-0.08694793,-0.045721814,-0.045643434,-0.052408166,0.085853025,0.070770495,0.015342176,0.090287276,0.07699122,0.001471855,0.045866698,0.07003592,0.028423343,0.053927764,0.06518954,-0.11052393,0.07650552,0.03357332,-0.06694009,-0.11492725,-0.111334085,-0.06589087,0.023403741,-0.013327594,0.095130175,-0.19663988,-0.02263115,-0.004503198,0.04791091,0.0030263246,0.059220776,-0.006156571,-0.072059765,0.10607036,0.26323318,0.013774776,0.024137111,0.007362838,0.062358946,-0.024855245,-0.034289766,-0.065883674,0.09458475,0.07337271,0.05591011,0.10256998,0.11987976,0.07136844,-0.040022947,0.09074712,-0.14992613,0.0633031,-0.0055051013,-0.15230927,0.034363676,-0.036416367,0.027933087,-0.026598437,-0.033455066,-0.071105555,-0.041886162,0.0023544363,-0.0105366465,-0.078625634,-0.018153809,0.040082596,0.040423594,-0.16280434,0.04375377,0.10246898,0.094340354,-0.07786099,0.06934434,-0.02993314,0.01551214,0.08537068,0.10730599,-0.055745557,0.044984885,-0.04906075,0.1262857,-0.014222417,-0.00069319917,-0.03926548,-0.0010480871,-0.021325456,0.08796285,-0.055115238,0.10401327,-0.08178247,0.07696597,0.03149654,0.11609659,-0.001812634,-0.16131552,-0.015988473,-0.09923191,-0.023715042,0.22848892,-0.06791762,-0.08680359,-0.10815869,0.02089378,-0.05208335,0.090050966,-0.06215424,0.044260114,-0.12445771,0.0966762,-0.11262127,0.07003647,-0.03200166,-0.041645233,0.05022245,-0.092657745,-0.00085849495,0.04256015,-0.023907198,-0.018668352,0.08889347,-0.11050963,-0.014135999,0.02174196,-0.041988514,-0.040539827,0.08780627,0.17701119,-0.019494755,-0.04220565,0.027198853,0.02595556,-3.0875486e-05,0.10663056,0.10179162,0.08899686,0.01057535,0.031127583,0.04830503,0.01620211,-0.037881527,0.11764446,0.048360806,0.018209692,0.09306881,0.06300744,0.06114455,0.024844492,-0.035314545,0.04571696,0.083772205,-0.002521287,0.0152839525,0.00019969679,-0.20648587,-0.098812684,0.09137764,0.06543315,0.09296166,0.15322943,-0.068365015,-0.064367004,0.14818983,-0.14487903,-0.024236623,-0.06845393,-0.0069214925,-0.089538,-0.13548253,-0.0045168498,-0.054330897,0.010790308,-0.09457978,0.09855971,0.02819709,-0.045617152,0.33678025,-0.017157255,0.075329624,-0.0665872,-0.10675151,-0.06842422,-0.045197103,-0.07955472,-0.09321868,-0.017956568,0.014843741,-0.10197695,0.017121924,0.0763383,0.0058130617,0.0375783,0.0048160343,0.10105963,0.12236979,-0.024523191,0.023688301,0.09136215,-0.10168424,-0.009302177,-0.08374884,0.057494715,0.053106166,-0.15555167,-0.042425852,-0.005394356,0.048870604,-0.051987078,-0.1732258,-0.02641302,-0.004651616,-0.0031401855,0.056944266,0.1346288,0.03890384,0.017755972,0.027806815,0.037280045,0.026222799,-0.017839242,-0.033159792,-0.034781877,0.13549405,0.048503254,0.071208745,0.09987775,-0.08312507,0.0016743317,-0.009675196,0.030774739,0.05485014,0.044731796,0.09945442,-0.07090795,0.143006,-0.026038352,0.060426787,0.05726666,0.14346941,-0.10635893,0.08740772,-0.15466323,-0.051537942,0.09236372,0.048934203,-0.04738788,-0.09041728,0.15269092,0.005957451,-0.010517506,-0.068151236,0.01280144,-0.011100558,0.11759113,0.08864537,0.092005275,-0.06617716,0.055316225,0.11324942,0.07153827,0.18447237,-0.023191249,-0.041674662,0.05575946,-0.031324513,-0.005954792,0.0011586945,0.0847313,-0.063265,-0.111569814,-0.0011559416,0.03914944,-0.006094001,-0.032565393,-0.017594343,-0.11130134,-0.012781959,-0.02703282,-0.001163506,0.098948725,0.014204748,-0.0502329,-0.0002683441,-0.12133716,0.07728579,-0.07329584,-0.13609847,-0.08019181,-0.07058616,0.10768511,-0.1370406,0.09407697,0.0805543,0.20691645,0.095197506,-0.10489579,0.15281753,-0.03393181,-0.02766956,0.09388593,0.10559854,-0.098724335,-0.09826678,0.007815398,0.084380604,-0.016656382,0.043659654,-0.017899986,0.111167856,0.041025326,-0.09317031,-0.047614563,0.07485065,-0.033468317,0.027009336,0.15073091,-0.0029869496,0.00022748561,-0.010614461,-0.02522694,-0.043419186,-0.062637635,0.16529725,-0.046071894,0.048684552,6.773529e-05,-0.025861988,-0.11286366,0.13589036,0.058236036,-0.037587907,0.009443954,0.006481449,0.101410635,0.07525181,0.034528162,0.12852228,-0.026956882,-0.015313252,-0.21072668,0.081003375,-0.09349523,-0.08383534,0.046232633,0.003101239,0.050745014,0.053213786,-0.026762964,0.028456347,-0.02182323,0.122354485,0.02250145,-0.046836115,-0.0051740445,0.061326064,-0.11417088,0.06594943,0.018063383,0.058240723,0.11057247,-0.07301194,0.066103645,0.051571574,-0.036651846,0.07926448,-0.15334697,-0.08529217,0.1794144,0.044592675,0.026849454,0.062404323,-0.017941281,-0.054191727,0.023706105,0.037118636,0.109904826,0.099024795,0.01178868,0.07496791,-0.052692074,-0.088429116,0.023621278,-0.0073884386,0.0046713245,-0.106791064,0.026816951,0.16167074,0.019423174,-0.06467976,0.049397785,-0.060702734,0.062006775,-0.026064517,0.07452671,0.034552228,-0.16622399,-0.031852294,0.009620477,-0.07607876,-0.09221813,-0.05506337,0.066700496,0.08492807,-0.019261794,0.01751048,0.06624236,0.103793204,-0.0030220852,0.11282763,0.0122497715,0.0666358,-0.0776231,0.013640718,0.05509503,0.07041693,0.06934564,0.12131145,-0.042901926,0.063183464,0.17680301,-0.044872977,0.03960097,-0.05904898,0.1072791,-0.07170807,0.057889864,0.06473836,-0.04272226,0.04601205,0.019628115,0.059687007,0.037001505,0.00046412743,-0.09439852,0.0538311,0.008091922,0.06550663,-0.09651357,-0.07346612,-0.06318353,0.027469533,0.08874524,-0.07285704,0.0012504366,-0.0024868224,0.0015118762,-0.037257023,0.110047266,0.011168357,-0.11098723,0.049144417,-0.028531006,0.08896981,0.032448374,-0.049950533,0.021728236,-0.110423915,-0.0571376,0.003889456,0.14327617,0.033539716,0.028266141,-0.01080792,-0.0013507577,0.059475474,0.03973161,0.08254455,-0.023008458,-0.101128764,-0.023337439,-0.050530486,-0.06168557,-0.0056342706,0.14974491,0.11539527,-0.113736376,-0.0026137773,-0.058378767,-0.054077152,0.010320089,-0.050042655,-0.05824341,-0.04068987,0.06645502,-0.1477406,-0.064102165,-0.078065924,-0.1796745,-0.13988471,0.15396823,0.06480045,-0.09460735,-0.04379699,0.017182661,-0.0646736,0.0071092322,0.04051937,-0.052661076,-0.0061507686,-0.04724712,0.29230577,0.040145867,0.05100756,0.028980844,-0.1081587,0.002457717,0.051688485,0.039608933,0.040737633,-0.023145003,0.06656865,-0.033608526,-0.02712941,-0.07807969,-0.06660718,-0.030747153,0.053594895,-0.068106644,0.12763606,0.11165669,0.07377654,-0.045774806,0.0969231,-0.12493849,0.04371951,-0.00062584085,-0.021530708,0.176708,-0.050165508,-0.016822692,0.07930374,0.034040846,0.028090013,0.03628355,0.032624714,0.018604081,0.21594398,-0.011886037,-0.008040585,-0.057804193,0.14853531,-0.015703317,0.09726887,0.12718518,0.10183877,-0.10726827,0.058214396,0.119561404,-0.02973323,0.011655496,0.117958516,0.048880216,0.024017485,0.053940374,-0.14320822,-0.022027796,-0.09727958,-0.0067574168,-0.05866057,-0.13489953,-0.005984045,0.020159315,-0.044580474,0.0007321983,-0.07176362,-0.053718593,-0.05222867,-0.0034527353,0.22087334,0.28144467,0.0267887,0.08755856,0.00073572126,0.11538344,0.090923235,-0.0031985617,-0.015121304,-0.0053948155,-0.09499216,-0.035244927,-0.051414493,0.11488587,-0.026822263,0.050241232,-0.080716774,-0.0024001265,-0.031168204,-0.057903342,-0.11803524,0.11002611,0.041797005,0.018351652,-0.07684062,0.18697737,-0.0629287,0.17832945,-0.029140722,-0.07475866,-0.04285493,-0.06452075,0.0322074,0.08815828,0.01914536,-0.048981745,-0.10204823,-0.010321296,0.07892632,-0.042454034,0.057841863,-0.027521767,-0.062555864,0.10878139,-0.060150944,0.054553624,-0.04714682,-0.0790406,0.05247518,-0.0077972533,-0.06929265,-0.00586601,-0.008321018,-0.07881711,-0.09480545,0.021449475,0.15487972,0.029279053,0.07685103,-0.057849117,-0.032233186,0.09790055,0.04259292,-0.111690186,0.010449649,0.032286078,-0.027898466,0.08292399,-0.013288641,-0.04815929,-0.03221688,0.04970648,-0.08460463,-0.035716917,-0.041022416,0.16980626,-0.0488132,0.12063502,-0.009452765,-0.1357361,-0.13723105,0.07305042,-0.0023173206,-0.052518673,0.047316182,0.0351705,0.10181224,-0.10676817,0.026812496,-0.08156531,0.1615676,-0.04281747,0.0018682523,-0.16916476,-0.17733045,-0.12234851,0.094068274,-0.011824233,0.052247036,0.05700494,-0.055495657,-0.008996282,0.02073093,0.0026311725,0.08498184,0.114337355,0.06363835,0.07105703,0.07991406,-0.063614346,0.10336883,0.08630534,0.0018072156,-0.027107116,0.1090401,-0.11690449,-0.032976083,0.095850654,-0.05888126,-0.048911046,-0.12223189,-0.073152766,0.067570835,-0.02597804,0.0069514397,-0.012626354,-0.09080433,0.05968138,-0.08817318,0.068711445,-0.08088919,0.028543327,-0.005839064,-0.008027927,-0.051159985,0.054997873,0.05024238,-0.050314147,0.06677092,-0.025616206,-0.046213932,0.06848652,0.050556324,-0.049884543,0.10279759,0.11880479,0.1127816,-0.09567766,-0.02065009,-0.026516344,-0.01858699,0.046574656,0.0326686,0.11013158,0.029094717,0.024115914,-0.06822045,-0.03924617,0.098083355,0.14447041,0.053583752,0.10351398,0.040379155,-0.0066975364,-0.012567725,0.033978075,-0.027740518,-0.034333058,-0.12672909,0.024603283,0.02419321,-0.069358826,0.14239202,-0.11348294,0.0050543994,0.026584368,-0.16718821,-0.00028189537,0.20062956,0.008742105,-0.07592577,0.0145615395,-0.054524407,0.08964503,-0.022359109,-0.07526119,0.043780994,0.030857148,-0.0034142095,0.020360436,0.08979234,-0.10190709,0.05566399,-0.06396654,-0.11025702,0.09644253,-0.02779494,0.05963866,0.12213246,-0.14458372,0.13529831,0.045872714,0.11863838,-0.11768395,0.10612885,-0.054301362,0.016124247,-0.1024,-0.19081888,0.0039530033,0.12086368,0.008146169,-0.112578325,-0.12982853,0.12377552,-0.17080986,0.102572806,0.021066958,0.036009837,0.1129034,-0.0298849,0.14470403,-0.093022116,-0.0018064411,-0.052108668,-0.020443521,-0.040343057,-0.10134987,0.040532965,0.17722793,-0.017233826,0.099920064,0.0615371,0.0030738695,-0.1451927,0.022131354,-0.055035293,-0.06360911,-0.103902034,-0.033494845,0.07849459,-0.008838047,-0.06493174,0.08572343,0.043019544,-0.04163327,0.11671663,-0.06257391,0.044108007,-0.15861087,-0.026847174,0.09955842,-0.052224416,-0.044665094,0.0443204,-0.1785669,-0.14530446,0.03774499,-0.020821152,-0.05860327,-0.044773843,0.009436427,-0.1374563,0.023135059,0.027626453,0.021485671,0.04286841,-0.11305295,0.12397298,-0.051478665,0.120831996,0.039521236,-0.053536735,-0.20474674,-0.059900146,0.0021906376,0.11846453,0.10338579,-0.0026889918,0.13276078,0.057870053,0.06666027,0.040123347,-0.0028985916,0.058824506,0.09974432,0.034250293,-0.05224248,-0.07687621,0.075152956,0.05445918,-0.079458214,-0.06042639,0.17146094,0.014065497,-0.041581172,-0.041626323,-0.011310059,0.06824118,0.03376339,0.070406154,0.0730204,0.15680091,0.17827575,-0.008139211,0.060810767,-0.041576922,0.028191285,0.10068748,0.011137536,-0.057319216,0.026644818,-0.05254883,-0.032335922,-0.013022271,-0.21587838,-0.08149767,-0.0728001,-0.08399687,-0.016798966,-0.071601994,0.07074841,-0.019512588,-0.15095435,0.06515973,-0.12195784,0.058900565,-0.023095503,0.055619538,-0.10664134,0.008495389,0.049121317,-0.09349134,-0.10867235,-0.13638633,-0.10132273,-0.045047935,0.11841381,0.084089056,-0.0343643,0.078029096,-0.045922145,-0.06539182,0.011604115,-0.011440985,-0.058960818,-0.06537375,-0.112046994,-0.124551736,-0.08509809,0.0067607984,-0.037328772,-0.008842576,-0.04353557,-0.17358477,0.013462136,0.044840865,-0.066590294,-0.050814364,-0.059338152,0.0054825135,0.030871565,-0.07803225,-0.032461178,0.025905339,-0.11209521,-0.07394249,-0.002230745,-0.010888135,-0.026207946,0.0850929,0.020333735,-0.06424358,-0.0069536194,-0.17134397,-0.1869659,0.08081366,-0.040585086,0.03942664,-0.06316923,-0.107294045,-0.03839094,-0.008515246,-0.096624985,0.03062582,0.07856196,0.03577442,-0.14666708,0.12804069,0.06038682,0.10761738,0.03421655,0.08466348,0.03968084,0.06135021,-0.07475081,0.043559838,0.10628626,-0.08737197,0.048325744,-0.10226368,0.086717404,-0.08010193,-0.043142166,0.02538295,-0.034277637,-0.088297255,-0.046663124,0.02101184,-0.05739669,-0.017238602,-0.0013229996,0.07724035,-0.020456465,-0.015395128,0.0738087,0.01258989,0.06376967,0.011284215,0.03656718,-0.027542807,0.05539489,-0.065435976,-0.069278084,-0.09919689,-0.07870026,-0.060254406,0.13372646,-0.001861979,-0.15579309,0.023305865,-0.08140116,-0.011294417,-0.00943364,-0.13117369,0.032626987,0.08837012,0.10497424,0.011203579,-0.037239593,0.06195195,-0.0011554455,-0.08701993,0.056643445,0.09891284,0.044314846,0.08548211,0.1057821,-0.13012667,-0.002036751,0.014481988,-0.003266829,-0.049061168,-0.040086415,0.18820871,-0.09700488,0.09873359,-0.18295607,0.07926213,0.009119524,-0.03857162,0.082873985,0.03510961,-0.02735782,0.05445758,0.04055478,0.06795399,-0.044745218,0.0226856,0.1919088,0.009808113,0.07140394,-0.08236024,0.016896825,-0.04377066,-0.0023700097,0.04947405,0.06403709,-0.04140475,-0.085902706,0.1360862,0.0068150535,0.07113032,-0.12201754,0.09475395,-0.07943504,-0.01608929,-0.0057850806,0.05355616,-0.038160224,0.06380901,-0.102727875,-0.084277816,-0.018231655,0.033809345,-0.05531258,-0.12198351,0.02349921,-0.07482289,0.098587506,-0.12835984,-0.00888663,-0.021926044,-0.05435982,0.046445347,-0.13823715,-0.06413749,0.12229124,0.03919111,-0.013450084,-0.00730956,0.0891743,0.051831678,-0.037634492,0.05831012,0.04449187,-0.07564725,-0.06176087,0.027265768,0.17291775,0.10193803,-0.013446353,-0.077842206,0.16748928,-0.052570958,0.08348283,-0.019170685,0.0595552,0.09062185,0.043098327,0.08903887,-0.0022415463,-0.23196013,0.17882092,0.02712129,-0.03014785,-0.026244216,0.032207344,0.15486765,-0.079458386,-0.075248115,0.18753423,-0.0512221,0.06831147,-0.028847918,0.019042188,0.06473825,0.11425362,0.03536707,-0.110514104,-0.09505372,0.05153306,-0.019073429,0.010692912,0.15180394,0.049057476,0.032718394,-0.064102106,-0.08770762,0.040342003,0.0002194906,-0.07053669,0.017615627,-0.0751214,0.00061934907,-0.029475594,-0.04351506,0.0014451876,-0.08428583,0.081851184,0.009765346,0.0056581455,-0.04374884,-0.020432292,0.02101303,0.06978566,-0.03660911,-0.035121348,-0.050542608,0.0657348,-0.0023255118,0.03235404,0.04367963,-0.02060084,-0.051319465,0.05160236,0.025220368,-0.057962753,-0.038935628,-0.118006304,0.01602339,-0.03374812,-0.09065423,-0.08741333,0.08842406,0.031866577,0.03577488,-0.046346072,0.004599897,0.016155863,-0.10601548,0.043897822,-0.039727073,0.023972133,-0.035111833,-0.01419133,-0.05185776,-0.11480556,-0.0311653,0.0477538,-0.0081820935,-0.011303521,-0.048085645,0.02074275,-0.024963276,0.024591632,-0.077962406,-0.037353754,-0.047965564,0.011124022,-0.039403405,0.027357126,-0.0035666956,-0.083760895,-0.03184256,0.046536483,0.0056892075,-0.032885388,-0.03730539,0.028204113,-0.029421542,0.026520522,-0.016577177,-0.069120005,0.02851221,0.08648115,-0.012579399,-0.08226265,0.0017937525,-0.07821639,-0.092585504,0.03763519,-0.05909892,-0.13229255,-0.042398486,-0.0057480983,-0.0061735874,-0.06647347,0.035525095,-0.07110378,0.022075273,-0.06072707,-0.07052389,-0.11496402,0.04881329,-0.0082026115,-0.09253271,-0.06413986,-0.07726577,0.07511902,0.014990665,-0.005878783,-0.021061819,-0.0104759075,-0.0661232,0.058041997,-0.030579193,0.055648997,0.013478276,-0.11504644,0.005588548,-0.09125129,0.06333524,-0.061829496,0.025125865,-0.110023856,0.05258631,-0.05764743,-0.074273735,0.17878641,0.027416611,-0.093537,0.10056797,-0.066764206,-0.07680649,-0.043110423,0.06499363,0.052737765,-0.22580798,-0.004337801,-0.038246576,-0.098927304,0.052659005,0.1219441,0.009974487,0.0031646036,-0.084821224,-0.03363621,0.078598894,-0.043142777,0.11644585,0.05407678,0.13178962,-0.08014946,-0.0049988106,0.020674283,-0.097494975,-0.07376214,0.085107245,0.0021302605,0.009062531,-0.11502903,-0.05491485,-0.022342827,-0.12015942,-0.0043933517,0.057031572,0.02065829,0.09516372,-0.008769074,-0.13768575,0.07429768,-0.104723565,-0.0058862707,0.016670065,-0.04475916,-0.05803514,-0.016241461,0.04146263,-0.023685826,0.039089322,0.019495215,0.06599861,0.0025975234,0.12685761,-0.12746365,-0.12977487,0.0054046647,0.014394124,-0.025547955,-0.10218878,0.03240625,0.02514553,0.013078459,-0.01854091,-0.07074565,-0.106373645,-0.020952484,-0.12815171,-0.0031527057,-0.11974329,0.0733726,0.059453838,-0.09122703,0.08591214,-0.055368047,-0.037381247,0.035650875,0.017431866,0.01729721,-0.03493182,-0.14997984,-0.049991034,-0.0056065875,-0.030822918,0.1112435,0.08183313,0.073780745,0.05640905,-0.021067746,0.009859842,-0.004505689,0.055132553,-0.04546713,0.028073153,0.003239245,0.10067085,-0.07949782,-0.10880065,-0.007270728,0.0016296929,-0.076187566,-0.0492747,0.06576523,-0.015491202,-0.04625977,-0.0007702815,0.16434476,0.0922705,0.041359287,0.017537797,0.122345805,0.066080175,0.06662913,-0.109039046,0.07876727,-0.18587625,0.14280668,0.025394522,0.06095033,0.07652636,0.08243153,-0.08220666,0.019111542,-0.100875586,-0.0044951197,0.078384526,0.041648604,-0.09138648,0.005016592,-0.02067056,-0.009436152,-0.034368973,-0.06387712,0.10652438,0.054794002,0.014084432,-0.019026373,-0.068766475,0.024334647,-0.020180658,0.011688197,0.09063714,-0.03580847,-0.0028627664,0.10272771,-0.015771616,0.053427223,-0.13370188,0.07415313,-0.087238595,0.05768457,-0.02349115,-0.022256399,0.07349648,-0.025388189,0.100903295,0.055029634,0.043343075,0.048052147,-0.0048724604,-0.14134888,-0.055177573,-0.023749132,0.049383897,0.018175593,-0.09485754,-0.043196935,-0.056430984,0.0043084067,-0.03749958,-0.01029662,-0.07388942,0.023695488,0.1894784,0.0278245,0.061260615,-0.034935575,-0.0026141582,-0.017504856,-0.03452967,-0.036557022,0.006715079,-0.01756634,0.11646602,0.014275684,-0.03550551,0.033408042,0.121126115,-0.10099732,-0.036551185,-0.015543158,0.024169076,0.063287675,0.0801125,0.051522553,0.013316799,-0.07157101,-0.003022625,-0.26593632,0.0029899338,-0.1444581,-0.054786474,0.062451966,-0.05104447,-0.14921138,-0.04034983,0.07115009,-0.034125064,-0.013100411,0.041811313,-0.06365587,0.011603838,0.05594654,0.0385488,0.04381792,0.03741546,0.0035384223,-0.17731264,-0.07176627,0.067871764,0.13253956,0.0915427,0.0557982,-0.047783546,0.08795126,0.16711451,0.086033866,0.0122727,0.048532497,0.12366538,-0.08672369,-0.027173113,-0.01977887,0.034746412,-0.108472995,0.0043546,-0.09289705,-0.009181043,0.0622739,-0.00015242335,-0.030420115,-0.022144474,-0.060490277,-0.11025789,0.04964255,-0.094101325,-0.06629417,0.061724078,0.04127763,-0.04376215,-0.035543237,0.039705522,-0.045695495,0.10584621,-0.16117257,0.034961656,-0.033425316,-0.089580625,-0.029970542,0.056421716,-0.005067065,-0.08300228,-0.011698984,-0.07061258,0.011204683,-0.082489714,-0.050481267,0.041795988,-0.051394224,-0.027514853,-0.096944675,0.0015935487,0.06349867,-0.10145075,-0.11786092,-0.006706073,-0.057696313,0.043943275,-0.08079194,0.11917993,0.17786115,0.04932481,0.0644094,0.07018079,0.1067945,-0.207473,-0.19777377,0.093150035,-0.04078556,0.020573031,0.08529826,-0.03410004,-0.02695618,-0.021173103,0.08508594,-0.22971195,0.0028570665,-0.0405642,0.030251576,-0.15250215,-0.09696255,-0.19208184,-0.18286534,-0.24495381,0.19856586,0.120594084,-0.02627009,0.14031054,0.059536412,-0.22742915,0.0011976412,-0.028201168,-0.04391178,0.041499127,0.06148317,-0.12913023,0.117243946,-0.07049417,-0.030067421,-0.0167637,-0.06494983,0.019796418,-0.14450717,-0.021669984,0.11153288,-0.0018827491,-0.025047679,0.03399912,-0.0024382537,-0.09528182,0.036699235,0.09181631,-0.10522984,0.08913801,0.08182395,0.121306084,-0.03996189,-0.0032334581,0.07208649,-0.004090897,-0.107941635,0.14180638,-0.17107289,0.1305957,-0.0003246256,-0.21730886,0.14062789,0.14830491,-0.052916326,-0.27830458,0.055854727,-0.022591654,0.03965687,-0.12919731,-0.024090244,0.17309695,-0.05713734,0.06196905,0.15525894,0.19849122,0.007110658,-0.07706386,0.08318618,-0.06371353,0.03084543,-0.11178898,0.15317835,-0.024240816,0.014311931,-0.0056675253,0.10682396,0.084110685,-0.14456123,-0.18793702,0.09066349,0.227666,-0.053182352,-0.041181006,0.00037808155,-0.20522295,0.030480672,-0.2653366,-0.040419772,-0.007218674,-0.1793787,-0.008352087,0.061615583,-0.07491967,0.049768977,0.033471268,-0.11620248,0.07626589,0.13067217,0.13446529,0.012364154,-0.20373705,-0.07433031,-0.041372456,0.09424948,-0.1361849,0.05247738,-0.08168346,-0.078263305,0.11632768,0.15304899,0.042630345,-0.01893601,0.17599459,0.07894668,-0.07596618,-0.19771402,0.049253885,0.075612746,-0.11210727,0.13909616,0.09272235,-0.014216453,0.024119472,0.008787118,-0.1485191,0.020545121,0.07122935,-0.09622568,-0.11231313,-0.058994964,0.07666913,-0.03270021,0.09980883,0.03129723,-0.06622246,0.008347822,0.0038048816,0.028195417,0.03429857,-0.01896725,-0.014537325,0.116473615,-0.051273312,-0.14833166,0.08457775,-0.07750798,-0.016699523,-0.008863541,-0.069428265,0.025879893,0.0021226336,-0.30117905,0.025557652,-0.00054408546,-0.040700056,0.04410702,0.20850012,-0.047174733,0.11615521,0.05432697,0.022294316,0.01717291,-0.22520272,-0.008478965,0.039048802,0.10742122,-0.004236872,0.0025071772,-0.052906837,0.08756302,0.036966044,-0.12875782,-0.044636816,-0.11161781,0.022412868,-0.16860063,-0.05280793,0.10986323,0.08032858,-0.10003837,0.063329175,-0.02047919,0.078377254,-0.13034132,0.05185464,0.12557481,0.032541923,0.16217108,0.081902884,0.09257764,-0.064653926,-0.028692447,-0.07370275,0.011573005,-0.05266568,0.02247209,-0.027083743,0.039066438,0.030899886,-0.07080883,0.003021956,0.034273807,0.049118843,-0.053510703,0.16032174,0.09053057,-0.008800806,-0.011600684,-0.06521777,-0.039005823,0.04329838,0.018403651,0.07060931,0.067881115,-0.06920706,-0.07209302,0.029623132,0.017275304,0.16255222,0.08531987,0.027888214,-0.023222586,0.20114,-0.08507221,-0.10782153,-0.10324751,-0.05506217,0.0010870632,0.0725101,-0.036630314,-0.03825093,0.051967964,-0.015022898,0.08072651,0.07012752,-0.030756323,-0.04623016,-0.019384166,0.01436515,-0.13126954,0.167743,0.025499746,0.052692503,-0.032534797,0.042998694,0.04193489,0.084624164,0.037209727,-0.014053944,-0.1177864,0.089967184,-0.04793602,0.075631574,-0.07242055,0.0825581,0.11707064,-0.048890825,-0.08779856,0.025783772,0.012128832,-0.027728707,0.10094389,-0.08323913,0.047377862,0.15757677,-0.1207082,-0.052512474,-0.0032818408,0.07472404,-0.051313072,-0.044551957,0.08386882,-0.03640209,0.06871292,0.044047855,0.047802687,-0.03138637,-0.07846065,0.03968256,-0.042984117,-0.09142291,-0.07396451,-0.10619926,0.0013010219,0.06214761,0.031500436,-0.06851062,0.10772096,-0.033786736,0.020686053,0.065703206,0.062151704,0.06259689,0.03886227,-0.060096048,0.019467652,0.012118425,-0.03194972,-0.020837639,0.09813284,0.020545075,-0.058858316,-0.04758001,-0.19074358,0.07904777,0.028319126,0.031418405,-0.0041245064,0.016482683,-0.03456951,-0.060960475,-0.17399664,0.039578546,-0.052634645,0.0975666,0.13233128,-0.14464311,-0.07060598,-0.1272383,0.031341415,-0.05783171,-0.034889333,0.057858463,-0.0052267713,-0.06412923,-0.1076783,0.019872077,-0.042869143,-0.016389996,-0.11091155,0.035743915,-0.019275919,0.076531105,-0.025393229,-0.08076745,-0.0019561343,-0.061564557,0.0071373875,0.063341774,0.08161497,-0.0605014,0.038180377,-0.016979434,-0.07803885,-0.11080867,-0.16223243,0.024445282,-0.0041269287,0.13255985,0.013486258,-0.024402505,-0.06647142,0.04269472,-0.059887607,0.054925855,-0.08694213,-0.021724042,-0.025486052,0.020392392,-0.019186663,0.13391027,0.082038686,-0.08020803,0.03050407,0.07382299,0.026641907,-0.009326573,-0.0879907,0.09630172,-0.13889733,0.13728973,-0.07156453,0.048653178,0.09082821,-0.05880957,-0.020368619,0.036738746,-0.11299214,-0.07741167,-0.00879962,-0.04164092,-0.08686957,-0.037906885,0.0035800152,0.014862824,0.021759711,0.055840686,0.094419606,-0.090577245,-0.031794194,-0.057917837,-0.083644785,-0.010485183,-0.06330028,0.011897495,-0.08450005,0.1382153,0.06940137,0.021961333,0.033832192,-0.12960158,-0.07325511,0.1375461,-0.0033455691,0.07885534,-0.0011119157,-0.06076816,0.003950928,-0.08934185,0.015583662,0.048704065,-0.09163206,0.03334333,0.08198478,0.12113182,-0.023292206,-0.07102455,0.05572394,0.08935568,-0.10797626,0.008653118,-0.10531501,-0.062449932,0.038349614,-0.05278034,0.09491662,-0.037862517,0.08588864,-0.012316826,0.063665695,0.14265126,-0.03658711,0.12962694,0.063495815,-0.01999384,-0.02602358,0.07719006,-0.046851333,0.06265132,0.061418295,0.06221246,-0.0443431,-0.09055597,0.053212624,0.066573,0.17443976,-0.07549732,0.07354357,-0.01575595,-0.014493703,-0.021485863,0.11884171,-0.041483607,0.011051348,0.0062794467,-0.10647807,0.05068569,-0.018837214,0.056293584,0.028797198,0.1001083,0.04555044,-0.04451352,-0.13550955,0.11767691,0.027274426,-0.069070555,-0.066822484,-0.028708454,0.061085153,-0.07358981,-0.013675408,0.101223335,0.062173586,0.057581123,-0.10560324,0.034041345,0.030101897,-0.14041378,0.080395125,-0.040006444,-0.050560992,-0.064906545,0.028188916,-0.07694119,-0.0087631,0.09512446,-0.09958808,0.037564896,0.07148325,-0.103480585,0.070573926,-0.0035442566,0.008049338,-0.13056062,0.022720063,-0.011225577,0.14778855,-0.003928774,0.046040237,-0.0026863422,-0.014740604,-0.055048946,0.2903685,0.09917317,-0.1354493,-0.045802694,-0.02890602,0.046020217,0.056368686,0.12259145,-0.0363456,0.09094571,-0.024003705,-0.04788322,0.008662417,-0.120346144,0.06788922,0.022528328,0.007484203,0.079073,-0.009967073,0.22873873,-0.0029542656,0.045260172,0.106889345,0.0093774665,0.107548915,-0.104075074,-0.028051475,0.066269726,0.051616285,-0.03273183,-0.11827904,-0.14992318,0.010165503,0.062062882,0.059786934,-0.05952795,0.024508882,0.08882897,-0.081387065,-0.05588395,0.0412546,-0.11364108,0.014475029,-0.07114791,0.10431072,-0.10714441,0.09325075,-0.028767861,-0.013013079,0.12054009,-0.08108673,-0.04707827,0.03827039,0.098011695,-0.025639994,0.09000857,0.06200956,-0.07801108,-0.20387895,-0.004181237,-7.812775e-05,0.059972305,-0.057507746,0.012377649,-0.0070727207,0.0067693517,-0.18774231,-0.12891509,0.11988542,0.013959916,-0.12213682,0.0030163582,-0.060269907,0.04426904,0.011420208,-0.02960173,0.0690877,0.052779514,0.025342355,-0.038669843,-0.04636638,-0.024777215,0.014497249,0.014318616,0.0060992413,0.036352612,-0.017501496,-0.1527706,0.042661794,0.116172,0.06414446,0.03640408,0.11384909,0.023266394,-0.052633855,-0.051562592,0.12766542,0.049308896,-0.07226263,0.06816887,-0.034012694,0.12044164,0.02067804,0.0570095,0.009046617,-0.0014285019,0.07965242,-0.017351117,-0.0003852035,0.005174186,0.10352305,-0.15768357,0.09303259,0.04645223,0.046755303,0.04919876,-0.014503135,-0.08963795,-0.0664357,0.08097229,-0.011520623,0.08819859,-0.090096205,0.06119809,-0.047628246,0.0027728248,-0.032713044,-0.09979957,-0.009520051,0.01837725,-0.08631618,-0.032013677,-0.0020220971,-0.04342746,-0.036107965,0.110741355,0.021913577,-0.058308747,0.05883629,0.057749532,-0.013006319,-0.10901948,-0.053608414,0.08316697,-0.07943141,-0.09510014,0.062583804,0.14113295,-0.065618716,0.036834233,0.10161626,-0.00030135026,0.016810583,0.032019205,-0.027833836,0.048992913,0.06980579,0.08947701,-0.21065187,0.04068519,0.06957889,-0.017370619,-0.06456936,-0.27936006,0.009866459,-0.084777005,-0.014945696,-0.1764342,0.025902849,-0.14174089,0.032722242,-0.0871658,-0.03393128,-0.009714638,-0.11664464,0.015619433,0.053144027,0.061872706,0.0134234,-0.033078987,-0.0627747,0.031729594,-0.08858758,-0.0031916634,-0.0123662725,-0.0013878793,-0.121588185,0.20322265,0.055196736,-0.11835854,0.01749456,-0.08638136,0.009224081,-0.03450477,0.035594612,0.034522273,-0.032083355,-0.12013549,-0.050697435,0.024446618,-0.14328186,0.027431434,0.0792929,-0.011524506,0.12023678,0.070152484,0.0022548006,0.0064148842,-0.024915345,-0.021792213,-0.018206596,0.08407892,0.07374854,0.04848978,0.034387775,-0.03127031,-0.0684508,0.022717271,0.079272486,-0.0675988,-0.08432987,-0.12971635,0.0071937987,0.08801992,-0.012278049,-0.17975019,0.029347753,0.24796605,-0.13597646,0.031911105,-0.05274117,-0.13018312,0.12002258,-0.026498824,0.0845637,-0.085726306,0.100768715,0.03760292,-0.16435158,0.017487906,-0.12922208,0.09054904,-0.07760987,0.06155634,-0.07616323,-0.037907876,0.06862159,0.08414572,0.069408104,-0.050032336,0.033977658,-0.06801738,-0.079080656,0.064558044,-0.0545299,-0.06230847,-0.016737567,-0.053337142,0.08072321,0.24531387,0.032802034,0.03828982,-0.05907364,0.093365826,-0.05811567,0.039794832,0.022995196,-0.09084867,0.017468857,-0.14244558,-0.085591115,-0.16558291,-0.06997821,0.04187703,-0.034299232,-0.09709416,-0.059577614,0.022478512,0.08095124,-0.08309366,-0.07941243,-0.20019136,-0.17447296,-0.07571732,-0.0066397106,-0.053202666,0.022127688,-0.08285677,0.022445202,-0.037945736,0.081682645,0.108845465,0.07586623,-0.05089448,-0.14358209,-0.10959294,-0.056406945,-0.11347177,-0.015998514,0.017352909,-0.066768244,-0.10788029,-0.083886646,-0.00042692537,-0.03967954,-0.0003997907,0.09372892,0.058918003,0.0058946474,0.09795187,-0.043039784,-0.043540154,0.038468294,-0.04931767,-0.009171844,0.018675642,0.004881389,-0.16460127,0.073029794,0.09496735,0.10052881,-0.13782173,-0.042488527,-0.047020525,-0.044900607,-0.10518246,0.04459562,-0.06571706,-0.018890247,-0.010926613,0.13460028,0.06459193,-0.0040901154,0.06886179,-0.073714696,-0.016320629,-0.045234386,-0.020286702,0.07908776,0.010544609,-0.0608339,-0.015672157,0.053220592,0.011201055,0.12615879,0.026392687,0.013232107,-0.07200841,-0.1312496,-0.03447702,0.06974073,0.0015702492,-0.20073016,0.036887523,-0.07293797,-0.06758072,0.08043416,-0.14743929,0.04923184,-0.07646369,-0.041787233,-0.19165958,0.10645566,0.036371995,-0.061342884,0.04257551,0.028115207,-0.052621137,0.016944638,-0.12228393,0.03625988,-0.016134728,0.00091405417,0.108108036,-0.030379701,-0.078875855,-0.1026935,0.037998144,-0.08390333,0.028607463,-0.09056219,0.08877386,-0.04192488,-0.18945508,0.093578234,0.06733769,0.055354472,0.018255636,-0.07259733,-0.035733644,0.063370086,0.13212083,0.0410106,-0.05213967,-0.03351091,-0.15423642,-0.05756379,0.029555278,0.031203143,-0.03633007,-0.029927565,0.049278352,0.046895348,-0.011244341,0.08489356,0.0070581385,0.09465814,0.14962168,-0.08619442,0.02667596,-0.08606259,0.10240771,0.04271558,0.032264978,-0.059145972,-0.058508385,0.12823321,0.077458724,0.049672674,-0.11702943,-0.06882326,0.08111508,0.20174481,-0.13060756,0.03561814,-0.033103548,0.09939573,-0.13662882,0.109691314,-0.09802132,0.0025480355,-0.029131927,-0.04719803,-0.06717615,0.16278149,-0.00014916286,0.110810846,0.046702646,0.053101674,0.009693719,-0.014951797,0.13498183,0.0030064476,-0.06235428,-0.009597647,0.12024713,-0.008175307,0.03541517,-0.00068455277,0.0702984,0.04278596,-0.08759322,-0.03163502,-0.079913825,0.012314483,0.025081417,-0.073114276,-0.035387665,-0.0048849955,-0.0077006253,0.04839287,0.054041587,0.06480627,0.038190693,0.015776988,-0.15022479,-0.12326439,0.010042535,-0.098254405,0.0074833296,0.04651391,-0.014039679,0.14364237,-0.069426,-0.008187381,-0.016912116,-0.053729575,0.07925458,0.030408302,0.08960461,0.23660015,-0.030021263,0.08337781,0.060376547,-0.08971409,0.048742354,0.09811396,0.11121618,-0.1119807,0.07544382,0.0968225,-0.020003106,0.06278014,-0.066553175,0.08694407,-0.044262495,0.10897253,0.038174443,0.03354487,0.3353937,0.023890093,0.075273946,-0.035126593,-0.17546892,0.004926008,-0.02336501,0.093870334,-0.052333605,-0.2149585,-0.071546346,-0.033629183,-0.2568655,-0.028571727,0.06736749,0.018456703,0.0619786,-0.005382746,0.035442613,0.059001073,0.031927425,0.035005692,0.056446128,-0.013682457,-0.0028486636,0.10814316,0.028893365,0.078313045,0.045501594,0.066358715,-0.26431915,-0.050755646,-0.03047048,0.08687585,0.042383187,-0.007073101,-0.039864514,-0.021307388,0.11620777,0.12057652,0.058832917,-0.0062859296,0.06450699,0.08816391,0.047076225,0.031580534,0.06510844,0.17658907,0.11019661,-0.04087729,0.013142825,-0.018310208,-0.02664329,0.096193686,0.009793623,-0.101719454,0.08746124,-0.07502771,0.06861552,-0.06168756,-0.088999204,-0.120483294,-0.0036954402,-0.009848712,-0.04581237,0.044322666,0.024950463,-0.08924109,0.12190226,-0.013224811,-0.08499657,0.12262187,-0.05501299,-0.13699135,0.0038943607,0.07662718,0.06409537,-0.24210721,0.08094308,0.013256997,-0.0028357152,-0.06672823,0.03314126,-0.0707744,0.07586335,-0.08097839,-0.015963897,-0.23086204,-0.010094655,0.091840774,-0.06602083,0.04736417,0.1690289,-0.06542246,-0.027773028,-0.11559195,0.04226466,-0.027123202,0.17778574,0.07487027,-0.048030537,0.07402507,0.034398336,0.00723687,-0.05880321,-0.0009563908,0.044194225,0.07124143,0.056005944,0.08250479,-0.101361975,-0.019031817,0.011758266,0.06379549,0.09513751,-0.08482785,-0.1052531,-0.06138776,-0.08480784,-0.006352312,-0.112649426,-0.0058491277,0.02451364,0.052119005,0.0045076613,0.05341041,0.06746359,-0.08960026,-0.08969082,0.04236064,0.07064882,-0.023790676,0.014965338,-0.0351591,-0.05359055,-0.06991972,-0.11543864,0.12420423,-0.06955973,-0.10854993,-0.10024272,0.038151093,0.054460853,0.06767087,0.037143085,-0.1431431,0.014314153,-0.06913702,-0.06282085,0.0036374724,0.03762504,-0.03510828,0.015366124,-0.022349808,-0.043629825,-0.005753205,0.015151797,0.041114043,0.02585349,-0.07285324,-0.0532367,0.001112613,-0.14570206,-0.014299514,-0.061350234,0.039014205,-0.059559844,-0.0629272,0.020497272,0.01055857,-0.1361319,-0.099943794,0.013655096,-0.0040339357,0.052574683,0.010433518,-0.035144977,-0.072061256,-0.10872817,-0.08408041,-0.002708173,0.015257189,-0.054604456,-0.004640757,0.060477078,-0.07738422,0.013724701,-0.113351904,0.0687257,0.028598612,-0.092922084,-0.058436576,0.068242654,0.038625,0.070737354,0.046635002,0.017882092,-0.013472457,0.019192165,-0.086876385,0.000989283,0.02993226,-0.038881905,-0.01320222,-0.07637899,-0.07666934,0.04459031,0.030588638,0.013137728,-0.025451954,-0.06667589,0.028118782,-0.028776098,0.030095419,-0.043895755,0.11212289,0.016792104,0.07391612,0.0036364067,-0.12286809,-0.033194195,-0.016206518,-0.03799975,-0.041183196,0.014802866,0.023811772,-0.07024654,0.06788143,0.06684552,-0.16865775,-0.120719105,-0.019376457,-0.06866039,0.02411326,-0.07380807,-0.104647756,-0.17721978,0.015465488,-0.14807802,-0.045481592,0.07138847,0.075212575,-0.060708925,-0.0071423505,-0.07780145,-0.06608499,0.04402523,0.032856986,-0.084904976,0.09630945,-0.0793866,-0.11715763,-0.10738175,-0.020703454,-0.04770333,0.064144254,-0.13037673,0.025732424,-0.03791677,-0.068178214,-0.05888227,-0.04600194,0.030165581,-0.038264178,0.06302406,-0.06612248,-0.11083851,-0.063842446,0.004697227,-0.010606953,-0.087597266,0.031578474,0.036005322,-0.05816335,-0.096263774,-0.042308647,-0.08425388,0.051365443,-0.01573531,0.024223326,0.01621639,-0.08491877,0.058786843,0.036726117,-0.028574292,-0.030823953,-0.09055015,0.05358974,0.018823383,-0.014217648,0.056559127,-0.04012798,-0.05259912,0.000873777,-0.004040882,-0.11271759,0.019895194,0.021793906,-0.047216233,0.06706857,0.045952786,0.057558414,-0.11431065,-0.090169035,0.04296948,-0.07150214,-0.06704781,-0.089183256,0.022275059,-0.09353903,0.040489472,-0.108174704,0.035525665,-0.0634542,0.08139776,-0.0010750368,-0.035919078,0.016845666,-0.07188534,-0.018458119,-0.08560472,-0.039213464,-0.023983274,-0.08284913,-0.04258747,0.054571528,-0.108263984,-0.06542853,-0.0328238,0.06162779,-0.022947222,0.0039975047,-0.03379776,-0.037173606,0.0901348,-0.08017655,-0.05619901,-0.039042145,0.011779638,-0.037911527,-0.019722227,-0.057427086,-0.018172208,-0.042126883,-0.056996297,-0.06690764,-0.086377315,-0.012205777,0.0006361678,0.013075333,-0.07374015,0.039245754,0.0062061176,-0.013305828,-0.046121776,0.05018852,-0.109198004,-0.06970213,0.0605549,-0.07398229,0.024993451,0.00014930218,-0.06453012,-0.013817901,0.064487144,0.030471321,0.00634381,-0.07909642,-0.08155271,-0.06465014,-0.07304101,-0.035492674,0.03287554,-0.07933009,0.048539966,-0.009952534,-0.07242781,-0.056255467,-0.020900713,-0.061620805,0.0036989648,-0.1262413,-0.05639615,-0.07791352,-0.08837773,0.057196762,-0.08284486,-0.0269422,-0.06309698,-0.018684644,-0.047019448,-0.007157348,-0.055486426,-0.014658472,0.04142147,-0.020104486,-0.062341113,-0.008381788,0.17701653,-0.04794349,0.025653698,0.01335062,0.045116525,0.051612187,0.056376092,-0.03181892,-0.026551984,0.0050380467,0.017804973,0.030211885,0.06258208,0.056900673,0.013757974,-0.021604704,-0.044811446,-0.016563168,-0.10031241,0.032849696,-0.07750577,0.038734585,-0.052718267,0.04468717,0.047533855,0.033239596,-0.04928222,-0.037260618,-0.099351354,-0.08413002,-0.06372707,-0.06430388,0.0048998157,-0.08666312,0.040835775,-0.050757565,-0.04600676,-0.09739882,0.073590994,0.0593797,0.059972946,0.044061787,0.07384717,0.029947288,-0.026936552,-0.0061125383,0.0104405135,0.008890369,0.09156682,0.034404848,-0.022190988,-0.12343362,0.12932758,0.0031350479,-0.07043003,-0.066781275,0.02120685,-0.07802047,0.05107175,-0.0897401,0.07173098,-0.11774106,-0.043342944,0.05531492,0.060806803,-0.064451195,-0.075202964,-0.12555973,0.008765809,-0.11235347,-0.071910605,-0.032698277,0.029485092,-0.077543855,-0.06423133,0.012156278,-0.05433113,-0.03512034,0.03398679,0.06479109,-0.11180393,0.011885703,-0.05253593,-0.0016103425,-0.073969126,0.022865174,0.020009061,0.00893167,0.013821866,0.058369003,0.043979492,-0.08455158,-0.006963717,-0.093301296,0.012824048,0.026731068,0.0041212216,-0.039074734,-0.031288143,-0.073835924,-0.15622455,0.026003053,0.06382914,-0.21799845,0.040436223,0.06268772,0.16593023,-0.09158444,-0.012868772,-0.079849556,0.027152527,0.058330525,0.09337164,-0.056043,0.15348598,-0.08569903,0.114538625,-0.127461,-0.049074125,-0.008395911,0.1275082,0.06881177,-0.06329414,0.07055747,0.0828138,-0.064569734,0.05964672,0.08642736,0.042449273,-0.025861012,0.07152033,-0.06932147,-0.017598452,-0.0107444925,-0.02391545,-0.10804733,-0.04690872,0.05150592,-0.11045821,0.066447966,0.041664593,0.033052534,-0.14588246,0.17947029,-0.0020308427,0.05362446,-0.017521564,-0.07387664,0.13035572,-0.06612149,-0.1699434,-0.0396862,-0.11297297,0.02702652,-0.08771947,0.0017489044,-0.012117949,0.070941985,0.07669447,-0.18607141,0.13969901,-0.06843904,0.06304229,-0.082372606,-0.0815924,0.050710976,-0.113415964,-0.14849362,-0.048796386,0.249181,0.048556715,-0.046050597,0.08900386,0.033797525,-0.09813734,0.08847449,0.07015916,-0.12555677,-0.08091361,0.084923536,0.064853236,0.033614773,-0.03918748,0.09178305,-0.015280891,0.006955478,-0.060604926,-0.08832409,-0.078782,-0.10350422,0.027027316,-0.09772872,-0.038783073,-0.022357278,-0.030958485,-0.05988925,0.08020106,-0.12048819,0.07028293,0.015314481,0.021700837,0.010874192,0.037119746,0.026070647,0.031840943,0.18328366,0.19842282,0.050289392,0.018742112,-0.0017292182,0.097338095,0.1646924,0.059521493,0.0780576,0.037550773,0.04401344,-0.0030594422,0.009385223,-0.11314959,-0.062613524,-0.06387614,-0.08324981,-0.033101868,0.08837057,-0.008959536,0.025068223,-0.012432807,-0.028334392,-0.07049994,0.053294793,0.026875235,-0.01736751,0.04309105,0.021122634,-0.0046436586,0.04127492,-0.076700866,-0.03387598,0.035464693,-0.07607622,0.056730334,-0.034791686,0.006022088,-0.09198184,-0.113850094,-0.026677467,-0.08027546,-0.0026838854,0.056923777,-0.010403491,-0.04233786,0.052642886,-0.0018126478,-0.11286628,0.01164608,-0.056062832,0.029885488,-0.0875602,-0.079234526,-0.042068068,0.00574922,0.07113629,-0.0122334035,-0.055803537,-0.08887487,0.08117323,-0.048099164,0.055905115,-0.009501393,-0.07461945,0.051577903,0.052637607,0.025270209,-0.10441623,0.069987684,-0.07416868,0.057093345,0.102090344,-0.10830718,-0.010130338,-0.010678267,-0.08319606,-0.07155313,-0.007993273,-0.011665776,-0.049011163,-0.08502181,-0.012202531,-0.0279514,0.047147796,-0.013567518,-0.06366563,0.07353775,0.07998134,0.04312773,-0.049500436,-0.08325033,0.057958152,0.08935991,-0.04164675,-0.076592065,-0.01660953,-0.066373594,-0.0074221357,-0.109393895,-0.0262519,0.017076433,0.04559031,0.05859533,-0.0097080795,0.014439508,-0.0825333,-0.016754244,-0.014905237,-0.0807408,0.061532572,-0.039369144,-0.08177727,-0.09975409,0.006828077,-0.10147538,-0.018135063,-0.017061207,-0.033434063,0.04051684,-0.08774032,-0.10545275,-0.11527164,0.06187159,0.011239627,0.042306826,0.051473655,-0.09097261,-0.04079967,0.04943659,-0.0343934,-0.04427743,0.0392059,-0.044453565,-0.017025474,0.09359649,-0.072127126,-0.009648265,0.019063441,-0.11134627,-0.0147079425,0.020723838,0.057311617,0.027169151,-0.018132102,0.054640755,-0.07507784,0.07455578,0.06732605,0.109889366,0.05613363,0.036148634,-0.03426618,-0.14611152,-0.0060390946,-0.025340647,0.14619485,-0.026485065,-0.041490022,0.007097119,0.15326446,-0.015205809,0.08178844,-0.048053037,0.08058605,-0.070769615,0.025251564,-0.066256106,-0.09384802,0.022075212,0.00064262777,-0.041923195,0.111865506,-0.012524053,0.07272158,-0.036740404,-0.03677119,0.035543527,0.05707912,0.015531721,0.110010564,0.056142703,0.09864962,-0.09911617,0.042865675,0.010744733,-0.07315616,0.04982839,0.14509669,-0.029053358,-0.1301565,0.03655271,0.03188844,0.038876537,-0.063991375,-0.08213428,0.05058663,-0.07386573,-0.03723912,-0.045440152,-0.04803569,0.021758227,-0.08178193,-0.05908359,-0.059609476,0.07240483,-0.1146712,0.045994163,-0.04961937,-0.010318289,0.009600308,-0.06192941,0.005937579,0.0065158512,0.014834744,0.09815952,-0.008733583,-0.016107643,0.30217353,-0.0019475196,0.04255156,0.01827106,-0.111683466,0.016412068,0.12084608,0.019034855,-0.010051859,-0.003511048,-0.016221851,0.081785664,-0.05354673,0.04823421,0.059512086,-0.072929576,0.016186161,0.09207032,0.027907448,0.21863605,0.036665197,0.025660854,-0.0002999473,-0.11280075,0.021721462,0.081256874,-0.066837594,0.07280859,-0.08895897,0.057348102,-0.046380013,-0.121002205,-0.03895571,-0.0031617936,0.016413946,-0.098539524,0.023018694,0.0521963,0.11384497,0.029902088,-0.023924487,-0.07401302,0.032804232,0.03445667,0.10392628,0.12029466,0.07776868,0.19448973,-0.009512309,-0.21530734,0.013399933,0.10088838,-0.009669263,0.012184216,-0.0027993482,-0.029282015,0.057999846,-0.037541777,0.08463509,0.003657467,0.00040397377,0.030146226,0.10644656,-0.06695943,0.03768003,0.06718899,7.279788e-05,0.033996668,0.10053495,-0.023057442,0.09926675,0.033344384,0.072438374,0.014282344,-0.11550988,0.06661226,-0.023954213,0.022067223,0.029943831,0.09435304,0.05696083,-0.105438806,0.015243335,-0.085179225,-0.090340935,0.050193038,-0.049022686,-0.045660675,0.051795624,-0.0019968222,0.011117267,0.018839873,-0.09519072,-0.03308172,-0.022326095,0.028703375,-0.096142896,0.01358575,-0.02204195,0.06227627,0.10577425,0.0030347933,-0.03057333,-0.041129794,-0.042034958,0.0031421296,-0.23412907,-0.14959204,0.123448804,0.06552356,-0.025809243,-0.002224798,-0.0031722414,-0.081928335,-0.13211603,0.06137565,-0.098503485,0.0974089,0.0007916058,0.021853521,0.18702278,0.01119482,-0.10120422,0.0059672296,0.10744722,-0.0027864682,0.04113718,0.052934065,-0.029834999,-0.081590965,-0.0008819279,0.036224075,0.02339719,-0.18904276,0.09481518,-0.075916454,0.051236436,0.055551752,-0.07688789,0.041088838,0.03814754,0.07743277,0.07502668,0.10476831,0.111501366,0.08851494,-0.01734845,0.02995992,0.15254565,0.10426821,0.03791928,-0.09765664,-0.07505773,-0.013731392,-0.009221362,-0.04804974,0.057804804,0.060369298,0.06685641,-0.053279962,-0.05680771,-0.058333218,0.044312,0.08316447,-0.042374156,0.03075873,-0.013044332,0.044170752,-0.05265265,0.01078018,-0.056656796,0.014853328,-0.053410236,0.08056522,-0.09095729,0.11761556,-0.050091498,0.12060135,-0.0521113,0.06044181,0.06532918,0.04891067,0.08145523,0.010794732,-0.030947572,-0.034143902,0.099290475,0.079248786,-0.075247906,-0.1617809,0.0050599035,0.03310515,0.007862592,-0.012904575,0.01121306,0.0026084033,0.07369743,0.027097125,-0.03529478,-0.13330974,-0.07151936,0.1754147,0.083073966,0.0030066269,0.08277219,0.010315968,0.01876419,0.16810282,-0.09397232,-0.023132905,-0.11865138,-0.051057614,-0.07307904,-0.071783416,0.05914214,-0.10430823,-0.12632447,-0.08892469,0.06394493,-0.018398624,-0.06805936,0.0065691234,0.024247088,-0.12375178,-0.102066725,-0.13711427,0.0696576,-0.005766764,0.009090411,-0.08964176,0.052622177,0.14015017,-0.037481442,0.02872162,0.074515186,-0.094429374,-0.043173354,0.056845505,-0.017962994,-0.0073713833,-0.019611433,-0.0029407009,0.15395835,0.023903934,0.13043344,-0.0061647743,-0.042021528,0.01874505,0.041268226,-0.033393953,0.060765896,-0.05316196,-0.055299263,0.074056625,0.13279396,0.010263838,0.053947076,0.11643911,0.028637668,0.08514487,0.0151661895,0.04997341,0.06473347,-0.05712174,0.06151077,-0.03338917,0.064253576,-0.02541553,-0.17965342,0.05960114,-0.08816145,0.060198843,-0.06637117,-0.070428036,0.08094673,0.0779435,0.05083576,0.036381464,-0.029115116,0.01758365,-0.117118865,-0.058426086,0.07819907,-0.10338602,-0.023079565,-0.06880046,0.10703076,-0.101109296,-0.14469503,-0.044354077,0.07911354,0.0062508555,0.19790371,-0.12085191,0.07163168,-0.12208454,0.02767529,0.044998903,-0.017674755,0.04926504,-0.0022295075,0.10215535,-0.04119762,0.08134634,0.039343614,0.04430619,-0.049228694,0.084651075,0.024914032,0.055194475,-0.002029077,0.06695526,0.020028163,0.058550905,-0.04501624,0.032766245,-0.032357015,-0.046715558,0.10012404,-0.020212937,0.094585024,-0.12088496,-0.15992692,-0.03274552,0.10168815,0.07886032,-0.012406701,-0.19615696,0.0635806,-0.05760524,-0.00774158,0.081667796,0.06864758,0.078800455,0.0628056,-0.039533436,0.03452354,-0.004626532,-0.052363746,-0.034161493,0.08262254,0.09816475,-0.02596361,0.019366274,0.09380192,0.08815582,-0.019996015,0.0980855,-0.036640026,0.00622657,-0.062140126,-0.13014196,0.06946598,0.07360408,-0.08354486,-0.039417513,-0.05824051,-0.055578925,-0.07402117,-0.06489238,0.013764204,0.044832665,-0.03650723,-0.007237433,-0.0960493,0.03556996,-0.0355099,-0.06826421,0.03168029,-0.031075519,-0.042564,-0.013476441,-0.032085557,0.17284139,0.059684653,0.08566649,0.060466234,-0.05646252,0.07750736,0.04884745,0.038222957,0.011278491,-0.04604465,0.09250513,-0.07075852,-0.08380144,-0.02776948,-0.0018753369,-0.114328496,0.08228248,0.096556544,0.008456866,0.020280892,0.01891474,0.0068997075,0.07617735,-0.04131157,0.0016135769,0.01053324,0.039105613,-0.056456972,0.000834174,-0.09828955,0.00407611,-0.0025915133,-0.003695593,-0.100618966,0.005398829,-0.051323712,-0.049611557,0.09258245,0.017632859,-0.021561312,0.008359372,0.032636173,0.030854043,-0.015848046,-0.0368293,-0.08936583,-0.06757592,-0.048839364,-0.0071341367,-0.06543582,0.029759727,0.03645873,0.059407264,-0.027758867,0.076320544,-0.08745287,-0.01915728,0.010435777,0.074194856,-0.06966458,0.045306806,0.059637092,0.003945466,-0.09591086,0.004728053,-0.058483064,-0.038231708,-0.09258374,-0.011735716,-0.00050606026,0.041673575,-0.05310755,-0.045250475,0.039353408,-0.058950964,-0.08943502,-0.074185394,-0.085279986,0.04147142,-0.027611965,0.04875476,-0.0061876965,-0.040291708,0.060538877,-0.051354583,-0.08375531,-0.033546384,-0.030722953,-0.04182033,-0.03678733,0.00783988,-0.10587201,-0.051299836,0.047536284,-0.08398403,0.032805324,-0.048774183,-0.05454596,-0.06197601,0.09103279,-0.041601904,-0.019170675,0.008558705,0.020008156,0.048558027,-0.07267108,-0.081002854,-0.0693594,-0.044870637,-0.018584063,-0.03233051,-0.065637544,0.047217846,-0.041295923,-0.038432382,-0.04863019,-0.070744246,0.06433564,0.050174907,0.076698154,-0.076957025,-0.02092059,0.036913346,0.064078555,-0.08952858,-0.00017229721,-0.12337332,-0.026959088,0.047453076,-0.06711982,0.014671654,-0.03974328,0.036788937,0.09699103,0.049430497,0.050533105,-0.078058355,0.040352084,0.024830632,-0.058565017,0.08737193,0.015906498,-0.059919517,0.023317993,-0.06433969,-0.07948561,-0.079868756,0.18481888,-0.16596411,0.017891016,-0.20982681,-0.03230805,0.05578189,0.048701342,-0.08122214,0.02135546,0.086085334,-0.021762786,-0.0076769497,-0.16890845,-0.04185754,0.10498336,0.026168229,0.09751066,-0.08368035,-0.07334915,-0.057671633,-0.082398325,0.07135022,-0.06628871,0.12509319,-0.034305755,-0.041843407,-0.2544723,0.11437124,0.06288345,0.14031574,0.12024412,0.052538276,-0.12852111,-0.009341987,-0.11601323,0.008984128,0.06821808,0.006257842,-0.07911768,-0.09633231,-0.18790354,0.10427666,0.08385414,-0.044142507,-0.043899395,-0.14148714,-0.05492579,0.09473235,-0.057067536,-0.14578138,-0.02341477,0.015295442,0.12261213,0.0141408555,0.0037965595,0.14115037,0.23607893,-0.03701729,-0.06602109,-0.02482903,-0.0146341175,-0.0023274429,0.048895825,0.06579843,0.11195557,0.17446029,-0.21850114,-0.0092725195,0.07952501,0.04187923,-0.063635856,0.12818688,0.06078136,0.06256964,0.1775637,0.07358131,-0.076800786,0.030471863,-0.27497616,0.09416164,-0.120845616,0.036377728,0.01853176,-0.10453366,0.032189738,0.01154023,0.0061913556,0.02626847,-0.029169325,0.019465828,-0.034234986,-0.062376216,0.08103245,-0.08208123,-0.05649582,-0.010784051,-0.026036264,-0.08970225,-0.0782068,-0.025142107,-0.06281847,0.07052165,-0.04171379,-0.04934817,-0.05143295,0.0011015566,0.07126383,-0.028180582,-0.05511002,-0.1589222,-0.049952738,0.02117662,-0.02812022,-0.10137552,0.011555935,0.005897621,0.042110994,-0.05858657,-0.025337016,0.06904811,-0.039262235,-0.038970627,0.056460496,-0.021448523,0.020693561,-0.055226117,0.03029419,0.20520996,-0.05120829,-0.25931683,0.07045346,0.099476114,0.18456966,0.16986138,0.019125339,-0.19522469,0.057813596,0.030796217,0.16107589,-0.00566201,0.037526913,0.058031145,-0.014031583,-0.08256294,-0.025243446,-0.088459924,0.10466854,-0.09416141,0.105802804,-0.041322142,-0.0740301,0.090152234,-0.01051249,-0.020244671,-0.15655747,-0.0014281591,0.101539776,0.08122463,-0.035011865,0.12539953,-0.09862381,0.01837981,0.041372173,0.10325497,0.021152588,0.084999904,0.010477592,-0.15623336,0.069955334,0.07334989,0.121625245,0.0837743,-0.057446938,-0.06662297,-0.06493096,0.0039491532,-0.007445382,0.051921822,-0.029117469,0.007015106,0.009243019,0.18669558,-0.09704509,0.02680737,-0.03863959,0.097374156,-0.10477609,0.033870555,0.07247806,-0.022272956,0.032628726,-0.11073222,-0.03305635,0.069549486,-0.01940759,0.025350243,0.044559736,0.03495208,-0.0035845554,-0.07523767,0.20190372,0.022472376,0.008687225,-0.05369608,0.01652868,-0.004985576,-0.10748805,-0.057931144,-0.08335597,0.035957333,-0.058099836,0.0373912,-0.083574444,0.07849033,0.010663011,0.08487351,0.09321889,-0.16533497,-0.010324411,0.004938166,0.0064620795,0.005241337,0.07479521,-0.10563847,0.054089434,0.061367203,-0.049966574,0.1556196,0.18778402,0.08949345,0.086179465,-0.11473438,-0.008441481,-0.04941074,0.018508445,-0.11608508,0.036985476,0.05879429,-0.11881111,0.022840606,0.046329904,0.0023241923,-0.067423016,-0.083526686,-0.07993683,-0.10456481,0.0059981407,-0.105847,-0.114800505,0.0101678725,-0.06344781,-0.09024716,-0.061437055,0.01299544,0.022276398,-0.12692428,-0.12452857,0.05811295,-0.067670874,0.03443934,0.008619505,-0.036597222,-0.06803296,-0.037596297,-0.07466933,-0.06440036,-0.04562144,0.06430877,0.030977728,-0.037064575,0.044962235,-0.037013393,-0.11358538,0.06525338,0.04769193,-0.0062365346,-0.09509663,-0.094499886,-0.042140815,0.049228657,-0.041262772,-0.12750487,0.028365895,-0.017330125,-0.02455449,-0.032243393,0.007796203,0.027492862,-0.044960752,0.05864955,-0.09042564,-0.060567327,0.0518033,-0.06450052,0.040161937,0.030540653,-0.00041736543,0.045727275,0.04625426,-0.088761814,-0.026310518,-0.00036434742,-0.06935816,-0.070657164,-0.13317646,0.024097601,-0.017017245,-0.06717444,0.02195116,-0.017001566,0.009728976,-0.064788885,0.02750704,-0.04140697,-0.07379002,-0.07768038,-0.012879886,-0.08947588,-0.044929758,0.082044095,-0.13812453,-0.07691077,-0.028890172,0.023948602,0.042684045,-0.05048559,-0.016908374,-0.009649798,-0.06460462,-0.04860134,0.009827517,-0.04698459,0.0052543804,-0.049465697,-0.07206922,-0.07715675,-0.08312024,-0.0332918,0.051870238,-0.050910667,-0.06970856,0.024847433,-0.05210185,0.010199748,-0.09409038,0.0010769435,0.07433866,-0.101464465,0.0041150167,-0.054953493,0.05924227,0.012893159,-0.050386626,0.041240856,-0.04201684,-0.08718835,-0.028291682,-0.09207772,-0.038124647,-0.030790841,-0.070983976,0.13346219,-0.042785473,-0.042130284,0.08656883,0.08560589,0.09487527,-0.16528304,-0.09021182,0.04354316,-0.083115645,0.014330632,-0.10129856,-0.16038327,-0.026706187,0.0125640575,-0.080213934,0.06829139,-0.05732072,-0.064663514,-0.021601846,0.00082461396,-0.04879665,0.09719138,-0.028140852,0.02444806,-0.087437674,0.12569405,0.109362096,0.059734363,0.10048032,-0.053145435,0.017112728,-0.04148956,0.02408254,-0.004004364,0.087866105,0.067599244,-0.028107217,0.09783271,-0.031065209,-0.016692026,-0.14440604,0.07188954,0.04355427,0.029680155,0.033490937,0.07585889,0.14658053,-0.08245147,-0.044535406,0.019778583,0.06795878,-0.10772336,-0.05735567,0.118587956,-0.043239452,0.14404242,-0.02268505,-0.062725335,-0.041264415,0.054000296,-0.025065476,-0.04917613,0.015461741,-0.016920317,-0.069710255,0.1484649,0.042743493,0.07594659,0.0745629,0.091930956,0.07535682,0.021622246,-0.008786602,-0.0051730797,-0.032863718,-0.0012851473,-0.09325777,-0.018115737,-0.049077764,-0.026591776,0.07726762,-0.001684935,0.08834398,0.021973558,0.00022617866,0.04566575,0.057624348,-0.06789656,-0.022656597,-0.044699736,0.04286831,0.12073173,0.02596492,0.049514312,0.05827772,-0.0522844,-0.0630031,0.057124585,-0.024804391,0.03291598,-0.00829938,-0.055697605,0.029673079,-0.046952866,-0.0012453012,0.0074918256,-0.12520193,-0.07179744,0.07504719,0.1291644,-0.037490137,0.09872804,0.08096407,0.09385207,-0.09129987,0.12021185,-0.032030188,0.032912426,0.013326871,-0.0010203738,0.04732389,0.030447982,-0.016175851,0.055615067,0.052487843,0.109863624,-0.1547896,-0.040684123,-0.021323852,0.09005135,0.04269602,0.01733689,-0.05409078,0.038485482,-0.04342625,0.107639134,0.08527223,0.07166372,0.09935792,-0.011696275,0.102581225,-0.048017807,0.045794144,0.0095560895,-0.02111067,-0.002928917,-0.108261965,0.0055229235,0.019721743,0.02251721,0.0072383154,0.013218224,0.08067129,-0.07264032,-0.046082735,0.11110756,-0.07858464,-0.11731052,0.018081043,0.12915243,0.04399602,-0.0796769,0.107256815,0.014469801,-0.045738928,0.15557659,-0.06657067,0.074246906,-0.009324971,0.08824567,0.1085922,-0.04855533,0.033209775,-0.009576657,-0.15748641,-0.06479237,0.044037923,-0.01700182,0.065925285,-0.044718236,-0.06684707,-0.12793337,-0.11619072,-0.08363531,-0.06319258,0.11457723,0.028184175,0.1446282,0.09007405,0.07963112,-0.08647258,0.007788013,-0.044414796,0.096734315,0.034033123,0.06503684,-0.109274805,0.099267036,0.10168684,-0.03779002,0.085176595,0.021706712,0.10740288,0.062022306,0.013685652,-0.023959734,0.055431757,0.0032529419,-0.078786395,0.042237356,-0.08898423,0.11852612,0.010569946,-0.013015429,-0.060628675,0.1055812,-0.011327362,-0.0691485,-0.09331248,-0.05216509,0.03685779,-0.06773245,0.076401405,-0.01613655,0.0072543016,-0.047429603,-0.1929967,0.04380317,-0.059461657,0.013668839,-0.018754868,-0.028177828,0.0954919,-0.10074581,-0.09408545,-0.12182009,-0.03292499,0.02298064,-0.06702873,0.034486726,-0.09190246,0.029083112,-0.026774999,-0.009168443,-0.064459674,-0.0037217771,-0.06820893,0.048336066,0.034751248,-0.061330274,0.021690773,-0.04279891,0.023744285,-0.035363644,-0.010326682,-0.04645139,0.06022826,-0.050343897,-0.047104646,-0.026239293,-0.06028755,-0.07743273,-0.0057740435,0.07378216,-0.00027250705,-0.029107423,0.077735394,0.033991978,-0.0955913,-0.039042413,0.040816918,0.024486963,-0.11689558,-0.046266954,-0.06756103,-0.12252423,0.016796505,-0.040795136,-0.022149848,-0.07989975,-0.013620694,0.022483617,-0.044886295,-0.049357735,-0.011064121,-0.05988465,0.0006187358,-0.10011815,-0.11700235,-0.041003782,0.018501442,0.021489484,-0.02902525,-0.017195577,-0.08827577,-0.038996294,0.07851789,-0.05864314,0.012833081,-0.006600135,-0.037437104,-0.09119343,0.02600048,-0.08599972,-0.08644658,-0.1070587,0.005638455,-0.059600554,0.028942138,-0.055552993,-0.115721405,-0.021019429,-0.007854347,-0.059077937,0.049697008,0.028424948,-0.10387026,-0.050811492,-0.08305071,-0.092422724,-0.04800415,0.09084893,-0.115536,0.027522989,-0.05099526,0.07784242,0.031927045,0.021012807,-0.08672919,0.040938392,0.01721385,-0.072372414,-0.07184193,-0.026271213,0.00317697,-0.13284884,0.060747307,0.007608961,0.08819088,0.06611027,0.025060656,0.001982227,-0.07813647,-0.082194254,0.090848185,-0.09557151,0.017824752,-0.017179547,-0.051014893,-0.06954916,0.014757071,-0.04001632,0.052542184,-0.078525364,-0.099967,0.020292789,-0.13433006,-0.01432712,-0.04086899,0.03765907,0.101567715,0.03718131,0.10965789,0.057339586,0.08023443,-0.068316154,0.07122484,-0.06067147,0.032066036,0.049260333,-0.079643235,-0.031863023,0.19454667,-0.15213872,0.015316085,0.036597203,-0.13993743,-0.024534995,0.039496377,-0.020565068,0.06428708,-0.058493547,-0.017740559,0.046606388,0.065264344,-0.08263109,0.06640951,0.061098345,0.11454825,-0.06757017,-0.05567298,0.0066470928,0.086036764,0.03216751,0.08185609,0.02891141,-0.072372116,0.14651223,-0.06457017,-0.105041176,-0.19135663,0.026445337,0.030776015,0.06415162,-0.11299541,-0.10802245,-0.053004008,0.036931574,0.031902883,-0.08246327,-0.0043133805,0.028922956,0.07104334,0.16445453,-0.081533015,0.07645649,0.027489532,-0.014855214,0.034418747,-0.13925692,0.028590765,-0.010837248,-0.08019067,0.03279441,0.00011445569,0.10846117,0.026815875,-0.1049722,-0.06395837,0.04179819,-0.0918988,-0.0014911618,-0.10017844,0.06270754,0.04415303,-0.0633776,-0.033749264,0.019119808,-0.092971236,-0.056253035,-0.16473931,0.0970652,0.14114103,-0.07662835,0.077651896,-0.0027758216,-0.086927935,-0.032180436,-0.05006175,0.0019816665,0.05174735,0.05238885,-0.05582934,0.08257725,-0.018216986,-0.021645935,0.023373453,-0.11240215,-0.080255285,0.032335978,-0.04965153,0.036980037,0.042632453,-0.045528095,0.0037004817,0.002609688,-0.013141866,0.012700409,-0.036437955,0.055161867,0.037542,-0.047799364,-0.043163173,-0.10357875,0.003772612,0.0018670188,0.13478506,0.07008586,-0.14610213,0.042009346,0.014679314,-0.031322543,-0.076453105,0.06140996,0.023252467,-0.12975688,-0.18608554,0.19334465,-0.021595772,0.1087767,-0.044291053,0.0720649,-0.1625109,-0.03638805,-0.19962215,0.0114458585,0.14074115,0.06404834,0.062226195,0.016645623,-0.15175994,-0.0069829985,0.06182275,0.04624078,0.0030350257,0.09792961,-0.072641335,0.034389243,0.015012739,-0.06920992,0.115922794,-0.058091637,0.10579618,-0.08252766,-0.12931779,-0.08657504,0.084432445,-0.0060087526,0.08197028,-0.020508798,-0.04810754,-0.05019284,0.0633507,0.07227435,-0.06337641,0.03035177,0.004666981,-0.011433661,0.094541,-0.06384359,0.07151781,-0.06365587,-0.09072286,-0.018048057,-0.16512553,0.10281637,0.044549584,-0.042506486,-0.02804879,-0.008757867,-0.09011574,-0.117498346,-0.055012632,0.06401506,0.020486716,0.122185566,-0.052753534,0.094086945,-0.051967394,0.14757214,-0.15775673,-0.06600658,-0.006589613,-0.014639142,0.062247828,-0.012313474,0.035501484,-0.011778833,0.01320434,-0.0313609,0.13607015,-0.039991155,0.05156308,0.088676244,-0.032757662,0.044269305,-0.06330716,-0.09150619,0.020830672,0.01380657,0.03977707,0.09912194,-0.02185815,-0.01701463,-0.049788382,-0.07676521,-0.0679428,-0.010162475,-0.09311998,0.07937299,-0.07196008,-0.0060937325,0.06911645,0.033622272,0.048881054,-0.121572085,-0.02973656,0.035216406,0.08741508,0.08280685,0.08306475,0.06829093,0.0790188,-0.0051898947,-0.111077026,-0.0690207,0.07680459,0.06562982,-0.009633996,-0.011599055,0.1198522,0.045878448,0.0043264744,-0.044767603,0.13888739,0.06905534,0.10077781,-0.13586248,0.10151511,-0.07993858,0.09518199,0.109489545,0.027478645,0.054247096,-0.029624391,0.05286015,0.22047737,0.024730368,-0.021947011,0.15179075,0.2142351,0.010701881,-0.032154497,-0.08086453,0.19121715,-0.1561046,0.013780092,0.03938146,0.03538853,0.10161549,0.11613072,0.012123033,0.02500355,0.033344716,-0.02630515,0.13986768,-0.073817275,0.09872335,-0.1318563,-0.033184446,-0.025961552,0.025189664,0.11365405,-0.041339684,0.013698662,-0.024508113,0.15626608,0.10695019,0.114267685,0.0012491003,-0.035084527,-0.039098322,0.03171453,0.016140731,0.026701322,-0.09139656,-0.06387792,0.023597755,-0.050969165,0.19002032,0.009471529,0.0060784086,-0.046186134,-0.109878115,-0.085018046,0.08084037,0.024635507,0.09070416,0.063438654,-0.14531513,0.11595883,0.10746723,-0.024612235,0.028451,0.011068527,-0.019664021,0.044782624,-0.088653535,0.00076270505,0.1249627,-0.06193118,-0.044508837,-0.11900161,0.0062097334,0.03434234,0.023374889,0.083495155,0.079684764,0.027098127,0.055787828,-0.048745587,0.05821241,0.058067128,-0.014916889,0.035836894,0.10869222,0.051864833,-0.16010818,0.01014225,-0.060082845,0.048714362,0.017797392,-0.05008624,0.025925163,0.0037959025,-0.027319985,0.1546502,0.04458502,-0.04531596,-0.23834802,-0.17961128,-0.055125766,0.0019385262,-0.1049199,0.0847815,0.029182125,0.1056036,0.015588419,-0.1725032,0.0775217,0.13924438,0.10919036,-0.025100697,0.11346945,-0.06107623,-0.075592466,0.03778759,0.0037028212,0.017709011,-0.031648025,-0.022779373,-0.095995754,-0.06004742,0.025215436,-0.09168671,-0.011754329,0.008015029,-0.037572756,-0.054553367,-0.026869874,-0.00970639,0.013635494,-0.06843303,0.07629607,0.07674446,0.00988242,-0.0453035,0.041633993,0.10621369,0.03333795,-0.039250065,0.06987509,-0.07169617,0.1449036,-0.07268461,0.036162622,-0.0394426,-0.0084466,-0.08234009,-0.13429937,-0.18731607,-0.05022533,-0.16105875,-0.016049583,-0.034494806,0.050593752,-0.056980964,0.09492596,-0.10317558,0.01868949,-0.09404547,-0.012186639,-0.033286843,0.13398945,-0.0907663,0.19158629,0.011334298,0.028806426,-0.009612841,0.009808072,0.09290925,-0.014063602,-0.13037664,0.13750085,-0.0017984601,-0.0030244049,-0.04493246,0.07329887,0.047795027,0.14132711,-0.0043408936,0.051767793,0.06855337,0.09008765,-0.032541264,0.014696437,-0.037176304,-0.035933033,-0.050256606,0.019340774,-0.033230912,-0.026088625,0.039630566,0.03257985,-0.05233017,0.009362152,-0.03720873,0.048863117,-0.074295335,0.011813825,0.057238817,-0.1773911,0.083790295,0.015666438,0.0450335,-0.009699578,-0.049567483,0.054752585,0.054261282,0.0922308,0.053472135,0.036340974,0.13103226,0.11205057,0.050795108,0.07353587,0.13470688,0.047783997,0.11546686,0.09831582,0.00677142,0.049121544,0.07627566,0.08386512,-0.08511471,0.073539816,-0.05854891,0.020936543,-0.05523807,0.12613878,-0.020777155,0.062833145,-0.06823669,-0.01991638,-0.033001304,-0.04271176,-0.14382249,-0.084272146,0.07744966,-0.0790308,0.06449081,-0.064004935,-0.1123117,0.1144293,-0.07507999,0.016033072,-0.0972727,0.040685758,0.0021427462,-0.06507138,-0.015696637,0.0995343,0.0881166,-0.03745052,-0.07600725,0.048999656,0.13407528,0.0057710423,0.06532661,0.041082136,0.09370109,-0.04749343,-0.14664257,0.038924154,0.011086789,0.030968837,0.10187282,-0.032172307,0.07908708,-0.055913683,0.027658667,-0.00010479266,0.055277865,0.064299904,0.03479934,-0.004399655,0.14277455,0.09462281,-0.09024502,0.05066606,-0.031864833,-0.08828544,-0.0055035343,-0.09976425,-0.0027532696,-0.020456705,0.057595972,-0.072217666,0.026852727,-0.01229721,0.02371568,0.014662975,0.15167095,-0.07814922,0.010123245,0.15348838,0.013331169,-0.141672,-0.04854661,-0.002947863,-0.023298644,0.06398259,0.050212044,0.03804806,-0.02258743,0.1510926,0.07033876,-0.0648653,0.06552091,0.0937308,-0.08739364,0.03319387,-0.13943112,0.061207086,0.030575922,0.070662744,-0.050380766,-0.044539537,0.110352285,0.05928589,-0.054051425,-0.117708184,0.07458312,0.1511523,0.075979374,-0.017845942,-0.07273261,0.15038842,0.075659655,-0.011906036,0.007222476,0.10690573,-0.05725559,-0.114547186,-0.06557902,-0.108789645,-0.17481758,-0.012730933,0.10484923,0.010286143,0.07332645,0.05248961,0.027080227,0.0026406108,-0.085112214,-0.03718938,-0.11371026,-0.011079862,0.1527718,-0.052708056,0.08893296,0.0022975388,0.07317189,-0.0055437856,-0.09168644,0.015323165,0.1236576,0.10932767,0.11193188,0.07318156,-0.21951616,0.06834097,0.07060817,-0.076511376,0.15176329,-0.08394405,-0.078946635,0.04050183,0.055001903,-0.012892669,0.063733615,0.0674668,0.041548755,-0.07287432,0.014195501,-0.030036291,0.043405112,-0.028809046,0.055965886,-0.088386625,-0.10903117,-0.01789627,0.09674888,0.06010417,0.03482062,0.109108284,-0.03643504,-0.100390464,-0.022213785,0.12797706,-0.1445664,-0.08188644,-0.06254845,0.046429534,0.044959035,0.0045027863,-0.09565528,-0.02838269,0.0070549473,0.089571215,-0.09536236,0.08627883,0.02173515,0.14368705,0.10014464,0.095854826,-0.021290606,-0.06888635,0.042574033,-0.08475818,-0.004205307,0.004960911,-0.12189311,0.047929298,0.0946486,-0.0016230278,0.028670752,-0.02836808,0.037130717,0.015356532,-0.08594231,-0.0034668832,0.15308428,-0.08025998,-0.043737408,-0.14273469,-0.014373131,0.053607795,-0.10893337,0.031472147,-0.017163819,-0.010338508,0.15923777,0.033446576,0.07364966,0.052566823,0.023575779,0.020701189,0.049944844,-0.07460212,-0.08176216,0.05653393,-0.037680395,-0.009681752,0.05719117,-0.09898873,-0.02125956,0.0033800472,0.010806146,-0.060305595,0.019677993,0.05842367,-0.026401557,-0.02921415,-0.075627364,0.051691104,0.049244873,0.07669091,0.0029751863,0.14557552,0.061125394,0.04447397,0.008019514,-0.010156019,0.12779333,-0.022729479,0.044716757,0.024628686,-0.07708792,0.037386395,-0.0845428,-0.050022878,-0.026731435,-0.033547156,-0.0712812,-0.011512461,-0.08055955,0.0042528864,0.06782952,-0.0712033,0.08067356,0.027706271,0.011898042,0.04209202,0.01785275,-0.055318963,-0.1872925,-0.07243685,0.025682095,-0.056692015,0.032738063,0.100554414,0.07895292,-0.06435991,-0.08542871,0.13575658,-0.055359494,0.098648034,0.009654033,-0.020569108,-0.035690688,0.089479856,-0.17004003,0.035833336,0.10133034,-0.05976133,-0.0514864,0.028324822,-0.062324967,0.07512905,0.0706151,-0.016217213,0.08932274,0.074190654,0.054578315,-0.12587385,0.10381539,-0.005377471,-0.08464413,-0.045325898,0.15471956,0.016821941,0.03458398,-0.07219105,0.17165749,0.047213577,-0.08107722,0.044017136,0.088831514,0.06867319,-0.080535255,-0.04740375,0.097733125,0.02744914,-0.006882485,0.1466656,-0.007858997,-0.025061328,0.043549888,-0.039023247,0.026652485,0.059853032,0.10085355,-0.07807413,-0.044238646,0.10688144,-0.03884356,-0.09165235,0.031191155,-0.02411294,0.010385267,0.06618653,-0.14458963,-0.014564538,-0.15231918,-0.088986784,0.08074665,-0.08064629,-0.019921409,-0.035987005,-0.03161176,-0.07374239,-0.004836828,-0.04038811,-0.08173824,-0.048777062,0.056591537,0.040747948,-0.045415163,0.027385533,-0.10581758,0.05863683,-1.6213e-05,-0.105109625,-0.038574163,0.069644436,-0.04738662,0.010191969,0.0015152828,-0.023912484,-0.051078767,-0.02972452,0.072783925,0.112611935,-0.014203617,-0.11889647,0.019598806,-0.08776708,0.076131694,0.003163332,0.0060512284,0.042529635,-0.039026916,-0.096759334,0.076569386,-0.022498589,-0.067971416,0.035951894,0.05122544,-0.07226704,0.037638385,-0.04556523,0.0040014614,-0.041422643,0.05515161,-0.027084691,-0.02680078,-0.09024458,0.016397398,-0.011856575,-0.008845712,-0.006349244,0.07535949,-0.031792603,-0.021138836,0.14153071,-0.014012052,0.11093917,-0.073046476,0.048258558,-0.011415659,-0.047499694,-0.08233899,-0.057340756,-0.074664384,0.0059039025,0.055241156,-0.07891159,-0.032326695,-0.05054322,0.006284025,0.0072719157,0.02448233,-0.12244767,-0.1048204,-0.06078453,-0.08876356,0.02922074,-0.1326715,-0.03096857,-0.03431104,0.041385803,-0.01706801,-0.11215745,-0.10866135,-0.093471125,-0.03696873,0.0775735,0.059151024,-0.106292054,-0.08125524,-0.039761804,-0.049024124,-0.12886672,-0.025546579,0.02730283,0.08085468,0.04618914,0.058811694,-0.015657589,-0.098168515,0.037197992,0.0038371743,0.0494155,-0.033346605,-0.03214089,0.08928513,0.04866231,-0.0575278,-0.018912647,0.060150273,-0.009252258,-0.12147778,0.02091384,0.040068395,-0.044568975,-0.16569526,0.0032552478,-0.026009299,0.023218617,-0.012476115,-0.0033483084,-0.083960034,0.031764124,0.022448482,-0.106134556,-0.061181054,-0.019685501,0.012063168,-0.0632494,-0.051173933,-0.08112701,0.009121636,-0.022439333,0.03874477,-0.038790334,-0.019401755,-0.085250214,-0.1082752,-0.014138584,-0.016484892,0.071495414,-0.078480124,-0.026575375,-0.036583837,-0.028212927,0.08134199,-0.026764534,-0.15691546,-0.17207764,-0.0074155633,0.0023647763,-0.03398608,0.05590835,-0.0040256022,0.05115143,-0.18740804,0.14517418,0.11645105,0.22245894,-0.056904126,-0.039648704,-0.04524367,-0.19092396,0.01817541,-0.13619082,-0.13922742,0.06753822,0.06304783,-0.111207284,-0.18141554,-0.02398247,-0.09062078,0.028659357,0.018682716,-0.019096574,-0.021601675,0.0527569,-0.06570601,0.02481731,0.014284739,0.045357335,-0.17101285,0.124184206,-0.17873909,-0.08692791,0.07700606,-0.084385164,0.0806955,-0.11415693,0.05071126,-0.032798596,-0.025476472,-0.010363466,0.13830651,-0.0021202439,0.12854213,-0.061508965,0.05978798,-0.054599494,0.10346867,0.08199919,-0.0076634553,-0.10587059,0.05165572,0.004226785,0.05430004,-0.006510329,0.08190946,0.054960493,0.07936315,0.02677209,0.13291547,0.09473276,0.043799367,-0.11360073,-0.1539849,-0.060755886,-0.06853634,0.13184346,-0.16486108,-0.08995061,0.08311123,0.00820151,-0.04777309,-0.12876543,0.024956781,0.058794733,0.008251691,-0.1844787,0.03943848,-0.0063975267,0.040790875,0.073781535,-0.033024654,0.0051995735,-0.016947025,-0.13995504,-0.044629123,-0.048030846,-0.023066606,0.034148872,-0.12105141,-0.02324437,0.084362574,-0.18031436,0.009774497,0.019657338,0.079701096,-0.08548081,-0.029550754,-0.1648308,0.07326006,-0.0032282248,0.043858692,-0.11223309,0.0151399365,-0.017235197,-0.036347523,0.09105229,0.08525645,0.062204897,-0.053598702,0.032134727,0.21196719,-0.080179036,0.073801436,-0.14665334,0.04710575,0.06999515,-0.057323504,0.044916056,0.031794924,-0.05135961,-0.041845523,-0.072557524,-0.042930204,0.1244673,-0.08460581,0.019637693,0.01168519,-0.0006243932,-0.01970589,0.07409129,0.005107843,0.08020411,-0.05187396,-0.052932434,0.033143993,-0.07553658,0.03262207,-0.004577677,-0.005079344,-0.018909208,0.046267137,0.0076853614,-0.084389076,-0.014035871,0.05113656,0.02866377,-0.12153319,0.052001648,-0.080866024,0.012940738,0.026084384,-0.014439271,-0.045973957,-0.029029021,-0.010012894,0.036934357,0.045748446,0.059328172,-0.031108934,-0.076258205,-0.1275054,-0.0077735805,-0.008045214,-0.13881573,-0.11832553,0.047763214,-0.04716588,-0.08085873,0.006579947,0.1757769,0.007722068,0.052326128,-0.0044333595,-0.012428263,0.00065876544,-0.109929636,0.022143029,0.010390948,-0.033462636,-0.092357926,-0.049576957,-0.057461374,0.13016072,0.05029185,-0.040424474,-0.02560171,0.030573267,-0.06639879,-0.16691892,0.08613773,-0.09481814,-0.014746706,-0.05214436,-0.06363473,-0.041068174,-0.10349918,-0.06594588,0.033433203,0.10931846,0.017547257,-0.044450328,-0.02124194,-0.10562236,0.009581195,0.09097178,0.081273586,-0.024147294,-0.08721605,-0.09177232,0.015424353,-0.04057219,0.03140637,0.03443476,-0.06822789,-0.061666023,-0.0206801,0.06493919,0.0086853895,-0.012235732,0.002178579,-0.0027385862,-0.06744243,-0.08942703,-0.0914796,-0.010461317,-0.046177346,-0.01751855,0.0328035,-0.090046965,0.06852997,0.06689508,-0.033491474,0.025810132,0.07951008,-0.009657076,-0.08713956,-0.070755914,-0.051989373,-0.096960805,0.07760847,-0.0844837,0.067286596,0.015322554,0.01994271,0.0062547945,0.05120263,-0.033256337,0.06601495,-0.11614798,0.035568137,-0.08278457,-0.09942708,0.14549048,-0.069517925,0.06593743,-0.13559347,0.05705406,0.0037220805,-0.06164286,-0.05752453,-0.017984683,0.11146912,-0.07690602,-0.0038095685,-0.16739203,0.047416408,0.035094533,0.06437962,-0.051794875,-0.0028324483,-0.16416702,0.062914215,0.066968106,-0.098846324,0.058625292,0.02651197,0.14659758,0.017645076,0.04576544,-0.09493481,0.1273271,-0.09845458,-0.0061138403,-0.06252394,0.15210307,0.068588294,0.017761283,0.040076993,0.054165017,-0.061488338,-0.06430937,-0.079440646,-0.035673354,0.04563406,0.07310091,-0.01921323,-0.06767633,0.0022990166,0.09799103,-0.052426193,-0.06778578,0.02064795,-0.07095839,0.00033354422,0.0611113,0.003155868,-0.11393349,0.0544231,-0.01008488,0.0758346,0.04933908,-0.026002957,-0.011289685,-0.06931739,-0.029765554,-0.19636554,-0.0003595573,-0.031770136,-0.022375204,-0.078363396,0.086169265,0.044306397,-0.0023958536,-0.07478134,-0.036256146,-0.046289638,0.07128962,0.019188976,0.037551463,-0.1728139,-0.09330539,0.08033247,-0.04501237,0.020126516,-0.016512219,-0.08063423,-0.051414732,-0.17715776,0.060464792,0.11207709,-0.0028879142,0.04562582,-0.066017084,-0.10418642,0.05203402,0.20383652,0.11304228,0.064774744,-0.0216184,-0.050364017,-0.11969279,0.046486378,-0.031039272,-0.043316256,0.10557577,-0.17361921,-0.10567031,0.08002775,-0.018758107,0.12728724,-0.091990836,0.08750343,0.03169248,0.20865217,0.025870038,0.075710975,-0.03171383,0.07303805,0.02152707,-0.10932083,0.041008703,-0.092337586,0.010381573,-0.008422345,-0.012734653,-0.12645993,0.06568024,-0.09374131,0.037573997,0.0105642835,-0.099585675,0.08044298,0.03137081,0.11909756,0.0063088997,0.049703695,-0.0719619,0.024079021,-0.11858661,0.03900109,0.08923016,-0.10949471,0.03964779,-0.028316472,-0.032141536,-0.13442631,0.0060967333,-0.06285784,0.0067506228,-0.074095406,0.07490115,0.03068108,0.073451236,-0.009624037,0.105068035,-0.037763063,-0.051856104,0.03238089,0.023895813,-0.08885073,0.032588694,0.05312035,0.059054676,-0.04562576,0.012092911,0.033225477,0.047594097,0.070709735,0.10581167,-0.03783031,-0.0049261646,-0.08764664,-0.046660684,-0.075442284,0.020075038,-0.021399688,-0.04284563,-0.07169111,0.05226746,-0.08053728,-0.057171687,-0.052096,-0.13053213,-0.055781193,0.11917219,-0.09380508,0.121163204,0.05917613,0.04429798,-0.02553231,-0.059068203,0.03200117,0.050356288,0.019395089,0.038703892,-0.05909175,-0.029618727,0.064298674,-0.09067968,-0.1279707,-0.0885506,-0.08932577,0.08384562,0.13194478,-0.03941833,-0.04714457,0.026288886,-0.112380914,-0.013137871,-0.025577854,-0.06592767,-0.13105856,-0.015829245,0.020367999,0.04564769,0.15282896,0.07003514,0.047509417,-0.04289214,0.020494983,0.17113478,0.06767797,-0.10238157,0.08365197,-0.11761911,-0.070195295,0.0651879,-0.113475256,0.13949881,0.01410489,0.15420212,-0.09408603,0.09347835,-0.24637409,-0.06777976,0.031186461,0.091421664,-0.08376269,0.11983051,0.072397076,0.056976575,0.0114306,-0.17588718,0.05663466,-0.07059597,0.011540387,-0.0072727893,0.05735523,0.010085762,0.07925077,-0.16913348,-0.16711022,-0.02403127,-0.0095236255,0.11882628,0.024084501,0.048159696,0.020594645,0.016609805,0.117949925,0.12384629,0.057162143,-0.0007434718,0.11244273,0.013474548,-0.12432075,-0.14746119,-0.017614817,-0.012914862,-0.036743112,-0.06972986,-0.125162,0.07852333,0.13297488,-0.073353775,-0.03282598,0.03445828,0.055547338,-0.043839186,0.05529119,0.011498204,-0.086262584,0.04340632,-0.018308517,0.016303852,0.19567254,-0.04998153,-0.034971606,0.080756426,0.047055803,-0.24320938,-0.09096826,-0.05314613,0.037200518,0.05132705,-0.1877645,0.058343977,0.01862667,0.06850567,0.047578163,-0.09461478,0.05736039,-0.024194723,0.043575946,0.12484922,0.08727686,-0.1717679,0.08156224,-0.044012036,0.07404403,-0.1289716,0.05888119,-0.02431412,0.08853464,-0.09634494,-0.04163865,-0.018407676,-0.16388641,0.09871718,-0.026201881,-0.040067326,-0.06426148,-0.05149326,-0.12527557,0.09087981,-0.05779567,0.026904484,0.025938816,-0.080338605,0.048348866,0.07502299,0.097529225,0.12990555,0.08860754,0.11543008,-0.086014494,0.008633068,0.054645997,-0.06592357,-0.018469114,-0.012650864,-0.04252347,0.03627398,0.12085156,0.017779773,0.022224445,0.10652867,0.033295363,-0.07658557,-0.0779028,-0.09407343,0.2164094,0.11872323,0.017892938,-0.09857289,0.055501606,-0.004381436,0.15202281,-0.07904956,-0.09678943,0.008935588,-0.07469885,0.12525296,0.055443298,-0.059056304,-0.009506726,-0.012341314,-0.063885905,-0.05821064,0.041563455,-0.074910164,-0.13069989,-0.035213158,-0.098104395,-0.022149405,-0.010516235,0.018240979,0.056359682,0.07519639,-0.082442984,0.030127525,-0.050486468,-0.079594344,-0.11497318,0.15241937,-0.053862102,-0.072077006,0.011329967,0.012576296,0.034922373,0.024180787,0.026817443,0.0027871327,-0.057913963,-0.056009375,0.059411734,0.0150825335,0.024543818,0.12014364,0.04451912,-0.013861013,-0.061568115,0.07740473,0.016894452,0.09284423,0.0679411,0.057709582,-0.073343135,0.07084707,0.018167803,0.16487256,0.016079722,-0.0721632,0.02075105,0.015792351,-0.079485156,0.058893755,-0.09556103,0.08114914,0.045042068,-0.07043654,0.026816,0.14849977,0.003496692,0.22858459,-0.09552584,-0.029741677,-0.07059687,0.051923282,0.075633496,0.09009247,-0.059573498,-0.03047629,0.04213834,-0.084631115,0.032204494,0.02104637,-0.069988504,0.008320805,0.13364798,0.05371719,0.045711137,0.012947497,0.21156624,0.044374317,-0.023776982,-0.05180516,-0.014856412,-0.008183145,-0.072394274,-0.047228817,0.009149514,0.119451255,-0.04640654,0.053057823,-0.03351881,0.07325335,0.06351237,-0.010920137,-0.006309018,-0.0043406948,-0.049668826,0.0005809176,-0.057921536,-0.05445034,-0.0015633992,0.043706458,0.026818875,0.0846277,0.105501026,-0.015328965,-0.15168685,-0.05396593,0.0064469352,-0.03692123,-0.017922254,-0.08142861,-0.1369478,-0.03062418,-0.107972,0.0055065504,-0.00913516,0.034268674,-0.01980362,0.06746004,0.054641936,-0.049195174,0.06460028,-0.021766892,0.0012137027,-0.018475201,0.09794591,-0.041300043,0.05984132,-0.03959905,-0.002641861,0.05637307,0.04700958,-0.07537738,-0.014173727,0.027914798,-0.032768216,0.036193654,-0.03557564,-0.13095969,-0.019270094,-0.020516036,0.0022212043,0.07578287,0.031232668,0.106952846,0.04334848,0.12187452,-0.0851363,0.07850522,-0.014496065,0.036074035,0.0024037524,-0.055502906,-0.02501011,-0.1314482,0.036728475,0.010569269,-0.06560621,0.030974582,-0.02988824,0.065491214,-0.06324975,0.037645344,0.024524271,0.028450685,0.058361504,-0.06340727,-0.094031945,-0.0068156854,0.11898912,-0.018164298,-0.014765856,-0.040369477,-0.003366679,0.09396515,0.041161027,-0.12916948,-0.08423211,-0.17455763,0.02974351,-0.0076921955,0.0496341,0.06734184,-0.08066862,0.104850814,-0.089981556,0.09281673,-0.025322925,0.065946534,-0.018966274,0.08341684,0.06524786,-0.059580512,-0.15238431,0.009144912,0.08417076,-0.020224353,-0.064534,-0.030499578,-0.01774928,0.004193177,-0.10319224,0.033361387,0.07189926,-0.051333394,0.020336114,-0.07627587,-0.060672663,0.059939347,0.10231557,0.028407894,0.09892934,-0.07131423,-0.030232295,0.06700761,-0.092141576,-0.0837234,0.060917445,-0.086061336,0.14381485,-0.079759374,-0.029712789,-0.13615373,-0.029027263,0.03334856,0.008289624,-0.092381075,-0.08821681,0.011614512,-0.060591206,0.10550613,-0.028030667,0.014561182,-0.042728007,-0.043575425,-0.0333395,0.054116644,-0.012042731,-0.00574895,-0.08920049,-0.16057664,-0.03564835,0.07452959,0.032194577,0.05959354,0.067026906,-0.06679706,-0.056493856,-0.013960021,0.002126263,-0.036749933,-0.007867138,0.025097087,-0.091739334,-0.060333863,-0.00731741,-0.07565747,-0.13508582,0.049671736,-0.08793494,-0.074673615,-0.058314905,-0.008205583,0.11102273,-0.061706483,-0.06213644,-0.054117918,-0.12033308,-0.038310107,0.082580626,-0.06508635,0.03193638,-0.019683115,-0.0047650225,-0.15490301,-0.03469173,0.079959214,0.00439133,-0.018821672,-0.028323662,-0.0051614796,-0.14991675,-0.061297942,-0.11138831,0.14373311,-0.030427393,-0.051481348,0.07522206,-0.058919303,-0.026168011,-0.01668478,0.04485183,-0.19427828,0.027183026,0.05839111,0.07570468,-0.024616832,0.00064478756,-0.10764463,-0.023012988,0.02769651,0.030745147,0.037172962,0.027904391,-0.056643233,-0.03520426,0.019542169,-0.037848696,-0.036949884,-0.015379944,-0.02169909,-0.043455984,0.00049671996,0.036592867,0.009409616,0.064026736,0.03895016,0.09966836,-0.021259135,-0.06791799,-0.10760972,0.074452974,0.032824103,-0.023409352,0.02685344,-0.05640802,0.08658292,0.10390355,-0.0990097,0.08247839,-0.027450783,0.062124595,0.09368992,0.0091814,-0.13331723,0.050430473,-0.0034483543,0.09422186,-0.16967124,-0.1639839,-0.053729165,-0.15432094,0.040531,-0.04656009,0.10785971,0.20475982,0.0061503416,-0.06569514,-0.044023924,0.16211243,0.11178449,0.12764646,-0.10746604,-0.033518877,-0.0627011,0.07554414,-0.016012084,0.005144036,0.084220335,-0.09061012,-0.070411034,-0.124950394,0.033836737,-0.07842843,-0.10135477,0.16218682,0.051447693,0.06953581,-0.074250944,0.1106361,0.12665404,0.039317023,-0.28285235,-0.036370713,0.025861274,-0.08478825,-0.091562174,0.06739489,0.017159663,0.00013735202,0.09835034,0.09838561,0.032352056,-0.03725096,0.082312986,-0.11907783,0.14440347,-0.012268955,0.16577646,0.08936031,0.055415317,-0.08096568,0.006708682,-0.15018615,0.055207614,-0.03300598,0.051199567,0.048181463,0.034600955,-0.03853338,-0.09049203,0.051397435,0.09396238,0.045861013,-0.13359025,-0.074351214,-0.07703324,-0.006638025,-0.051674377,-0.02172184,-0.05928026,-0.078486525,0.06543652,-0.053153474,0.07903173,0.08337673,-0.029291222,0.05690624,0.2536693,-0.011899277,0.11131122,-0.050430674,-0.13909878,-0.04277791,-0.046769,-0.04808447,0.01904146,-0.0034012392,0.026500175,-0.0032605936,-0.0016447515,-0.011094227,0.021210868,0.083785735,0.051578417,-0.096607424,0.03183623,0.14915945,0.071104646,-0.024965897,-0.09034277,-0.017733494,-0.0057758577,0.06557317,0.040130455,-0.019258285,0.013573963,-0.11729322,0.094523095,0.049311653,0.0057814852,-0.04126198,0.07423557,-0.0014407596,0.014577498,-0.03701323,-0.015542304,-0.100076064,0.02255765,0.02209524,-0.08007984,-0.116342515,-0.052736465,-0.0900657,-0.03708534,-0.1263252,-0.087039165,0.010636267,-0.0139088705,-0.08638208,0.07699149,-0.036262985,-0.12533103,-0.08214588,-0.030467477,-0.010105652,-0.116087504,0.005390443,-0.08688978,0.015626976,0.021823648,-0.0314353,0.07938486,-0.08673237,-0.0786802,0.03760232,0.049471807,0.0038948993,0.022628903,0.039901003,-0.08157219,-0.062834255,0.036588207,0.03686521,-0.027050758,-0.14790809,0.037586972,-0.068406284,-0.053578757,0.01656773,0.0080920085,-0.00930728,-0.10563624,-0.018960038,0.018835343,0.0029723907,-0.04616179,-0.08838292,0.02883467,0.08482921,-0.07411624,-0.00039562583,-0.08113834,-0.032354407,-0.047569573,-0.012373419,0.061762825,0.028673671,-0.04862715,-0.10763306,0.0519733,-0.024671396,-0.017739356,-0.060720887,0.043734252,-0.027498899,-0.0031381869,-0.025447369,0.058592528,-0.082601644,-0.04884979,-0.0037749708,0.0067324825,-0.04374535,0.04223068,0.08977505,-0.040276222,0.034023747,-0.05137593,-0.028563581,-0.022772565,0.029483058,-0.124482624,-0.0061123073,-0.06892274,0.027701415,-0.12647972,-0.026377318,0.09071596,0.0037225857,-0.070264004,0.06625938,-0.06321989,-0.112526104,0.0046486557,-0.010522018,-0.010278806,0.027583763,-0.028187431,7.9624355e-05,-0.060050722,-0.068408825,0.0023051437,0.0030458272,0.011638597,-0.008946577,0.0014465833,0.013341165,0.0030414949,-0.087883204,-0.032873277,-0.08095396,-0.024069317,-0.08613731,0.032435663,0.04313404,-0.10073429,0.008078665,-0.046088323,-0.13115,-0.075602055,-0.054968853,-0.06008015,-0.05212428,-0.025858171,0.054112148,0.0195646,0.038721267,-0.10826323,0.11909305,-0.024928667,-0.047099378,-0.107695915,-0.13007855,-0.012452397,-0.04920795,-0.0997043,-0.034816436,-0.045724597,-0.009115125,-0.03439378,-0.0147544425,0.020627134,0.058278188,-0.072145395,0.03698476,0.06754398,0.08450332,0.032378525,-0.06436908,0.026302421,-0.00028439733,-0.043593403,0.062428437,0.040888127,-0.017461024,0.019892462,0.014127268,0.059100296,-0.1049174,0.022913778,-0.057708308,-0.052804127,0.07289062,0.0942982,-0.0920125,-0.055009346,0.08250611,0.06596849,-0.08639739,-0.057815585,0.09750784,0.036827277,-0.051073506,0.11699676,-0.025313755,-0.025342735,0.026464261,-0.042047024,0.09017462,0.097673215,0.081844,-0.025574509,-0.010223876,-0.09277487,0.066156425,-0.071162716,0.040282615,0.009332371,-0.141822,0.08484593,-0.0061888727,-0.011819839,-0.066215605,-0.074172884,-0.01330977,-0.0063405074,0.017491177,0.21115938,0.058126513,-0.020707767,0.0007822983,-0.13418351,0.053144917,0.049416814,-0.019587528,-0.042811073,-0.02934866,-0.07179312,-0.038518034,0.023146965,-0.06200621,0.11610755,0.040595774,0.08499462,0.020215854,-0.060887985,0.2802196,0.006107531,0.07561189,-0.03789968,-0.04410997,-0.049272794,-0.10081558,0.040137406,-0.003778487,-0.044854093,-0.08707339,-0.05041078,-0.048313804,0.04879353,-0.0725463,0.08711839,0.0052574477,0.03280028,0.058354057,0.10115291,0.04246472,-0.0079708295,0.06327689,-0.011014363,0.16021468,-0.06886732,0.021946462,0.017441817,0.11851959,0.110758275,-0.09166276,-0.033786144,-0.011523072,-0.037064724,0.05741598,0.012227682,-0.014959426,-0.0676426,0.12821423,0.1673421,0.07400108,-0.047582652,0.046139173,0.040417984,0.058074098,-0.10395787,-0.031728663,0.18007506,0.17878783,-0.061669566,0.046170846,-0.06538627,-0.010346336,0.10468835,-0.050916363,0.015860477,0.07151691,-0.091362774,-0.04138668,0.015381577,-0.004055064,0.008045734,-0.118236616,0.0031275179,-0.044698976,-0.08509035,0.072154626,-0.03126841,0.072671935,0.0012395172,0.05642975,0.104062915,0.08854806,-0.09740346,-0.019629184,0.10342644,-0.0127594685,-0.20097022,0.025070941,-0.0041496437,-0.023124376,0.006273615,0.010624319,-0.047427353,0.100801714,0.022528697,-0.043286864,-0.13355926,-0.118550695,0.08207475,-0.078107215,-0.07584301,0.22415157,-0.07783285,-0.054327313,-0.18350168,0.0038789103,-0.05295007,0.09862671,0.038026866,0.0026308135,0.041919068,-0.069577046,0.06455734,0.0125352815,0.0013660468,-0.06661565,0.02547047,-0.011107619,0.08015896,0.0035915906,-0.055576626,-0.04714039,-0.0036603985,-0.0038049528,-0.10305375,-0.09161877,-0.043226328,-0.061603237,0.031809773,-0.10973162,-0.049754485,0.07331739,0.07394518,0.029611886,-0.03126089,0.16795833,0.013159498,0.007621481,0.15297231,0.09570158,0.01762465,0.12565528,0.067613155,-0.08363302,-0.0035182012,-0.038555633,0.0060123797,-0.1197416,0.092757605,-0.04932956,-0.10631542,0.07559418,0.1156476,-0.024339262,-0.019650577,-0.03758987,0.056755036,0.039750297,0.06131951,-0.08935179,-0.110785656,-0.06458268,0.031318583,-0.07424407,-0.064332224,-0.020055924,-0.057658747,0.03718636,-0.1792493,0.00075915485,-0.09251499,0.09182227,-0.024588551,0.13450491,0.029143453,0.036007285,-0.10985132,-0.058311187,0.09050614,-0.078431755,-0.11242247,-0.055238355,0.01583105,-0.05856173,-0.102137126,-0.04506636,-0.039287243,0.038084324,-0.07963505,-0.06318102,-0.02635145,0.11394221,-0.08318544,0.04849103,0.006645441,-0.016548201,-0.08459102,-0.04700381,0.068981074,-0.016642053,-0.1287885,-0.035608407,0.10391561,-0.0003947226,0.06926343,0.13309616,-0.031338133,0.15467274,-0.045505412,-0.05273564,-0.06591456,0.03561897,0.048931785,0.046682198,-0.080422446,0.11775796,0.010466534,0.051704925,-0.049523693,0.052925102,0.019054897,-0.05330294,0.047711562,0.042887356,0.08979365,-0.025069945,-0.02965186,-0.014446496,0.020457743,0.04705948,-0.19656105,0.10103001,-0.026890606,-0.10593627,0.06860932,0.038252898,-0.16876532,-0.04789544,0.033818692,0.06166939,-0.094094746,-0.08419732,-0.06845215,-0.03455631,0.02390078,0.112813175,-0.096921846,-0.08055341,0.017191535,-0.14610077,-0.016416924,-0.08069278,-0.015262606,0.08978598,-0.05283098,-0.0049972422,-0.008206622,0.110519946,0.17207803,0.049705964,0.09028472,0.15118644,-0.06380695,0.04777504,0.0015140136,0.020267466,0.07327154,0.14963084,-0.026418192,-0.09246611,0.08538092,0.008724389,0.0628169,-0.017182242,-0.061934125,0.042042773,-0.07539627,-0.027072188,0.089405686,0.0059015187,0.09766699,-0.012323096,0.076063685,0.041280363,0.120782815,-0.16604887,-0.009002884,-0.07024854,0.02797852,0.09179102,0.12560385,-0.10211877,0.05356692,0.051398173,-0.052928336,-0.0814686,-0.05822995,-0.055755015,-0.02206602,-0.012876114,0.089992404,0.014305136,-0.12870246,0.04263921,0.18630306,-0.025659101,0.0629618,0.015127396,-0.03406241,-0.007318861,0.10657667,-0.13549508,-0.015412065,0.10062781,0.011730811,0.09249098,0.13007912,-0.051121924,-0.14576486,0.043688755,0.073204264,0.019208156,-0.0041809767,-0.015751077,-0.050123174,0.087266706,-0.1123472,0.032038048,-0.030877657,-0.07042582,-0.017512813,-0.15646398,0.09348799,-0.008523635,0.012299815,0.10453199,-0.06369575,0.02010298,0.05717668,0.015307228,0.0066542923,0.05586656,0.03928836,-0.02886921,-0.12598424,0.016946644,-0.00814208,0.054818578,-0.008977425,0.007010795,-0.024993807,-0.035936117,-0.00841913,-0.06446767,0.13517684,0.05052226,0.039399687,-0.018966937,0.055929385,0.023311948,-0.06004421,-0.042345833,0.0151868835,-0.043098513,0.050799318,0.031243924,0.03664864,-0.032107797,-0.033522483,0.13800478,0.10525698,0.055311605,0.09412133,-0.05219906,-0.0096392725,-0.08298608,0.032803554,-0.06943237,-0.016827455,0.15046373,0.0039702733,-0.052976854,0.07826461,-0.08850921,0.058330923,-0.00714871,-0.022755096,0.02397925,-0.00087725295,0.09011675,0.099486165,-0.13007985,0.10715407,0.06256398,0.08531788,0.07663426,-0.042062394,0.15526499,0.14083624,0.014627901,0.02206622,0.092703834,-0.047442015,0.024813116,-0.029215103,0.12509292,0.06871937,-0.010961498,-0.16239753,0.0783112,-0.041384663,-0.043803517,-0.01739042,0.07794658,-0.08247204,0.04288669,-0.009614079,-0.018578922,-0.051940583,-0.08325962,0.028359793,-0.074734695,0.012041331,-0.08550549,0.03612472,0.0045206877,0.06655725,0.10126466,-0.021525485,0.032944333,0.0059184404,0.097302936,0.15667121,0.054724768,0.066824034,-0.02334267,-0.035748772,-0.027175844,0.059358682,0.07286563,0.01474352,0.059342474,-0.057278287,0.003143453,0.09538523,-0.014354022,0.15520884,-0.09618337,-0.058903024,-0.06659292,-0.010114546,-0.04025722,0.053244706,0.06211078,0.06132715,-0.03593396,0.06079443,-0.045705177,0.084595546,-0.053852204,0.043723676,-0.13086326,0.06522771,0.016539358,-0.036261268,-0.052927118,-0.0055621145,-0.09022842,-0.024899393,-0.075830854,0.17667922,0.039042935,0.024096249,0.020214079,-0.11953003,-0.00039738003,0.049800314,0.118292496,-0.067803964,0.06263489,0.00032057706,0.12712528,-0.029391386,-0.20509847,0.0028478438,0.12968615,-0.049308337,0.10224175,0.030158456,0.037523825,-0.0551051,-0.004198259,0.123653956,-0.015034348,-0.08982467,-0.10099915,-0.0058556073,0.0070617166,0.021817071,0.083272755,0.017613117,-0.033811055,-0.004871745,0.071261644,-0.05079907,0.12522414,-0.022163771,0.06778471,-0.049726956,-0.067476235,-0.07283864,-0.053695608,0.11366203,-0.075952664,0.10230096,0.022222428,-0.041421015,-0.11936453,-0.06998517,-0.20931809,0.02735507,-0.12876324,-0.11626984,-0.06556022,-0.1355838,0.028259253,0.012265235,0.13350934,-0.04206494,-0.027827598,-0.07645574,0.033573814,0.0017891825,-0.04499015,0.04282393,-0.004728479,-0.04233849,-0.009412354,0.14068238,-0.074329846,-0.03703802,-0.043167632,0.11317711,0.07987437,-0.03153098,-0.018367428,-0.020256894,0.015323838,0.041022282,-0.027956253,-0.12476218,0.06507511,0.07995593,0.075206585,-0.058668144,0.034348533,-0.049430687,0.020220472,0.0749219,-0.06912616,-0.112256445,0.0529282,-0.06381135,-0.053993393,-0.07189233,0.053074736,-0.05196509,-0.015498775,-0.035504848,0.07741534,0.0054226266,-0.078335516,-0.03162255,-0.11490525,-0.089550085,0.022609375,-0.026311377,0.048985623,0.029481845,0.07359793,0.0031130936,0.11678066,0.0856129,0.055225175,0.10493348,-0.06520507,-0.124542356,-0.032162003,0.019723393,0.0063425493,-0.20073369,-0.0029293734,0.10932029,0.06015485,-0.0052254885,-0.008630104,-0.067373596,-0.033763845,0.012766905,0.04527107,-0.015599285,0.005843534,0.06374417,-0.22446957,-0.053298336,-0.09999983,0.03628189,0.038765527,-0.009634607,0.1742211,-0.029847246,0.024709241,0.12971301,0.09572373,0.12492257,0.014895764,0.09267452,-0.05622298,-0.004941794,-0.06518481,-0.11425962,0.029574914,-0.04993396,0.05097209,0.06081049,0.14027461,0.12948863,0.0027494866,0.0945736,0.0013030437,-0.12619956,0.077140175,0.013854245,-0.03740987,0.112407304,-0.020634087,0.042952985,-0.01657842,0.055956632,0.05918797,-0.088312596,0.07314019,0.040970836,-0.010069207,-0.12882836,-0.041424196,0.023412395,0.06461673,-0.13493237,0.055628777,0.07135674,-0.07811524,0.071357004,-0.10853851,0.059064925,-0.0775814,0.104922324,