-0.24211703,-0.13535158,-0.23473045,0.07928507,-0.0153401205,0.041824095,0.1269928,-0.14741059,0.13771565,0.13828751,-0.1686163,-0.04108886,0.099872,-0.06412365,0.040490806,-0.07610411,0.066573106,-0.21231881,-0.0600515,0.13335954,-0.22256024,0.097200714,-0.0044365586,-0.11148173,-0.14783385,0.1936392,0.08191535,-0.1793503,0.16431394,-0.11557594,-0.06316015,-0.12260103,-0.08987887,-0.080210954,-0.008489972,0.020373888,0.036044743,-0.0022155645,0.057134703,-0.009579545,-0.16529652,-0.09655477,0.08909742,-0.029253542,-0.06945976,-0.062898174,0.12633838,-0.22479513,0.07014556,0.06311398,-0.08756421,0.0007030622,-0.04372501,0.16872352,-0.19700904,-0.095841266,0.11878655,-0.2057835,-0.18631062,0.11928513,-0.111603566,0.10112153,-0.020254359,0.030259484,0.14036262,0.032609858,-0.20431493,-0.1952031,0.0935141,-0.23471822,0.088513404,-0.15312624,-0.052792545,0.08795335,0.008256998,-0.12789011,-0.109139085,-0.27666438,0.047822308,-0.03397339,-0.06074245,-0.10905656,-0.05360683,0.08253987,0.14178781,-0.029897371,0.030066226,-0.023537531,0.08175961,-0.07872014,-0.07643838,-0.2195781,-0.09051265,-0.04017392,0.09336897,0.15969071,0.063740335,-0.30042386,0.047008812,-0.102004886,-0.04748222,-0.10502237,0.09981136,-0.044322368,0.06373925,-0.0912929,-0.12388293,0.030844182,0.14463505,-0.09725095,0.022923296,-0.22265756,-0.18373707,-0.103068456,-0.059133146,-0.03807207,0.15930694,-0.009043164,-0.2620046,-0.21429002,-0.015721818,-0.1285996,-0.01892033,0.21958044,-0.034876607,-0.05232688,-0.17691061,-0.16856183,0.07240386,-0.19374543,0.029786855,-0.14481983,-0.02123345,-0.19543596,0.14404115,0.051111206,-0.04274053,0.10082849,-0.041441847,0.03893819,0.026525693,0.003585284,0.09420018,-0.06286217,-0.063506864,-0.20395513,-0.04141031,-0.10156732,-0.054206755,0.12960565,-0.22420087,0.08478267,-0.18391067,-0.022881294,0.20191823,0.03717264,-0.001825067,0.09537018,0.1540234,-0.08555911,-0.15034996,-0.0003836657,-0.16707578,0.060779903,0.10989625,0.010160374,-0.16196744,-0.11703744,0.084976286,0.037193958,-0.048162706,-0.103202775,0.035761572,0.02367057,-0.16143842,0.037118185,0.13418311,0.1010209,-0.14196493,0.11324174,-0.01886978,0.048250355,-0.076446705,0.10840546,0.027541516,-0.07445051,0.004588304,0.20553036,-0.14193127,0.035967276,-0.0708665,0.07252366,-0.014481156,0.13250962,0.005147693,0.08083075,-0.0027262075,0.0068879556,-0.055250168,-0.015009775,-0.22745429,0.019871144,0.04121031,-0.032466162,0.123261034,-0.079489104,0.05217034,0.14575654,-0.10693098,-0.08893108,0.035154488,0.11200333,0.08939904,0.028577736,-0.22479498,0.06986473,-0.023282684,0.021290598,0.10051743,-0.02742341,0.00411204,0.04556349,0.0009420714,-0.2207159,0.10379283,-0.0373948,-0.056291595,0.024565214,0.036959033,-0.109938756,0.025159104,0.037622165,-0.108917326,-0.01986195,0.06673478,0.016943797,0.12305813,-0.014225074,-0.14312303,0.033187583,-0.08849361,-0.047857944,0.021255126,0.06866085,-0.09745551,-0.13690935,0.14204085,-0.13922542,0.09699725,-0.052545264,0.0905865,-0.12948744,0.17476259,-0.062109392,0.046845753,0.1792086,-0.07130949,0.095412925,-0.01089155,-0.105697885,-0.11811674,-0.013095541,0.024070133,-0.15291402,-0.14375101,-0.17580906,-0.07017711,-0.0631019,-0.00045046327,0.12780365,-0.0017687973,-0.2360008,0.45905197,0.088979855,-0.01757802,-0.11038207,0.056984223,-0.01685594,-0.08555429,-0.028565466,0.036062032,-0.0066294186,-0.08229123,-0.07375907,-0.13746212,0.039330903,-0.16320619,-0.017793842,-0.14270118,0.10161513,-0.03267692,-0.027376082,0.060857445,-0.083156794,0.057732165,-0.086909465,0.018118521,0.08863031,-0.14017624,0.13844313,-0.11154135,0.09179213,-0.05831589,0.10141071,-0.08172517,-0.1401405,0.02755277,-0.0430603,-0.1258206,0.12753896,-0.07698258,0.05325308,-0.05325955,-0.022602128,-0.023742752,-0.017502207,-0.12672801,0.083143495,0.0026586836,-0.043204356,-0.019030903,0.11686241,-0.11207823,-0.15802547,0.15685548,-0.21738844,0.05125988,0.080555275,-0.22080512,0.054282956,0.035285994,0.10505298,0.1375652,0.012069672,0.088150315,0.031178003,-0.13978145,-0.018524375,0.0061520664,0.13885812,-0.06885532,-0.12740073,-0.1103332,0.06563193,-0.075443715,-0.048929054,-0.05850345,0.0864277,-0.23717573,0.14222983,-0.015104329,0.08987761,-0.07825708,-0.037767693,0.03525093,-0.04981761,-0.18269554,-0.19264835,-0.23033689,-0.17305347,-0.12121735,-0.14737816,-0.0114751225,-0.070572115,0.022056138,-0.060652666,-0.034014158,-0.03351495,0.046784543,0.059281565,-0.11809714,0.049625542,0.14609578,-0.13208085,0.0003324407,0.14273882,-0.15732063,0.05814561,-0.07589341,0.08044013,-0.02795821,-0.091319464,0.03501863,-0.2714126,-0.09113156,0.08579351,-0.14201319,0.060269326,-0.050348375,-0.201815,0.030240456,-0.07084207,0.02080446,-0.15575919,0.008139145,-0.06374659,0.045054123,-0.039910752,-0.12564686,-0.06228746,0.048907097,0.032324757,-0.109696835,0.10303672,-0.0021303329,-0.1297647,0.12618269,0.15437621,-0.1242408,0.117990814,-0.08765715,0.13205618,0.018573148,0.058666915,0.012048178,0.08127247,0.051988553,0.1643009,-0.0071707834,0.11655635,-0.12884112,-0.04404534,-0.034342825,-0.08744476,0.041673683,-0.043642525,-0.08510848,0.10421965,0.0426682,0.07098002,0.013993377,0.0027775315,0.025543986,-0.066254295,-0.05811501,0.015685314,0.048399556,-0.0072653177,-0.17255224,-0.07122312,-0.3622274,0.023770737,-0.030643921,0.0678107,0.07102019,0.07162258,-0.059591975,0.17053916,-0.1348407,-0.10371151,0.033790782,0.04394038,-0.19048502,0.020012213,0.097627744,0.023126764,-0.110377386,0.08167914,0.035187643,-0.09938088,0.11154925,0.052818447,-0.045991436,-0.09132994,0.007620994,-0.04557798,-0.07766313,-0.00822114,-0.058562573,0.1330479,-0.10686089,0.09617839,-0.09860689,0.007903819,-0.015083048,-0.14287756,0.057200033,0.09454556,0.0940124,-0.10968619,-0.016698739,0.17596288,0.044906612,0.16525641,-0.14063619,-0.072848216,0.024777232,0.12451742,0.051070802,-0.17696212,0.004789494,-0.11218299,-0.11996749,-0.12080389,-0.06309455,-0.01470051,0.08653247,0.13598366,-0.01771633,0.015795073,-0.17072864,-0.113240585,0.103807606,-0.03498894,-0.044378232,0.118618056,-0.21348335,0.0010370491,-0.2780976,-0.08828666,0.0010558658,-0.12678154,-0.035909023,0.08642288,-0.19499242,-0.006228755,0.066093415,0.030053558,0.04751682,-0.013532152,-0.06695082,-0.22560225,-0.050295465,-0.120094284,0.031350736,0.026921244,-0.10094124,0.011903968,-0.14105767,-0.080117725,-0.14455244,0.10924422,0.13962843,-0.09440252,-0.029897746,0.025697276,0.037839256,-0.14685024,0.097794265,0.11819137,0.05597669,0.0026029884,-0.07074235,-0.12049443,0.15892944,0.02620463,-0.14113224,0.071606785,0.07005585,-0.14408614,-0.039049745,0.15762235,-0.116974264,-0.036405038,-0.106474616,-0.08990212,-0.019676894,-0.15462548,-0.018489942,-0.012645636,0.011008348,-0.027123585,0.051610004,-0.078869574,-0.011756355,0.074624,-0.019868447,0.050232194,0.09423219,-0.13890855,-0.13317569,-0.054347523,-0.103452414,-0.17329095,0.10421343,0.104353905,0.09503243,-0.19732526,0.049053736,-0.19295871,0.0906069,-0.044669066,0.09782909,0.037670165,-0.08424653,0.016916556,-0.13974604,-0.052494157,0.18808337,-0.065101564,0.10509587,0.0468486,0.09871819,-0.056781307,-0.059908714,0.048836634,0.06328193,-0.23631737,0.10493065,0.14505415,-0.014871924,-0.107063904,-0.07426015,-0.2112055,-0.059890777,0.09419297,-0.20615427,0.16302115,0.09015757,-0.053256344,-0.051059462,-0.10985862,-0.02396645,-0.06252882,0.2348605,-0.062486425,-0.025518397,-0.06659916,0.051139776,-0.028389966,-0.061404042,0.08712479,0.07293225,-0.23937498,-0.12868346,-0.037857853,-0.0037855522,-0.0156111745,-0.15379685,-0.06674297,0.023515308,0.07628804,0.03731448,0.050577294,0.008145295,0.18211111,-0.13991538,-0.04487029,0.10041793,-0.12167124,-0.15839902,0.21355031,0.005582951,0.26781258,0.13846917,-0.16617246,0.016493408,0.08507542,-0.05496988,0.04752472,0.021312464,-0.007465527,0.07197596,-0.12283409,0.09680762,-0.004321702,-0.12977949,-0.15802127,-0.18147169,-0.028083911,-0.15991245,0.042158846,0.005929645,0.012596876,0.05275566,0.119694695,-0.040184904,-0.06967649,-0.105558224,0.042214196,0.080121405,-0.083408035,-0.14458439,-0.14908963,-0.14978667,-0.14483628,-0.172182,-0.018135779,0.10209883,-0.02578308,-0.0022206504,-0.10526867,-0.14304534,-0.0036131477,-0.22280048,0.02917815,-0.08963578,0.10186467,-0.08055323,0.10510319,0.13194844,-0.1289327,-0.106771655,0.12026858,-0.023468394,-0.015523577,0.010318762,-0.23148617,-0.10247998,-0.112273425,0.07834163,0.07177477,-0.04540888,-0.024979949,-0.030135486,0.011604147,-0.06199257,0.120340995,-0.12114126,-0.10345767,-0.043207787,-0.33785066,0.0903675,-0.044938162,-0.0986451,-0.032528885,-0.014125468,0.11131507,-0.13529707,0.10228349,0.11957114,0.0066227266,0.08663903,-0.14853483,-0.031548787,-0.13914767,0.11889545,0.0113322325,-0.08741491,0.109423995,0.040467057,-0.090805374,-0.030680701,-0.036282793,-0.08552067,0.003616053,0.14460851,0.08964699,0.104056425,0.051858224,0.027025864,-0.06740078,-0.19156632,-0.10685559,-0.008409762,0.10822393,0.09318287,-0.14730518,-0.010137667,0.10276747,-0.111744605,0.013965454,-0.10049937,-0.20935407,0.08979028,0.07711756,-0.0539122,0.048231494,0.040306758,0.07109119,0.049783893,0.08504273,-0.14433868,0.077312864,0.11182193,-0.06730215,0.1018864,-0.2611916,-0.028700367,0.1499275,-0.12233452,-0.039583523,-0.071877874,-0.045461792,0.09469991,-0.12665625,-0.08474391,0.025645763,0.06746475,-0.17271721,-0.015550669,-0.071223125,-0.038173333,0.09385572,-0.015987901,-0.038119916,-0.11233376,0.03537532,0.061606783,0.054897796,0.07864663,-0.07160415,0.018599508,0.08026737,0.09366247,0.06572417,-0.12808837,0.002452463,0.110009335,0.093158774,0.044492006,0.028672302,0.13254134,-0.26393303,0.07928227,0.045381106,0.03351503,-0.0036814527,-0.15857688,-0.22185706,0.004786903,-0.061162047,-0.19392627,-0.033713505,0.06769673,0.012895641,0.10152092,-0.13459629,-0.10089543,0.098856084,0.0023027384,0.090901196,0.05295514,-0.10828297,0.016161889,-0.27214646,-0.09157502,0.020780038,0.04973925,0.008618614,-0.18657534,0.082022205,-0.0023072455,-0.020024052,-0.07765963,-0.24734285,-0.20766494,0.063648395,-0.015035798,0.16914026