-0.1324786
-0.022654988
0.0010842654
0.12536618
0.071612485
-0.16094966
-0.1188066
0.04220473
0.050576873
-0.043743227
0.013544273
0.073759414
0.12686487
0.1683546
-0.039610997
-0.078994624
0.014008559
0.021165792
0.08149426
-0.1484001
0.044402853
-0.0035103066
-0.07612304
-0.1298714
-0.2700311
-0.05766118
-0.043768447
-0.02399314
0.011380919
-0.07199699
-0.0062043504
-0.051726438
-0.1280292
0.02138553
-0.033480555
0.02404329
0.031789962
0.01755349
-0.067597084
-0.12393845
-0.009351275
-0.04121504
-0.023698209
-0.043846093
-0.16605671
0.051253967
0.081264615
-0.061038624
-0.035865773
-0.22726291
-0.06184482
-0.036372144
0.0334215
0.04254806
-0.05864904
-0.14755023
-0.09796474
-0.010147853
0.032346554
0.10351807
-0.03952116
0.028046722
0.004162391
0.003532574
0.008440433
-0.058848366
0.040613078
0.0013361152
0.10755652
0.11008795
-0.04093456
0.055568773
0.025452273
0.08545762
0.08391541
0.06319403
0.04774335
-0.023998367
-0.028576585
0.015122216
0.0691268
0.08336764
-0.16844533
0.040414784
0.20556371
0.16556421
-0.01720495
-0.12147373
-0.012328533
0.22221637
0.034878723
-0.09111197
-0.10616378
0.16915464
0.1576238
0.051497404
-0.19970915
-0.020668777
0.14203437
0.14183086
-0.006437904
-0.05901926
-0.18314874
0.03642041
0.058284264
-0.07377862
-0.01486761
-0.11198305
-0.11018732
-0.053975623
-0.122587875
-0.026773902
-0.048105214
-0.11122755
-0.050407365
-0.027442064
0.07484955
-0.034325413
-0.09938117
-0.077642106
-0.012693825
-0.031325027
-0.1285522
-0.1622601
-0.108401544
-0.08568323
-0.029212901
-0.058338623
-0.0063861944
-0.08131415
-0.0866987
-0.058795225
-0.0545083
0.005955122
0.10481495
0.015684284
-0.12954585
-0.11253454
0.062221676
0.14707811
0.032995816
-0.09822084
0.11438855
0.10920716
0.09238212
0.06380381
-0.041638885
0.07264217
0.07511273
-0.012578693
-0.12712654
-0.11780979
-0.07067605
-0.055620335
-0.1505842
-0.13322298
-0.0172998
0.10094785
0.011278755
-0.16370624
-0.0091468245
0.12172964
0.1771954
-0.0335505
-0.20440811
0.08364341
0.11532736
0.05501111
-0.16582368
-0.05172637
0.15057448
0.1152718
-0.009327949
-0.12300395
-0.122750014
-0.061609615
-0.12824042
-0.12528172
-0.037493568
0.07119109
0.011652446
0.028608726
0.026640031
0.07470233
0.14131065
-0.0436675
-0.012861296
0.13406388
0.05502426
-0.14714603
0.12135113
0.11820248
-0.04379342
-0.1319984
-0.15220359
0.108911574
-0.12176502
-0.18873751
-0.15417674
-0.03336553
0.030033538
-0.053511214
-0.027528606
-0.0097586755
0.049128715
0.028910529
-0.13740973
-0.06094444
-0.07433783
-0.07948352
-0.008399186
0.059859034
0.08805864
0.042393085
0.05456863
-0.003894818
0.068569675
-0.056135993
0.014539428
-0.040500868
0.04038301
0.058121603
0.09308808
0.034920588
-0.06325543
-0.17723389
-0.12407934
-0.036706757
-0.17231393
-0.004254488
0.02556589
0.08181521
-0.037473798
-0.25312498
-0.021380568
0.06501104
-0.08495438
-0.13819204
0.053563572
0.08689317
0.07918932
-0.115728185
0.050241668
0.07191561
-0.11276132
0.09672113
0.08695922
0.135108
0.06935056
-0.07650461
0.01854665
-0.05160014
0.020762056
0.037704818
0.070630595
-0.03868954
0.02590044
0.13203381
0.13354202
-0.07523635
-0.051882938
0.03631617
-0.031794358
-0.26029325
-0.12687124
0.0041028145
-0.035365857
-0.04806971
-0.029483011
0.014281436
-0.10977389
-0.15189464
-0.0466174
0.06271803
0.08353107
-0.13549256
-0.017558739
-0.00047977685
-0.17098281
-0.0038690304
-0.10550656
-0.1410797
-0.12759624
0.03244628
0.083628505
-0.040310327
-0.04250275
0.0050603007
0.12173866
0.10591682
0.074383795
0.1051611
0.17960031
0.13297229
-0.037619326
0.023362653
0.08248814
0.082179785
0.0022932051
-0.09005192
0.00093002105
0.15968704
0.11832336
0.15565832
-0.026316583
0.14268403
0.20027478
0.07826012
0.10676084
-0.030605797
0.0881583
0.2072214
0.15821643
0.1115814
-0.073329836
0.14000465
0.20896196
0.03250648
-0.11241435
-0.1406805
-0.004343429
0.07327846
-0.09019314
-0.20103332
-0.24304944
-0.16295157
-0.111713395
-0.010874752
0.053855054
0.011447616
0.023923086
0.017453624
0.123117924
0.015602622
0.012249153
-0.036995254
0.027228938
0.008112229
-0.034833584
-0.16013499
0.003206873
-0.06693869
-0.06395541
-0.001908978
-0.08289552
0.038398005
-0.11145507
-0.23989262
0.0072794706
0.07449996
-0.032853443
-0.17948663
-0.17255595
-0.099945955
-0.11208195
-0.13541472
-0.13622294
-0.069723815
-0.14038059
-0.0031913393
-0.01938819
-0.041004304
-0.048291396
-0.052328434
-0.03435464
-0.075467296
0.010795606
-0.002882436
-0.019551866
-0.11078486
-0.051789805
-0.070233
-0.019601623
0.03150683
0.03070865
0.15356158
0.044520013
-0.33194292
-0.11058894
0.057790596
-0.062433213
-0.17704755
0.014756256
0.0046554348
0.06932268
-0.10695947
-0.04606901
0.10034099
0.16640608
-0.08842807
-0.08235522
0.015826039
0.09218259
0.1752898
-0.09340531
0.12847023
0.16185534
0.15246537
0.04408426
0.0987954
-0.16885413
0.017947327
0.06498434
-0.033686515
-0.013933274
-0.1108643
-0.03971669
-0.013942015
-0.047205783
-0.006666699
-0.16893968
-0.07514514
-0.051163856
0.06212703
-0.059225034
-0.11034081
-0.14061306
0.012976708
0.12744915
0.13024177
0.07553732
-0.06304216
-0.13644537
0.050060943
0.19341391
0.11302716
-0.1171917
-0.24459468
-0.05250067
-0.016645813
-0.08670092
-0.15102285
-0.0540061
0.028523987
-0.094262145
-0.2028384
0.001141389
0.022223746
-0.038921617
-0.087536044
-0.033447962
-0.06011785
-0.062205907
-0.08716912
-0.13860145
0.027921347
0.08053415
0.0026779186
-0.08370404
-0.04765165
-0.10416322
-0.10094453
-0.10366886
-0.13769633
0.031593546
-0.03576937
-0.048741795
-0.10827952
-0.14750782
-0.076546445
0.1439708
0.18649904
-0.008606669
-0.1225235
-0.20559356
0.1947143
0.19824064
0.044958282
-0.091434784
-0.14439757
0.1586651
0.01939279
-0.0052228253
-0.10505645
-0.08365895
-0.23361202
-0.0070711058
-0.00987342
-0.04246318
-0.038361218
-0.22402155
-0.16136874
-0.020205667
-0.034648012
0.13442971
0.098440945
0.017600292
0.06590246
-0.0021840753
0.070555635
0.03597974
0.10536566
-0.00647047
-0.09637711
-0.11650537
0.0229901
-0.15064017
-0.10364316
0.09874528
0.13641079
0.0750554
0.027150452
0.0862791
-0.10190858
-0.032755025
-0.12516549
-0.07028521
-0.07083585
0.0015334105
-0.003254715
-0.24504693
-0.09015838
-0.07198924
-0.05919387
0.032817427
0.038150426
-0.074599266
-0.058220144
-0.04544631
0.050700873
0.05447243
0.08794145
0.08761183
-0.068100646
-0.08085584
-0.002057714
0.25371385
0.22427586
0.122617416
-0.028957052
-0.24454239
-0.11115236
-0.03554428
-0.021213358
-0.051262405
-0.12598997
-0.14945029
-0.24323775
-0.14543669
0.03601246
0.052825306
0.043968167
0.07569633
0.0032960407
-0.13745905
0.03776635
0.17127137
0.10719716
-0.012157249
-0.106713265
-0.08332702
-0.0118673965
-0.006325699
0.0946832
0.02159756
-0.08954941
-0.07948932
-0.08434953
0.14612488
0.04386019
0.034148313
0.07437057
-0.00874789
-0.026726803
0.011882532
-0.021394836
0.008329225
0.017255703
-0.020147296
0.10168003
-0.1472234
-0.08017238
0.18858281
0.33339608
0.27230385
0.11304267
0.10975531
0.027045868
-0.0633188
-0.041499354
-0.106678925
0.049929824
-0.052425716
0.04247782
-0.075774506
-0.20154172
-0.16855471
-0.07128986
0.09233301
0.053347547
0.002755278
0.011588625
-0.051103964
0.0307377
0.003929036
0.03002423
-0.016800024
-0.037700485
-0.06460111
-0.020448847
0.07467353
0.08325867
0.14651044
0.035050705
0.022890251
0.00578693
0.15677497
0.105052166
-0.10398695
0.01650965
-0.1538321
0.05234831
-0.19044402
-0.23101999
0.057962332
-0.2716495
-0.17935708
-0.37346214
-0.37042418
-0.20023187
-0.16762887
-0.064505294
-0.0717363
-0.12431349
-0.14048977
0.06542882
0.053950034
0.052397702
0.0034980306
-0.106322706
0.019430488
0.060669683
-0.024737831
-0.009659771
-0.059836075
-0.022828821
0.040344954
0.052789833
0.052226417
0.12182267
-0.060833283
0.029448668
0.07035052
0.12395774
0.19185643
-0.22049913
-0.052095488
-0.14975458
-0.10125631
-0.11696337
0.0073073693
0.07195456
-0.01231581
-0.066137165
0.04315622
-0.021186762
0.071298115
-0.083596535
-0.07712141
0.023150532
0.08233507
0.08006245
-0.08195902
0.07083876
0.09908828
0.075007334
0.11509441
0.1300175
0.15321958
-0.002455053
-0.060455814
0.03479218
-0.044674464
0.055004023
0.05856782
0.01962885
0.0064349077
0.051769797
0.106416374
0.028162178
0.11292671
0.03647542
0.07287892
0.021735154
-0.075392
0.1717006
0.002082208
0.08039688
-0.0623619
-0.057818808
-0.14761181
-0.13432537
-0.040572748
-0.1422613
-0.09744868
-0.2374747
-0.23873213
-0.23221914
-0.16097961
-0.21624044
0.0068147895
-0.054326992
-0.073312506
-0.01847131
0.0036946193
0.10015924
-0.0059396373
-0.10835533
-0.08449112
0.1290718
0.15027374
0.1296892
0.22496952
0.22907504
0.18499538
0.05069887
0.099511676
0.0933571
0.06992717
-0.028343782
-0.14192134
-0.15780179
-0.09648576
-0.0047657867
-0.11910172
-0.05002623
-0.05899815
-0.049272213
0.028275743
-0.02093796
-0.04932842
0.045265112
0.024101041
0.005953425
-0.018750904
0.01295361
0.036592424
0.004382134
0.023725616
0.04599634
0.1318571
-0.011560449
0.06761769
0.02196862
0.1317214
-0.05968449
0.0034447308
0.0029526374
0.03736661
0.020524776
-0.17247866
-0.1344981
-0.09486448
0.09355458
0.047313653
-0.19540715
-0.0997501
-0.11796671
-0.11855095
-0.00697747
-0.19274133
0.031656057
-0.1611475
-0.24833179
-0.047091275
-0.07545885
0.10155103
0.05610656
-0.18938628
0.0033589902
0.022921694
0.02068562
0.0023981405
-0.17338337
-0.26348934
-0.013630559
0.057626586
0.045594323
-0.007866472
-0.060366113
-0.061034217
-0.14057747
0.030967327
0.049321998
-0.10448453
-0.11251618
-0.039214794
-0.0938939
-0.026229322
-0.055286013
0.034120664
0.013039622
0.031107266
-0.119702816
-0.12941183
0.11102176
0.056685362
0.058300897
0.017995255
0.049733236
-0.09523733
-0.057362523
-0.03650799
-0.10055798
-0.06769501
-0.10051091
0.0073042107
0.12671997
-0.0289658
-0.043142185
-0.1830419
-0.057189852
0.071487665
0.07701932
-0.04582426
-0.102812104
0.08495555
-0.025956705
0.00052646495
0.06463247
-0.042436637
0.10855815
0.004209667
0.07320725
-0.027731858
-0.029076267
0.1051591
0.117204
0.103757024
0.0018364151
-0.093811534
-0.030054934
0.080333754
0.2116858
0.06932764
0.10790778
-0.24796797
0.1566459
0.20092428
0.046083227
-0.106659554
-0.3943487
0.035441812
0.20592818
0.113503374
-0.13663264
-0.12284276
0.0057881824
0.11384078
0.09587956
0.0051287794
0.06311711
0.04441565
0.03242428
0.013247656
-0.12935564
-0.058510207
0.04427827
0.15975164
-0.10663811
0.12901363
-0.1434036
-0.045717042
-0.03186202
0.002190387
0.10785447
-0.02210567
-0.14125627
-0.046714157
0.113703825
0.08415291
-0.03480481
-0.04936143
-0.0030283835
0.13739473
-0.10657983
0.004420515
-0.11630096
-0.031724904
-0.10098171
-0.05245972
-0.10411915
-0.028259149
-0.08850078
-0.08564532
-0.16690162
-0.10874849
0.069798976
0.102498196
0.0020283302
-0.052594204
-0.10232211
0.09352905
0.11515521
-0.06643038
-0.023699202
0.06851952
0.05387925
-0.007145291
0.0587185
0.041828055
0.03600119
0.06573634
0.26551807
0.08383216
-0.05762556
-0.022704007
-0.042065702
0.18408723
0.15016995
0.025782362
0.07066955
-0.058187693
0.030712584
0.091703355
-0.082002886
-0.026675446
-0.0809315
-0.011031677
0.058000118
-0.08236034
0.011838568
-0.07387754
-0.10920344
0.056019768
-0.06040965
-0.22669682
-0.22280978
-0.078072876
0.12391708
0.21844469
0.17059149
-0.09649419
-0.104968265
-0.05612021
0.037313905
0.16900659
0.0064310543
-0.070456594
-0.20841582
-0.08462389
-0.02711108
-0.0009716345
0.08002394
-0.10727042
-0.14395876
-0.025866115
0.023970854
-0.049155373
-0.062440578
-0.14872983
-0.06711225
-0.0660204
0.01830866
-0.009723719
-0.08281394
-0.06348805
-0.14407684
-0.13531198
-0.050382894
0.10732385
0.116215125
-0.098660775
-0.21617882
-0.16453706
0.09745601
0.052645296
-0.029310552
-0.029393129
-0.15227494
0.04471544
0.06323907
0.038972244
0.046329856
-0.012601106
-0.20817609
-0.23633271
-0.10113627
-0.006433943
-0.059371073
-0.014567508
-0.025191957
-0.13058235
-0.24500172
-0.10328242
0.1378675
0.101925164
0.17366375
0.0020827227
-0.26218843
-0.020434707
0.0062409653
0.17936485
0.11313789
-0.03610743
-0.11978677
-0.010310818
0.14761552
0.23872651
0.028514726
0.017961562
-0.10835016
-0.21704276
-0.18849455
0.011908966
0.21408589
0.18610832
0.080374956
-0.2569347
-0.11095547
-0.0038170533
0.059603903
0.11470079
0.026563194
-0.073188044
-0.16866483
-0.06618147
0.14458409
0.0048164614
-0.07544147
-0.025302641
-0.1352092
-0.07026929
0.055391774
0.024676036
-0.046583097
-0.078209005
-0.12903534
-0.05421247
-0.102442816
-0.03393841
-0.112103075
-0.2847167
-0.06287365
-0.013083537
0.14980614
-0.025719345
-0.14158876
-0.22296408
-0.1874692
0.11986162
0.08366157
-0.039392743
-0.09919105
-0.10585427
0.041183233
0.061522264
0.13496777
0.016392168
-0.11071904
0.09002288
0.061863754
-0.17670245
-0.12339053
-0.076378256
0.20716967
-0.010394387
-0.063113146
-0.061963156
0.0029443875
0.14429092
-0.11070793
-0.11036561
0.07088113
0.12752631
0.015052563
-0.13425292
-0.0052922005
0.019523052
0.15545873
0.01919895
0.0174637
-0.08107085
-0.06741606
0.019606553
0.052347615
0.010675012
0.012396097
0.040003464
-0.050425775
0.011826498
-0.11382084
-0.16187914
-0.15020308
0.09409785
-0.08418435
-0.06242589
-0.23716979
-0.18029624
0.10601771
-0.057050385
-0.069210984
-0.13800313
-0.15973784
-0.07761891
-0.0632791
0.008906695
-0.07795103
-0.1425662
-0.13132411
0.004391326
0.048961844
-0.066969045
0.037773985
-0.013192186
0.05757263
-0.011365231
-0.038400415
-0.04049453
-0.038760178
0.08402846
-0.012799706
-0.10214252
-0.041057467
0.14271109
-0.024731437
0.0605957
0.010475011
-0.23379537
0.15962723
0.029520137
0.035218943
0.041561306
-0.11826817
0.03155532
0.042278606
-0.020556169
0.031529393
0.0023839348
0.0035048877
0.045161504
0.025610112
-0.0018057646
-0.07378382
-0.053624783
0.1772578
0.21293084
-0.06849804
-0.19909821
-0.10573045
0.14672346
0.19007699
-0.005269862
-0.1433415
-0.28842452
0.09589962
0.07495992
0.01813642
0.18420507
-0.16498964
0.047512677
-0.035085056
-0.05585914
-0.051326226
0.11260218
-0.06435729
-0.13175371
-0.14105012
-0.12949868
0.011627439
-0.0007854408
-0.011930405
-0.08004886
-0.2179392
-0.12408826
-0.10064843
0.0041433913
0.11954624
-0.030170204
-0.19063789
-0.08097057
-0.042994183
0.056514654
0.028923893
-0.07405361
-0.065075755
0.0406279
-0.05251688
0.093514085
-0.036368895
0.040442113
0.08071467
0.015455233
-0.010700549
-0.12558118
0.11785474
0.08443225
-0.078450814
-0.16408844
-0.03545711
0.1173566
0.011920211
-0.08521417
-0.19768132
0.0832616
0.01021782
0.12051198
0.10658357
-0.030897744
-0.08868151
-0.14194739
0.0023225478
0.014488706
0.14924403
-0.028020939
-0.0069265547
0.14482543
0.05070574
-0.08641133
-0.11095393
0.18578574
0.18197262
0.07460035
0.018533638
-0.04568949
0.0709464
0.07825506
-0.027023489
0.00023051632
-0.111442484
-0.010883936
0.0040602307
-0.08182205
-0.078990474
-0.07922406
-0.28228754
-0.18982245
-0.20472649
-0.13785756
-0.21038298
-0.12774049
0.049047086
0.09376832
-0.06335196
-0.0506463
0.19400316
0.14364341
0.20141125
0.13019206
0.21008423
0.0918864
0.15825652
0.11774232
0.052205246
0.026009133
0.02188868
-0.032381903
-0.09066714
-0.030365264
-0.107464775
0.004598103
0.009588804
-0.06164685
-0.061677814
-0.0021855596
-0.1408647
-0.11721251
-0.17144836
-0.19653633
-0.206201
-0.035671793
0.002947766
-0.04881547
-0.06623281
-0.093875326
0.037549194
-0.023006357
0.13461116
0.14974637
0.035087284
0.08269079
0.11413399
0.029627899
-0.0008270284
0.052569322
-0.04713204
0.077085815
0.1282903
-0.043017976
-0.2754256
-0.2832554
-0.22341168
-0.16750842
-0.16457233
-0.06307878
-0.16769505
-0.09726783
-0.05714245
-0.020345693
0.09401199
-0.07436826
0.0041405265
0.026374752
0.0532857
0.105291046
0.09507387
-0.013765271
0.038839515
-0.04570774
-0.042921137
-0.114027314
-0.1945921
-0.14043435
-0.20223755
-0.26503533
-0.04011903
-0.014050157
0.09874911
0.007925532
0.013344131
0.026562724
0.13131382
0.09632981
0.077860184
0.1650206
-0.050858587
0.0048165317
0.04353246
-0.049471423
-0.04402448
0.0067215185
0.07175071
0.056483135
-0.1180581
-0.021714708
0.09830494
0.13568959
-0.04310209
-0.092567496
-0.052678086
-0.19517067
-0.08977204
-0.081617594
-0.10847746
-0.15402651
-0.03882632
-0.036639713
-0.019928327
-0.02588885
-0.019060625
0.077286534
0.002738065
0.09295919
-0.00046692215
-0.007892351
0.047393452
0.017446522
0.08814548
-0.046487443
0.01711539
-0.027589716
-0.078527965
-0.073130645
-0.02228526
0.026204545
0.030204836
0.062208146
0.12522367
-0.001449786
-0.013637853
-0.0012645285
-0.0048677293
-0.026061518
-0.2103107
-0.165026
-0.19981652
-0.072386816
-0.08789983
-0.08193761
0.031995256
0.030622484
0.0050409064
0.16621391
0.27551088
0.19390844
0.01928908
-0.07696678
-0.061046585
-0.097893745
0.06974301
0.1937625
0.064314544
0.11137189
0.17928818
0.16944188
-0.02551405
0.15379801
0.077094264
-0.010583842
-0.005964371
-0.27692097
-0.28533024
-0.28479302
-0.26250345
-0.09887654
0.0450787
0.15665932
0.06539571
0.1685656
0.044175435
-0.049057454
-0.092300326
-0.028073398
-0.054783177
-0.07995688
-0.05961199
-0.12845734
-0.061467938
-0.089492686
0.0072579174
0.16720575
0.16291386
0.07119952
0.008110509
0.055103578
-0.098353595
-0.061128784
0.048899747
-0.013219083
-0.052460283
-0.033875458
-0.22398302
-0.26303288
-0.1636069
-0.14101286
0.021120721
-0.1468337
-0.08554286
-0.10648563
0.0046610837
0.11364727
0.008646105
0.047526363
-0.03433357
0.058284994
-0.04832279
0.031223897
-0.03468595
0.055110816
0.062085584
-0.16001578
-0.100958325
-0.07545955
-0.04641901
-0.20456545
0.017913029
-0.07784509
-0.12690821
-0.1361364
-0.19865845
0.05239094
-0.0022744688
-0.058968768
0.045340247
0.06756104
0.12683168
0.28432286
0.18504854
0.15422076
0.02833037
-0.13081029
0.030681599
0.01058318
-0.10354903
-0.26398078
0.18906155
0.0040167207
-0.1326015
-0.043088656
-0.1082452
0.15100187
0.12063565
0.12993805
0.053851847
-0.07919431
-0.06487363
-0.037330385
-0.071995705
-0.16678116
0.020283151
-0.043043427
0.017625302
0.017219305
0.024561677
0.10011307
0.07615221
0.027004588
0.13581625
0.061086215
0.16656755
-0.03746458
-0.11210277
0.04213022
-0.05832175
-0.13840738
-0.0137773575
-0.19443767
-0.25213635
-0.30286714
-0.08904306
0.14444686
0.06865953
0.030963678
0.035383232
0.10223168
-0.08821705
-0.055943735
-0.07263412
0.06380312
0.009678135
-0.042969983
-0.086288765
-0.09646071
-0.0051834174
-0.035710733
-0.02046114
-0.034976233
-0.05151904
0.06864205
0.05386326
0.20157303
0.0051960526
0.067692794
-0.019701302
-0.056146123
0.021072578
-0.018713042
0.009311403
0.030708177
-0.013259031
-0.07898553
-0.0308958
0.04625382
0.15226653
0.06363635
-0.26416668
-0.26205662
-0.10828291
-0.13886261
-0.22755149
-0.0019281936
-0.057413973
-0.013048499
-0.04437217
-0.17895016
0.13807057
0.07488726
0.04378014
0.11340654
-0.04671067
-0.049998067
0.037687685
0.021113368
0.09462786
0.11960816
-0.07449787
0.05713033
0.13653657
0.06796941
-0.005955696
-0.0870551
0.03639816
0.06678043
0.13985625
0.06669187
-0.15888548
-0.26010114
-0.14856069
-0.14881605
-0.086438835
0.027144907
-0.04233417
-0.12739079
-0.21237874
-0.12723604
0.04490326
0.060296968
0.035501268
-0.08256094
0.045973778
-0.07518965
0.018955074
0.10528409
0.020543505
0.08117968
-0.11444152
-0.11119558
-0.08169726
-0.042698108
0.021713149
0.053462394
-0.13087994
-0.15946622
-0.16296414
-0.031059058
0.013503762
-0.06415159
0.039525256
-0.093947284
0.0096048
0.046851773
0.10033276
0.056893963
0.041922536
0.05553835
-0.32850295
-0.1214778
0.16808234
0.108447246
-0.004683164
-0.10114064
-0.16635318
-0.28546578
-0.2137242
-0.15069513
0.016219674
0.21226802
0.16396876
-0.0123683885
-0.09761116
-0.033506036
0.081184916
-0.0051478893
0.12334977
0.0014168066
0.04067765
0.034972306
0.07172966
0.13820827
0.11401933
-0.07003632
0.11158943
0.054675724
0.14924833
0.17359154
-0.061184887
-0.028817473
0.051946152
0.0614063
-0.022905238
-0.19267502
-0.28867647
-0.12612675
-0.09138843
-0.17951855
-0.014991232
0.09204181
-0.08916983
-0.08941466
-0.19988114
-0.2163932
-0.11409172
0.016305832
0.012089262
0.1649239
-0.23817366
-0.32214257
-0.27499327
0.0726753
0.13783076
-0.1963993
-0.218392
-0.35731736
-0.21752448
0.09916853
0.08985892
0.03086675
-0.11047976
-0.09398656
0.08969937
0.17279968
0.2622341
0.21254449
-0.030852055
-0.008058406
-0.039551675
0.024307271
-0.03819221
-0.1044937
-0.008007358
0.040650494
0.05352699
0.06632878
0.09769722
0.0061157625
-0.2319724
-0.13666426
0.058345925
0.019021895
-0.050728984
-0.15900388
-0.07875598
-0.13329144
-0.011856863
-0.02713635
0.06778644
0.044774693
-0.022408683
-0.09128512
-0.032460988
-0.04619819
0.006358666
-0.08026573
0.057571687
0.09365488
0.10828062
0.09309168
0.06543619
-0.05133451
0.12826623
0.045146238
0.13286051
0.03229993
-0.047842406
0.06886733
-0.10234134
-0.018231811
0.012844221
0.024273455
0.054214746
-0.16564572
-0.19383942
0.02377908
-0.03618144
-0.08565476
0.057985157
0.040444557
-0.14428812
-0.12631987
-0.03187073
-0.026851326
0.03701709
0.015063738
-0.10419815
-0.1057567
-0.15680212
-0.11059329
0.01985562
0.14106922
-0.18447424
-0.18958215
-0.11403257
0.044280764
0.15967965
-0.07489718
-0.09267572
0.07450164
-0.14696795
0.134273
0.0006181908
0.13863325
0.12584402
0.015118495
-0.05509863
-0.062167805
-0.028467504
0.22568731
0.16958873
0.10776987
-0.09491263
-0.15008463
0.009568294
0.18783547
0.11831056
0.028388802
0.006603065
-0.15185806
-0.17909035
-0.03791185
0.021464122
0.08548373
-0.11429877
-0.16556934
-0.10477071
0.11262879
0.04761265
-0.032759007
-0.07534135
0.0037408797
0.030406723
0.11679625
0.0483195
0.003821127
-0.104212135
-0.019895215
0.050824102
0.02613481
0.07571034
0.013060979
0.07574657
-0.1379325
0.019604366
0.06631018
-0.04296553
0.0134596685
-0.07137902
-0.11387694
-0.00023127261
0.0074067926
-0.13813746
-0.061168015
-0.052380238
-0.05004557
0.0063309157
-0.0035874082
-0.04301552
-0.057772133
-0.021605104
-0.16672555
-0.1376649
-0.1894621
-0.13171867
-0.014766997
-0.072046
-0.13154738
-0.06252749
-0.07686432
0.21119925
0.23880136
0.11886944
0.1614888
0.1777261
0.15913169
0.17628396
0.0932249
-0.011163622
0.15346684
0.11812793
0.17171939
0.06458198
0.14833209
0.11722288
0.10774308
0.058604736
-0.050401274
-0.1782512
-0.1001293
-0.266842
-0.24188408
-0.23426627
-0.03541685
-0.062656105
0.12471369
0.076319315
-0.015984505
0.0048590577
0.1550991
0.0827638
0.043700136
-0.078147754
0.040670335
-0.0414435
0.029443182
-0.099074945
-0.004651001
0.028756727
0.09068536
0.011026422
0.060212865
0.13910022
0.10743993
0.028251909
-0.03452571
-0.046183128
-0.002461534
-0.0109895
-0.15171646
-0.084082305
-0.15739177
-0.2070398
-0.065773524
-0.0489748
-0.13992468
0.008847909
-0.103564575
0.05044397
0.024899801
-0.034355164
-0.022055043
0.028029641
0.04698904
0.0135587705
0.07484535
0.027515698
-0.021725297
-0.023630582
0.007321984
0.02106437
0.025850572
-0.19495054
-0.074895635
-0.17300144
-0.21197803
-0.20096418
-0.1441651
-0.106326245
-0.08041615
-0.0662181
-0.016280001
0.14854243
0.16016722
0.1656604
0.114597216
0.12224543
0.011346108
0.06164809
0.08032217
0.034524992
-0.20135866
-0.06718438
-0.0555754
-0.14936711
-0.2577414
-0.037756518
-0.20491962
0.09436417
0.093421236
0.113572985
0.06633843
-0.10989697
0.030416192
0.024155986
0.0435364
-0.034101088
-0.09649232
0.021760937
0.05377136
-0.0667774
-0.034418017
0.012550267
0.0255969
0.038137633
0.13314806
0.11492017
0.12976404
0.024407107
0.004675481
0.038511332
-0.016580386
0.0028231735
-0.055779055
-0.069813035
-0.19843662
-0.21103348
-0.14353682
-0.09120392
-0.14440365
-0.14446847
-0.047441192
-0.013415122
-0.059371337
-0.29182127
-0.31374973
-0.10147222
-0.085483104
-0.012621037
-0.09910948
-0.14892168
-0.2824093
-0.26547173
0.21588083
0.09153992
-0.080307655
-0.40304607
-0.21481
0.03983913
-0.06347403
-0.13730913
-0.15016198
-0.08851714
-0.15215784
-0.27045745
-0.18169682
-0.1997984
0.013840211
-0.020154284
-0.017558167
0.04103805
0.0062847184
-0.015474518
-0.060926493
0.06567324
0.13767609
0.12221361
0.054325826
0.12849347
0.2251765
0.13812062
-0.0288297
-0.099836886
0.1396927
-0.030110827
-0.16546863
-0.14165676
0.010539746
-0.16349566
-0.11262887
-0.029088264
0.025256848
-0.039025232
0.023950733
-0.03956401
0.00819482
-0.028049413
0.039365705
0.004366176
0.021375515
0.024891583
0.058981344
0.015745435
0.028753811
0.12950303
0.029215107
0.002350827
0.035608776
0.12009929
0.060380068
0.09273604
-0.014771994
0.018273244
0.057472795
0.0136693735
-0.027298389
-0.0688129
-0.021101445
-0.08983172
-0.03578833
0.048909888
-0.012098715
-0.043027766
-0.18181594
-0.18389875
-0.12052409
0.017910294
0.043441948
-0.3108695
-0.14500587
-0.027725821
0.0008481348
0.08929649
-0.16954194
0.009910478
-0.0054794643
-0.032710686
0.010450351
-0.057932593
0.07545724
0.020931847
-0.03845241
-0.022166904
-0.02892732
0.12954542
-0.015956048
0.0028034248
0.02768744
0.08752247
0.045099217
0.0261569
-0.06611142
-0.0108235525
0.059503794
-0.03216059
-0.023263974
-0.10419446
0.010622605
-0.039723158
-0.13224201
0.042513505
0.0830365
-0.0023481117
-0.21541773
0.040304624
0.12826829
0.16271363
0.00080781244
-0.016235765
-0.025104826
0.015769748
-0.11973021
-0.0129971905
-0.01712055
-0.099076286
-0.051333163
0.15606938
0.08457882
0.04174515
0.095494114
0.19930147
0.110935315
0.07100784
0.10325324
0.19295402
0.031700343
-0.031257916
-0.1346228
0.100339875
-0.0328057
0.017787661
-0.056457903
-0.12813964
0.085470036
0.014632586
-0.09248592
-0.07059195
-0.1584563
-0.022539673
-0.13311191
-0.098016106
0.0012166064
0.025342869
-0.013049115
0.026827017
0.06660605
0.054304592
0.08507164
0.02709771
0.012490991
0.13842545
0.08524218
0.07081849
-0.021110194
0.017494222
-0.059798893
0.0118329115
-0.08493097
-0.007250432
0.11363978
0.13339181
-0.14766154
-0.19088869
0.030161457
-0.041720327
0.035605043
-0.044491336
0.021734683
0.008349414
-0.07706095
0.026294107
0.10751351
0.112940304
-0.06469895
-0.001324434
0.17702687
0.07339249
0.06459149
-0.042084534
0.029269623
0.10561487
-0.036214147
-0.03881314
0.002782896
0.050142117
0.08088546
-0.04320084
-0.020594342
0.03829649
-0.03275252
0.067804985
-0.11122433
-0.015045357
0.018850252
-0.093098335
-0.1720419
-0.064923465
0.01186358
-0.026398478
0.04028746
0.028717382
-0.00528738
-0.056386545
-0.027157025
0.042137094
0.11579052
0.09074278
-0.042601157
-0.096360885
0.10751012
0.025254961
0.13300559
0.13745537
-0.08260527
-0.22127345
-0.04678489
0.010908581
-0.092812315
-0.009435693
-0.0033332154
-0.15401378
-0.14315404
-0.21080337
0.017449278
0.11356519
-0.0762898
-0.07624969
0.037319403
0.0003041685
0.026041983
-0.0041539012
0.06860924
0.07032156
0.00957353
0.06796703
0.15090388
-0.112176746
-0.030635757
0.09725648
-0.14575574
-0.05433023
0.063378625
0.13625553
0.16711204
0.12402463
0.05709159
-0.022133859
0.04774008
0.060768697
0.19037469
0.1349286
0.092452615
-0.08753469
-0.048620075
-0.080771014
-0.091698565
-0.029707298
-0.031986628
0.13013686
0.07642435
0.1387988
0.0459171
-0.04380832
-0.056722473
-0.043597028
-0.045176473
-0.0043511055
-0.13034841
-0.008051119
-0.07615067
-0.22896779
-0.189233
0.017902294
-0.065060474
-0.04705344
-0.10379162
-0.047345195
0.09167259
-0.049420826
0.01685229
0.042109765
0.14440757
0.032323122
-0.055862788
-0.08731776
-0.10250569
0.009815584
0.06098497
-0.2141861
-0.16916841
-0.040819146
0.027745763
-0.188357
-0.16619207
-0.13189846
0.09815758
-0.05084368
-0.2027532
-0.059508655
-0.0877274
0.031622205
0.09984608
-0.23840946
-0.09693384
0.05910705
0.11092409
0.08046979
-0.063965075
0.037484586
0.08539738
0.031601265
0.064090975
0.02121342
-0.042219475
-0.103627376
-0.11659256
-0.09163561
-0.043286044
-0.07896518
-0.23949277
-0.2040693
-0.0016868785
-0.051950425
-0.18090191
-0.14983147
-0.17433295
-0.12139745
-0.014279089
-0.119164385
-0.15854703
-0.07162692
-0.14252056
-0.02465986
0.012443672
0.03819239
0.08328523
0.024962796
-0.028014595
-0.004342312
-0.09538766
-0.035384875
0.07043267
0.041437116
-0.12204048
-0.08456025
-0.07246265
0.09997112
0.09734661
-0.10167884
-0.112422876
-0.066859335
0.028997583
0.021936664
0.007062248
-0.08048439
0.030302389
0.084644206
0.07631048
0.092187695
-0.035049364
-0.03429077
0.12234916
0.0055704364
0.036669236
0.011576236
-0.1137038
0.005618842
0.09969255
0.13091536
0.11259376
-0.18233097
0.16253264
0.17112744
0.18666773
0.2373741
-0.17401098
0.0937626
0.1463924
0.1230212
0.043091454
-0.09364023
0.10594294
0.121572696
-0.036367126
0.014866795
0.060745947
0.042345736
-0.044207446
0.09435125
-0.09900201
-0.1610709
0.14129113
0.092794605
-0.0052114725
-0.0058465432
-0.25497046
-0.074840344
0.17242211
-0.19792889
0.029209757
-0.07365052
-0.21700367
0.14577143
-0.1655296
0.010177466
0.007450576
-0.106965296
0.09882614
-0.0031462559
-0.052995127
0.06081388
-0.06486479
-0.119122535
0.038188558
-0.09198598
0.03618407
0.0038092919
0.018485043
-0.048450835
-0.116078116
-0.06293905
0.0036065117
-0.016714135
0.042053156
-0.1420569
-0.16030566
0.0072719213
0.09290987
-0.028950455
-0.0677726
-0.06423928
0.096236214
0.10318689
