0.08220627
-0.08855559
-0.3091466
-0.53657556
-0.20643415
-0.029270964
-0.31042174
-0.32869148
-0.18501198
0.20226757
-0.3317711
-0.19265611
-0.23011571
-0.017605128
0.2658581
-0.25775582
-0.28911644
-0.20918334
0.32064244
0.27780634
-0.17877294
-0.22556275
-0.1711839
0.15300398
0.1626831
-0.16003661
-0.31509203
-0.08641171
-0.29786754
-0.2732137
0.027992481
-0.13314342
-0.23795584
-0.025258433
0.14912632
-0.05966332
0.013253977
0.027458629
0.1071101
0.16310076
0.031481855
0.3455422
0.23834518
0.09609131
0.18925138
0.29767582
0.22389118
-0.0381256
0.16562748
0.16286623
0.050207596
0.11875571
-0.054723702
-0.013039179
0.09698271
0.21883439
0.21904203
-0.21604496
-0.10710821
0.17473546
0.063799076
-0.06594337
0.1859289
0.3237962
0.17545444
0.0928183
-0.19894372
-0.124010116
0.00067780336
0.015720652
-0.08185172
-0.0095503125
-0.07946474
0.12176768
0.015215185
0.18765657
0.092414446
0.031693008
0.001999502
-0.32618198
0.12175389
0.1643322
0.26112092
-0.3753268
-0.2405158
0.22635348
0.21205342
0.26811898
-0.3463895
-0.5247624
0.33833477
0.2832268
0.13986483
-0.037186388
-0.23896867
0.015092455
0.015586313
0.14951205
-0.10703903
0.1322654
0.0008119367
0.060474765
-0.053565934
0.09004024
0.1472591
0.10090505
-0.24543709
-0.3771236
-0.23408377
-0.22487201
0.2212825
0.03385392
-0.20339723
-0.119815275
-0.028255971
0.08496808
0.25254264
-0.010756551
-0.09539852
-0.13400038
-0.066071495
0.31006005
0.34179577
0.37574556
0.25249368
0.09987872
-0.07084961
0.18703571
0.16217965
0.028470501
-0.032613445
-0.024858478
0.19316423
0.17748441
-0.10049036
-0.13728382
0.116624504
0.37675202
0.076272644
-0.19912821
0.27942476
0.17304944
0.04933584
0.0123070935
0.063401
0.016400622
-0.22852801
-0.12155227
-0.21030341
-0.19508241
