-0.037655342
-0.026291119
0.08522625
-0.009027639
0.12215596
0.00843701
-0.050482113
0.018450161
-0.021100959
-0.0024273419
-0.03542593
-0.08785341
-0.0051465486
-0.047342356
0.019829543
0.031274267
-0.049038477
0.02806036
-0.031836182
0.15333042
0.011828697
-0.014758935
0.010427931
0.081710026
0.07942926
-0.06508861
-0.03436804
0.08502414
0.014311256
-0.0675683
0.001590623
0.06661178
0.089105435
0.033261456
0.01179208
-0.08527711
0.090531096
-0.04885162
-0.00017534578
0.072920635
-0.093097925
0.101979785
0.017193414
-0.038490403
0.06317333
-0.036824223
-0.087038614
0.0006876568
0.010511908
0.04226402
-0.043736733
0.014052853
-0.054181054
0.051789213
-0.059247114
-0.057493404
0.07141171
0.05922509
0.00603271
0.11510008
-0.009536233
0.069703564
0.04760331
0.035213456
-0.0058841943
-0.05744485
0.030722467
0.057428956
-0.06337374
-0.07838008
-0.045104895
-0.06269129
-0.082443036
-0.10832431
-0.03333015
-0.03055188
-0.015001606
0.021026643
0.069930315
0.038932115
-0.15687567
-0.017656628
0.094542824
0.032370843
-0.0057485234
-0.14942029
-0.017687783
0.018948859
0.051067445
0.013442598
-0.076907486
0.08299542
-0.006463975
0.0035686628
-0.0131880045
-0.012099891
0.042307258
0.0402605
-0.01574324
0.060599692
0.022990618
0.03310018
0.05685606
0.055478666
0.004931442
-0.026223583
-0.06344813
-0.011262647
0.035465363
0.06747791
-0.07420614
-0.08333555
-0.073157035
0.067470215
0.12649755
-0.038574256
-0.0015394881
0.011696668
-0.05090783
-0.021769695
-0.07374669
-0.017601104
-0.004063411
-0.018872758
-0.05748427
-0.0953763
-0.04006453
-0.0241675
0.05741005
-0.021029556
-0.09028783
-0.0263104
-0.0021608265
0.068697676
-0.04693356
-0.059067257
0.0040058102
-0.08827551
0.061820026
0.030313293
-0.082721
0.031170504
0.010765802
0.036126997
0.100783095
-0.10626302
-0.037844203
-0.0064201728
0.07974859
0.006460082
0.03005923
0.026845576
0.03437269
0.005999087
-0.08478592
0.12797213
-0.0018144242
-0.021902714
-0.03649726
0.021475965
0.027807841
-0.0074653067
-0.1190906
0.10047612
0.11249266
-0.00781865
0.1297777
0.09164397
0.20671605
0.038325
-0.06304731
-0.031697687
-0.005502048
-0.10543997
-0.06748367
-0.052724358
-0.05986122
-0.031072784
-0.09170719
-0.041292235
0.04827403
0.04617837
0.005699144
-0.05921936
-0.060256794
0.105565615
-0.024517436
0.040817276
-0.036881562
-0.042232685
0.07323362
-0.031306762
-0.05914158
0.020509163
0.04149385
-0.013135832
-0.12972535
-0.10284862
-0.0016551727
0.05375522
-0.048303947
0.061516866
0.06162409
0.05054394
0.034512
0.026725804
0.09355139
0.10733115
0.119403996
0.099657126
0.008911296
0.1689485
0.040327594
0.045112766
0.024789942
0.05256662
0.096776724
0.003540098
-0.10119082
-0.14424422
-0.05447745
0.010625258
0.0662151
0.03573591
-0.08973131
-0.05055199
0.08101069
0.120719336
0.005517111
-0.017202236
0.09538768
0.11087507
0.07461067
0.006184604
0.016587641
0.119271986
0.03954335
-0.07214312
-0.07801674
0.028216295
0.05087491
-0.077904336
-0.0027120728
-0.06829614
-0.07304208
0.00068381306
0.0072627817
-0.06307497
-0.035559688
-0.06140063
-0.027715532
0.027205698
0.06510659
-0.029776122
0.057451032
-0.006982382
-0.033933673
-0.02965279
-0.031768776
0.083288796
0.026517667
-0.114566274
-0.07271227
0.072469264
0.16718212
0.041557115
-0.046990547
-0.08614727
0.1206857
0.070697255
0.015256084
0.04284198
0.02107163
-0.06514322
-0.20626684
-0.11177744
-0.007996633
0.07338346
0.035995517
0.08398379
0.018508283
-0.067629196
0.039608162
0.0019879718
0.005030985
0.04372946
-0.068634726
-0.16270953
-0.045294017
0.06439929
-0.09421179
-0.023928463
-0.020284452
0.06898864
0.07263697
-0.13041627
-0.03887049
-0.014069543
-0.022794358
-0.07037523
0.13741842
0.030402116
0.052003838
0.08235858
0.1275709
0.054604158
0.10446348
0.057642635
0.02901951
-0.0022816977
0.1058454
-0.0023323165
-0.025317479
-0.081818365
-0.097146235
0.06745705
0.0036853682
-0.13271084
-0.028190076
0.02242812
-0.035513926
0.021697078
0.013438334
-0.047508556
-0.055100974
-0.12781025
-0.041641243
-0.04662615
0.101096824
0.07924086
0.04329358
-0.021487271
-0.037757225
-0.029190995
0.102837816
-0.039981678
-0.07728605
0.011734629
-0.082371846
0.03083668
-0.08592727
0.0063779997
0.060378887
0.024979299
0.02751397
0.004317559
0.08041804
0.034935493
0.076258376
0.07383986
-0.01642883
0.032871597
-0.004445172
0.05196603
0.006498463
-0.08005032
-0.016057936
-0.036752652
0.015877765
-0.014471732
0.03253909
0.084377624
0.011008401
0.016427262
0.11888187
0.03478524
0.038253903
0.018667309
0.010794149
0.06685726
-0.087573744
-0.03867721
0.0037803203
-0.025173673
-0.1372543
-0.011235532
0.047806878
0.041861773
0.067659855
-0.037342113
-0.08085128
-0.010707823
0.14433487
0.0702762
-0.091845565
-0.03540109
-0.027395954
0.021355117
-0.022720529
0.0028707082
0.017373037
-0.0237345
-0.07391533
0.11875198
0.16449383
-0.052555673
-0.05606116
-0.09073992
-0.022093512
0.08552375
-0.01917679
0.043280058
0.09871843
0.14269127
0.024072303
0.065871105
0.10348651
0.044784002
0.08908032
-0.018587656
0.10251878
0.042692333
0.001715263
-0.04180198
-0.009537156
0.056331754
0.048820075
-0.021882191
-0.048911802
0.07058388
0.055335175
0.03705924
0.008646429
0.026865441
-0.059188876
-0.08728273
0.037532456
0.05872663
0.03756073
0.0403292
-0.02827505
0.041441873
0.041623224
-0.0061595016
-0.0319881
0.045422774
0.085282505
-0.04917871
-0.07198761
-0.018841408
-0.02107855
0.03463798
-0.006184
-0.062152978
-0.10630472
-0.0407704
-0.029238053
-0.073020026
-0.084335975
-0.022352688
0.03730234
0.078342944
0.10172185
0.11996147
0.021555686
0.030955328
0.035517458
0.014108464
0.10112266
-0.0039186003
0.0007031714
-0.020976258
-0.04954269
0.0069880323
0.023848295
0.0035193956
0.03643143
0.0050598173
-0.072532594
-0.10349749
0.04512833
0.11005872
-0.08960861
-0.080371514
-0.033587255
-0.034258623
-0.019272108
-0.10894186
0.0005050072
0.072027825
-0.02789897
0.077406354
0.049779207
-0.017464595
-0.049219415
-0.00689253
-0.015187131
-0.0039922935
-0.03708391
-0.035495866
-0.076221555
-0.05618943
0.0992737
0.0025899217
0.08645352
0.0017087421
0.022437487
-0.0007702952
0.014187473
-0.02178149
-0.12961534
-0.07327464
-0.079982586
-0.039849803
-0.035022568
-0.018893214
0.07012664
-0.0054757623
0.022800848
0.027915541
0.0327726
0.037519448
0.00995168
-0.017419048
0.05616851
-0.057933763
0.02500849
0.004773586
0.05894757
0.09003784
-0.021161636
-0.014249133
0.056112576
0.030710528
0.022230953
0.08678492
0.064483084
0.035980746
0.033568762
0.048279434
0.039553978
0.050012164
0.012355057
0.024048045
0.0013213336
0.0013584833
0.07393913
-0.013145146
0.044510745
0.009766371
-0.00196392
0.047127936
-0.03025649
0.049484756
0.046427775
0.026951954
0.07203207
-0.021076886
0.14025396
0.060881805
0.067030855
0.059646957
0.037512485
-0.02276755
-0.021110795
-0.08804598
-0.05585783
-0.07389172
0.057153486
0.016115844
-0.32426885
-0.09311418
-0.12420868
-0.05724967
0.052503135
-0.1556916
-0.14604715
-0.1569757
-0.083172716
0.021457348
-0.026532132
0.05865206
0.09274653
-0.019373856
-0.052295826
0.05828748
0.06585923
0.041760545
0.02809273
0.013018243
0.041708134
0.01598055
-0.024866
0.102072105
0.04805111
-0.01062894
0.05416796
0.04282732
0.0154827945
0.014455984
-0.07898017
0.116779976
0.113654405
-0.018930523
0.054314386
-0.06562946
-0.037952498
0.01152216
-0.04012956
0.0047269682
-0.026415683
-0.06470429
-0.01100604
-0.034474622
-0.010957769
-0.030660974
-0.013642904
-0.09489475
-0.020329712
-0.0042368257
-0.04604313
-0.028202342
-0.19769152
-0.029205898
-0.03244809
-0.15588477
-0.043514706
-0.067797825
-0.069596656
-0.18839756
-0.14932534
0.013691217
0.036574565
-0.006749275
-0.18809302
-0.119343735
-0.21156065
-0.14983189
-0.09567688
0.0613639
-0.14192717
-0.21524231
-0.16105556
-0.19510801
-0.08972911
0.022753581
0.07177448
-0.018293142
-0.0033225077
-0.026450006
-0.033024132
-0.09786599
0.027698243
-0.03921663
0.004689663
-0.13603476
-0.110158786
0.014080135
0.05426726
0.057340406
0.023971733
-0.10203501
-0.22612439
-0.1138894
0.017576806
0.032527585
-0.066193245
-0.11873862
0.008000323
-0.016404826
-0.03908732
-0.01850367
0.062430933
-0.021226231
0.037941296
-0.011851553
-0.0005907009
0.0025314412
-0.028395964
-0.009477015
0.035835214
-0.024510426
-0.028356604
0.020167869
-0.024645962
0.22040582
0.15866984
0.0024968632
-0.123746894
-0.0321457
0.010398182
0.07198886
-0.04999872
-0.013032622
-0.062528595
-0.024256466
-0.010156066
0.03703703
0.029955795
0.038489446
-0.10069832
-0.027040694
-0.00013559098
0.010415035
0.026486805
-0.010442626
0.0004801387
0.04473213
0.006706317
0.08802858
-0.14204267
-0.29105383
-0.19315763
-0.15294027
0.006207679
-0.11129927
-0.109453194
-0.20478825
-0.05532316
-0.056677055
-0.07590467
0.038973726
0.014269907
0.0077473237
0.0482321
-0.050882045
-0.008293408
0.031554528
0.004319704
-0.01680978
-0.0768832
-0.03325133
-0.008813524
-0.06523482
0.059885204
-0.026850794
-0.08785218
-0.03227489
-0.023143396
0.106930085
-0.13281289
-0.06352085
0.07405509
0.029757269
0.009456982
0.023235006
0.011710065
0.07341225
0.040814545
0.09584569
-0.0849033
-0.046768907
-0.053452983
-0.048180606
0.024697175
-0.040656187
-0.052041396
-0.029080033
-0.021761639
0.033174295
-0.03841828
0.0032645254
0.077714846
0.059146143
0.0032538904
-0.017743364
0.06856399
0.008135404
-0.08459878
0.035359565
-0.06351709
-0.13103615
0.041790348
-0.027971512
-0.072368205
-0.14147812
-0.053291924
-0.05602815
-0.026937412
0.027488528
0.00024994076
-0.06366481
0.015866166
0.0776279
0.0048950813
0.058641713
0.022553194
-0.066400185
-0.023057733
0.061289005
0.06035647
0.03537283
-0.035257444
-0.03173183
0.083233565
0.07240785
-0.050029177
0.07596661
0.04716099
0.037301023
0.016657455
0.055256892
0.13019758
-0.02989334
0.051009994
0.011519508
0.0021246271
0.12761927
0.12637085
0.01746277
-0.042652506
0.011676823
0.071954034
-0.0012224214
-0.0244533
0.0013259627
0.0790881
0.030161198
0.012873933
-0.14332047
0.06850127
-0.013254662
-0.022110464
-0.07006284
-0.019385776
0.000890874
-0.00072924286
0.015686028
0.011180276
0.065544955
-0.018772718
0.015324363
0.037528116
0.032014366
0.19028665
-0.05545953
0.03295398
-0.028511804
0.04764556
-0.035912164
0.031912863
0.09567462
-0.046141367
0.054902773
0.08018529
-0.03601464
0.038207587
-0.05946079
-0.0009170459
0.024414707
-0.103273004
-0.042411882
0.02793058
0.014600479
0.06995607
-0.04541596
0.017408345
0.027199352
0.035570525
0.086740956
0.03192814
0.034022927
0.006484346
0.049207605
-0.072151855
0.0034456365
0.083611906
0.06984294
0.01459551
-0.019394102
0.11124136
0.090392254
-0.014351484
-0.022775285
-0.029329916
0.06544961
0.054487694
0.0071815676
-0.040360205
-0.13801333
0.013712227
0.081988685
0.13615477
0.058297243
0.027495245
-0.00034189166
0.036327455
0.09584061
0.021363894
0.01997082
-0.08113605
0.10216504
0.06428349
-0.061234396
-7.5352524e-05
-0.08740401
0.03696006
0.062808424
0.06270805
0.14282554
-0.112607695
0.0045969686
0.12209922
0.11226591
0.083217494
0.07835361
-0.053146094
-0.021429338
-0.0077496935
0.06670421
-0.045525204
-0.027017301
-0.0447081
-0.016203903
0.047093388
0.0046289642
0.09117301
0.014862766
0.0069649266
0.014698046
-0.14397071
0.03153342
0.026010852
0.0745061
-0.031340245
-0.10803798
-0.0059967847
-0.02919183
0.025459873
0.015907036
-0.10055583
-0.061811898
0.025553815
0.017706763
0.028314456
-0.021640474
0.045201726
0.025872797
-0.024944806
-0.09215532
-0.08469875
-0.024609158
-0.03220117
0.032931596
-0.07174006
-0.053338178
-0.03228725
-0.090480395
0.018255586
-0.06145059
-0.07547583
-0.071186684
0.0011702676
-0.019699968
0.087122746
0.02211574
-0.029005094
-0.037154242
0.044511415
0.1489943
-0.028578179
0.0050018798
-0.12617508
-0.08898107
-0.058939066
-0.1072053
0.0053113615
-0.17143832
-0.047403764
-0.0071948343
-0.0053654993
-0.0397565
-0.19326793
-0.054104056
0.07474626
-0.012914345
0.027850015
-0.046699952
0.004557998
0.033582896
-0.086772576
-0.044121686
0.025796097
-0.023404917
-0.0674123
-0.021131594
-0.12889157
-0.07306179
-0.008325646
0.00029532157
-0.004116352
-0.10301535
-0.11769577
0.02224642
0.08385345
-0.004808263
-0.0075916303
-0.10421925
-0.008113663
-0.0118102925
-0.04006871
0.054615423
-0.039287064
-0.048431963
0.042360738
-0.10622635
-0.13779946
0.048649445
0.012930608
0.0039767725
-0.04159418
-0.056798417
-0.07252301
0.015442958
-0.0023261316
0.001668709
0.06404952
-0.12352394
-0.0034664974
0.022983678
-0.15299276
-0.19696452
-0.0739582
0.040617403
0.084723905
-0.040485717
0.047673486
0.06972758
0.08572057
0.013515247
-0.15113501
0.11364046
0.0127007095
-0.020310076
-0.08936869
0.07473618
-0.0065040044
-0.040624473
0.030425293
0.11725491
0.035320505
0.036915503
-0.015859153
0.045807492
0.024697041
-0.042670924
0.12841229
0.07848059
0.047199775
-0.072077654
-0.12932627
0.0027568294
0.050500825
0.02059253
-0.06950195
-0.10693746
-0.015053523
0.020448832
0.0047151833
-0.031898756
0.06071737
-0.030189175
-0.04554551
-0.06868241
0.005363316
-0.047531296
0.05174186
-0.06011811
-0.090629555
0.14009683
0.05405613
0.094604656
0.20151263
0.057351798
0.08221376
0.040223565
0.008305942
0.071512364
0.05481225
-0.09700604
0.040576797
0.09469474
0.02262905
-0.050700493
-0.12039336
0.0701371
-0.0050030686
-0.08685307
-0.12366966
-0.07137936
-0.024393557
-0.040443588
-0.06070291
-0.023981811
-0.053082444
-0.057662677
0.036310725
0.044226374
0.08034704
0.076366864
-0.12946369
-0.061757427
0.021543987
0.054255165
0.039061658
-0.20106487
0.024093749
-0.026622431
-0.012016556
-0.024600696
0.061174
-0.0048704883
-0.11122759
0.0298069
0.16542016
-0.01516269
-0.0749182
-0.0735638
-0.009571646
0.0968033
0.061870698
0.11362653
0.16431324
0.09617967
0.058999706
-0.059139967
0.003031918
0.060829
0.03521319
-0.017646216
-0.058374297
0.015271825
-0.016013775
-0.06902732
-0.0037341253
-0.116326295
-0.022157945
-0.050801035
-0.0032120172
0.026320793
-0.0010051884
-0.056225013
0.02032574
0.08539089
0.06182216
-0.08678836
0.018240279
0.034524884
0.047677305
0.08126953
-0.12049769
-0.099474825
-0.059190355
0.04542458
0.01255235
-0.15917559
-0.035086613
-0.06698708
0.02719578
0.06624617
0.014318674
0.005887514
0.050657447
0.0046653003
0.04084611
0.010147043
0.07829358
0.033464048
0.026960222
0.14083728
-0.10478044
-0.058346253
0.06533106
0.040851913
0.057410173
-0.09692144
0.04879097
-0.0023993843
0.024442267
-0.03946887
-0.09522111
0.010740381
0.0360455
0.142093
-0.03719325
-0.0028245181
0.06821494
-0.102928795
-0.055342093
-0.023665676
-0.007828206
-0.02912991
-0.088926636
-0.106421314
0.021761985
-0.045438573
-0.049955565
-0.007813437
0.01616001
0.026124533
-0.047318317
-0.07248883
0.034611356
0.0041834414
0.055395935
0.025634656
-0.010497368
0.09290582
0.041417636
-0.06553781
0.055315264
-0.1362186
-0.07882182
0.08421622
0.16906504
-0.019995382
-0.06813589
-0.04330563
-0.043501742
0.02027478
-0.09874609
0.006853817
0.025454024
-0.13462977
-0.16739403
-0.10358593
0.003181745
0.033358622
-0.06994641
-0.20126174
-0.059188794
0.048265554
0.11815938
-0.004389944
-0.07831426
0.061426185
-0.037539404
-0.07748486
-0.013122049
0.039703615
-0.15362668
-0.20981784
-0.08767976
0.013731984
0.029776307
-0.09567624
0.014503415
-0.057825483
-0.0867723
-0.023448301
-0.022413855
0.0011132451
-0.049534693
-0.11945275
-0.053062115
0.0028739087
0.036563426
0.018127061
-0.0554173
0.039461214
0.043073405
0.041702848
-0.053817827
-0.018205862
-0.02470481
-0.09859198
-0.0035045512
-0.09746777
-0.07432588
-0.1517079
-0.12711403
-0.05611923
0.042951476
0.081590265
0.046125006
-0.05368563
-0.035483904
-0.020715728
0.039860785
-0.05647351
-0.07246568
-0.047543373
-0.016126597
-0.011140824
-0.0718721
-0.055041187
-0.015215493
-0.0906121
0.012308629
0.05185726
-0.08957727
-0.10980566
0.01665401
-0.04477526
-0.056310914
0.08085842
0.04201335
-0.05431148
0.022117224
0.03366349
-0.09517434
-0.08550004
-0.056603085
0.047091693
0.0678547
-0.05654332
-0.16810833
-0.15852189
0.0058043897
-0.17780945
-0.014756541
0.12621582
0.094800495
0.06170633
-0.029637989
-0.062402267
-0.02045094
-0.059108406
0.027786221
-0.009704531
-0.049960375
-0.040362913
0.01784813
0.049384188
0.07373028
0.10602716
0.06272124
0.01659137
0.03843926
0.09252884
-0.012342439
-0.11705073
-0.10977865
-0.010010651
0.033555172
0.014557787
0.014197515
-0.07461127
0.046755802
0.025303712
-0.047688402
0.016502002
0.0024912255
0.06803735
-0.14612803
-0.033920787
0.032190375
0.052875027
0.004784541
-0.20575729
-0.21379845
0.038690608
0.036966395
0.022044327
-0.21861634
-0.20622674
0.011486629
-0.013726945
-0.0037219545
-0.067215584
-0.009539812
0.048024353
-0.06688673
-0.025387777
0.06474058
-0.089085266
0.00926005
-0.041328102
-0.000258878
-0.068780266
0.08399215
-0.046755295
0.00025398674
0.031034997
0.005970697
0.20526701
0.032902587
-0.022354381
-0.042134162
0.046639286
0.1364134
0.045126542
-0.111300774
-0.0777724
-0.011639759
-0.009422543
0.016489157
-0.07953557
-0.085017286
0.052239686
-0.14809333
-0.05909579
0.04714738
-0.057832025
0.031247156
-0.16513228
-0.20559146
0.028848255
-0.016998911
-0.07259868
-0.1251495
-0.17312318
0.06768655
0.0046540075
-0.062751435
-0.00089437264
0.047557972
0.014519069
-0.0087585775
-0.04202719
0.06273134
0.017858323
0.056958426
0.024770651
0.06702972
-0.25830594
-0.15918286
-0.015896913
-0.13726753
-0.1671269
0.08298038
0.038187068
0.030229446
0.023485776
0.0638312
0.04560055
0.015367066
0.09500374
0.077662595
0.09215925
0.06985224
0.040989585
0.11486073
-0.03058159
0.1133453
-0.012460223
0.10796446
0.0649196
0.095938034
-0.060815975
-0.032378364
0.07287227
0.021795083
0.034680508
0.040059406
-0.008919752
-7.805885e-05
-0.12442965
-0.14015858
0.08191887
0.16292201
0.06768355
0.029117389
0.0039461497
0.15919392
0.1306833
0.08503127
0.01448504
0.03082017
0.04108216
0.049280774
0.07488555
-0.03025429
0.14317168
-0.071708225
0.14131533
0.046216875
-0.042199254
0.01541465
-0.07523001
0.042890508
0.057403803
-0.12622967
0.048805866
0.03584042
0.009269257
0.10058446
0.1161204
-0.19443828
-0.03242757
-0.030521305
0.047626592
0.009117951
-0.054006275
0.11414057
-0.028654285
0.055452403
-0.01853429
0.03062764
0.025269127
-0.07891173
0.18754353
0.07479319
0.052529912
-0.010718183
-0.1468929
-0.037273806
-0.07596939
-0.020508923
-0.06157941
0.0029865443
-0.08527404
-0.013656388
0.03772066
0.024892837
0.11771068
0.043423634
-0.0025685648
-0.03377224
0.0694042
-0.038885724
0.09709811
0.04285616
0.037792925
-0.012249799
0.023114571
0.10323376
0.030976295
0.04795454
0.04962861
-0.14669503
-0.071272165
-0.14768681
-0.05879756
-0.0304582
0.096385285
0.053780597
-0.030884922
-0.012485169
-0.0023054397
0.07580163
0.038001794
0.04713148
0.01812324
0.034227304
-0.017437529
0.07576025
-0.046862386
-0.030254005
-0.024757447
-0.095617555
-0.03388696
-0.05813258
-0.04774932
0.0741791
-0.08751777
-0.06405449
-0.020781234
0.021245327
-0.09515249
-0.10454045
-0.079593405
-0.083577275
-0.007633697
-0.047670815
0.004337427
-0.039753437
-0.05878472
0.026140433
-0.019511076
0.011703699
-0.014508374
0.104124166
0.07794519
0.007509524
-0.2752693
-0.09664301
-0.0015295534
-0.019409087
-0.090959534
0.044121545
-0.038659066
-0.08881463
0.051241003
0.07864397
0.07998197
0.009830952
-0.016410807
-0.021205299
0.12069491
0.06555502
0.010312812
-0.1326043
-0.16612062
0.10720096
0.050126232
-0.0040379507
0.043632515
-0.040897407
0.10278115
0.05017964
0.08212358
0.08333841
-0.052935023
-0.044623327
-0.06595391
0.005094126
0.0067111244
-0.11280863
-0.19737014
-0.14943239
-0.023815453
-0.03781231
-0.08299747
-0.0540714
-0.10213449
-0.01721714
0.033833988
0.05880204
0.15565011
0.017548207
-0.016859394
-0.055663444
0.021947678
-0.03223361
0.04145619
-0.058594048
0.025245637
0.09035699
-0.05993704
-0.07778969
0.047707874
0.013847376
-0.042888787
-0.014218002
-0.12172013
0.026254112
0.030258067
0.0010469551
-0.023937684
-0.047726214
0.09133979
0.009317173
-0.0022889634
0.011533519
0.038413156
0.03760368
-0.030470997
-0.0436522
-0.019939207
0.044268392
0.047470134
0.022024315
0.117176145
0.009412467
-0.097160205
-0.0800762
0.15741174
0.10721865
-0.046821617
-0.25642374
-0.12683342
0.049063824
-0.035071135
-0.11274307
0.063395865
0.03328016
-0.07781659
0.0024854932
-0.0049870783
0.032627046
0.054335292
0.05113463
-0.030637722
0.017233599
0.009698251
0.056249477
0.033504892
-0.048773088
-0.08898122
0.10280655
0.1122644
0.0139035545
0.012842523
0.031524245
-0.02759937
0.008919831
-0.05827498
0.004075905
0.020043269
0.08724435
0.026355222
0.019577928
0.0629956
0.051025767
0.0066348473
0.05713084
0.025190827
0.0064933226
-0.021843117
0.0061939973
0.15325412
0.033851724
0.053609107
0.05099079
0.036150448
0.06719734
-0.032675594
-0.11848007
0.00069547474
0.019792963
0.047312282
-0.007630839
-0.019631723
-0.04786571
0.045412738
-0.023049615
0.10015747
0.04978709
-0.09406334
-0.04198797
-0.038283568
0.002706196
0.010163616
-0.016502967
-0.07959916
0.08458137
0.03370769
-0.021535624
-0.113757424
0.019924976
0.08091329
0.124406695
0.017354108
-0.14301388
0.050791178
-0.015671814
0.0345783
-0.020047614
-0.03238213
-0.027975531
-0.074016005
-0.11300527
-0.11513235
0.028781375
-0.03802335
-0.0952159
-0.042273074
0.021647617
0.095310465
0.0071857427
-0.045912836
-0.0035475697
0.07089846
0.044745695
-0.0302917
-0.06161454
1.4487628e-05
0.06518791
-0.09982441
-0.07734735
-0.025904527
0.04041607
-0.03985111
-0.059765995
-0.069645084
-0.025275853
0.07016787
0.092696875
0.10728293
-0.06626715
-0.022476401
-0.024194298
0.0201656
0.053039405
-0.10216537
-0.16087729
-0.09368201
0.010561778
-0.060158897
0.022929221
0.0030738767
-0.119672194
-0.025570381
-0.071971074
0.18839195
0.070256256
-0.10934022
-0.068656944
0.0067271856
0.28490633
0.014701856
-0.050841175
0.0092437295
0.08475624
-0.04238436
-0.05933377
0.01499726
-0.011699432
0.026029784
0.065499514
-0.062380057
-0.112803355
-0.04698843
0.06643759
0.08323461
0.009353507
-0.08958542
0.06889143
0.008810441
-0.08050815
-0.22210239
0.011755806
0.061664563
0.02727062
-0.041953858
-0.028934645
0.007216012
-0.023549786
0.020542366
0.05551761
0.047890212
0.005881084
0.008689956
-0.08528484
-0.05721229
-0.08854267
-0.10897157
-0.11053267
-0.16521163
-0.1679989
-0.09018627
0.022332292
0.07058469
-0.0753063
0.01800386
-0.06421944
-0.08351732
-0.08826559
0.023233017
0.26921186
0.037068006
-0.083112724
-0.1216398
0.08884801
0.098588586
0.05059181
0.0071582375
0.009168936
0.03766598
-0.023334924
-0.09357049
-0.036878
-0.103612535
-0.12012833
-0.050963167
0.0324428
0.105559714
0.07145312
-0.08295723
-0.013093668
0.027095474
0.08331054
0.04375739
-0.0552267
0.0665281
-0.012717513
0.029262427
-0.015964169
0.0032525875
-0.0118598975
-0.03243525
-0.051239695
-0.0007734379
-0.12058441
0.00878836
0.013238185
-0.08350959
-0.039245874
-0.18421963
0.077092245
0.067460686
0.09650075
-0.049050663
-0.28192425
-0.016077701
0.13795236
0.09680785
-0.022271296
-0.078734495
-0.018117994
0.032749146
-0.008181269
-0.110863954
-0.11571568
0.057062358
0.041269053
-0.0021105309
0.03685244
0.107513174
-0.09904288
0.004231312
-0.07946793
-0.032934494
0.04005358
0.026338534
0.014810841
0.01625978
-0.07576059
-0.06605326
-0.038680755
0.037226986
0.027535181
0.022899376
-0.010250353
0.013865459
0.0057127746
0.007372979
-0.019977996
0.013718966
-0.032787975
-0.020184567
0.041552454
-0.050932325
-0.028186338
0.0006663458
-0.05413886
-0.05586499
-0.15515229
-0.03622892
-0.021720545
-0.08500613
-0.0149223795
0.040358484
0.070106156
0.0784081
0.081090346
0.1103528
0.0555724
-0.03554566
0.05309135
0.02161605
0.04541463
0.028022805
-0.076989636
0.008160317
0.032309026
0.0423001
-0.032310754
-0.028928202
-0.046053533
-0.04663757
-0.023959555
0.04851789
0.049636647
-0.098391965
-0.059612118
0.085530505
0.18361059
0.08220958
-0.10666197
-0.07178235
-0.02250636
0.0345817
-0.022428147
-0.015655044
-0.05211607
-0.062435094
-0.035123903
-0.039127633
0.02936667
-0.044163894
0.008725018
-0.018000312
-0.026729735
0.010026984
0.056640085
0.09210415
-0.043544773
-0.01796442
-0.11815032
0.034517325
0.14371909
0.063441984
-0.072102964
-0.084963426
-0.05286045
-0.04665951
0.05455525
0.019208156
0.15183085
-0.015982727
-0.086051054
-0.0026288754
0.00617623
-0.088013045
0.009255504
-0.026949849
0.04119263
-0.031257223
0.00017628132
-0.07702986
-0.08210537
-0.118930936
-0.014354258
0.0022943658
0.057307787
-0.1479307
-0.070581816
0.027372126
-0.045830764
0.025532555
-0.003788299
0.011781373
-0.048965532
-0.09501751
0.015821507
0.08435803
0.11996362
-0.057989623
0.003871503
-0.020627184
0.014577186
-0.0129938
-0.11301622
-0.07010561
-0.0013635793
0.050992034
0.05909564
-0.117059864
-0.06757659
0.037392497
0.08702772
0.015999245
-0.059651382
-0.007027508
0.07200703
0.01788133
0.032388005
0.023709275
0.022718031
-0.006719061
0.056099832
-0.009477724
-0.0037386077
-0.011303521
-0.0053673927
0.029932864
-0.06895462
-0.011890759
0.0429826
0.030829899
0.0572466
0.02780718
-0.12503849
-0.040971864
-0.051333927
0.18506347
0.003280929
-0.004904014
0.05034763
-0.043346424
0.019188043
0.050491285
-0.022441382
-0.07196907
0.013876932
-0.007886188
-0.10472835
-0.06418976
0.05485108
-0.0057380623
-0.017666837
-0.01580562
0.0032008642
0.04242068
0.0346762
0.046304204
-0.036866643
-0.049857963
0.023496797
-0.023217957
0.036016632
0.0016820657
-0.15137072
0.06669817
0.010620896
-0.025130782
-0.021792477
-0.09989819
0.06429445
-0.005320814
-0.06037002
-0.11698345
-0.12709466
0.0022602722
0.1098178
0.076038145
-0.076759644
-0.13469848
0.14757368
-0.00342766
-0.025268713
0.04870344
-0.02331062
-0.026515372
-0.07423311
-0.015200799
-0.00061654625
-0.033816416
0.13985012
-0.051143296
0.042454343
-0.029746722
-0.057793166
0.10504464
-0.03954279
-0.06001114
-0.07676113
-0.10156481
-0.12738025
-0.09815124
0.02253425
-0.0020488908
-0.019484079
-0.024383362
-0.032235082
0.046271995
-0.039746296
-0.026172146
0.117015965
0.06523849
0.059200242
-0.066648975
-0.086452305
0.04882608
-0.058153193
-0.012345065
-0.025143152
-0.0032796005
0.025810312
0.04451544
0.104381815
-0.010602103
-0.0033775864
0.007761047
-0.007346675
-0.012270988
0.036961015
-0.0053133154
-0.054761477
-0.103830375
-0.0060316557
-0.036012903
-0.009731362
-0.07306757
0.013075636
0.06656978
-0.052113313
-0.014162303
0.037614748
0.00076480315
0.07078494
0.089882925
0.08747322
-0.012723268
-0.08013563
-0.020713316
0.008067717
0.057769485
-0.057928246
-0.10779075
0.0063142055
0.033449892
-0.008193408
0.006154136
-0.0991817
-0.039127495
-0.024497109
-0.041764908
0.018907648
0.06603222
0.08344839
-0.07481061
-0.081670105
-0.093851894
-0.11124439
0.0072213076
0.037050217
-0.00083923136
0.008644242
-0.110054985
-0.04606277
-0.05086211
-0.08276323
-0.017200692
0.10491232
-0.032731134
0.004361303
0.04067982
-0.06587343
0.023364475
-0.008232993
0.028899234
-0.038848992
-0.057383608
-0.032640833
-0.041441556
0.041208424
0.030083124
0.027730322
0.03883059
-0.042420506
0.014700953
0.109584495
-0.026566003
-0.026356352
-0.17016779
-0.053707466
0.03882238
-0.055621874
-0.0631148
-0.05493685
-0.014202022
-0.12326692
0.01830923
0.0006733553
-0.100758076
-0.03581268
0.011971522
0.006347553
-0.04631227
-0.010087243
0.027619299
-0.017828029
-0.06813308
-0.004386449
-0.050394874
-0.103909425
-0.14506587
-0.030978361
0.014614644
0.014075154
-0.11003938
-0.10065615
0.002552619
-0.013924489
-0.024031859
-0.05157297
-0.057357967
0.049133908
-0.0084072305
-0.02211042
0.046229374
0.041686818
0.0058476618
-0.009933071
0.006573219
-0.110633776
-0.10888203
0.038522292
0.037870258
0.006713132
-0.07218146
-0.16691849
0.08453797
0.030342678
0.103253625
0.037103068
0.07086544
-0.0064212345
0.0019315715
-0.1081963
-0.09750969
-0.06884146
-0.06564098
0.038716607
0.117927775
-0.0032133681
-0.12795691
-0.048367977
0.02571975
0.058283575
-0.0447524
-0.04293084
-0.02300315
0.0047667264
-0.023776356
-0.13823989
-0.13591169
0.019048138
0.060483936
0.07053422
0.018968062
-0.05140768
-0.024557978
-0.065089166
0.071875826
0.09215611
0.05941667
-0.087020904
-0.14521219
-0.0093630925
0.054087978
0.02538473
0.143392
0.009579275
0.029723614
0.0916896
-0.006863044
0.009509139
0.041664965
0.022640299
0.043004297
0.010948035
0.1805743
0.021764157
-0.0022475042
0.028029555
0.0022728094
-0.11720381
-0.060758058
-0.13339987
-0.10436842
-0.092697375
-0.031453427
-0.032678813
-0.08068933
0.035945885
0.028038364
0.056607325
-0.03208867
0.033777248
-0.02055296
-0.04992467
-0.085549705
0.05191559
0.044156585
-0.10118922
-0.18849838
-0.01960707
-0.014258964
0.043201018
0.03617132
0.033133615
-0.010479873
0.0065489844
-0.02201425
-0.007944298
-0.07420438
-0.026798377
0.002730043
-0.0033825703
0.03166793
-0.048106607
0.027788859
0.02226374
0.04553448
0.044564705
0.01549366
0.01691155
-0.05126193
0.022686291
0.029887721
-0.07243768
-0.042099904
-0.057159647
0.0057551716
-0.010888062
-0.044043515
0.03354
0.0430083
0.017448263
-0.024806853
0.010885851
0.05107205
0.04541724
0.041854642
-0.0008214071
-0.06306852
0.011402408
-0.010389159
-0.026587406
0.019429201
-0.11037428
0.040158503
-0.048953176
-0.05043341
-0.035627972
-0.06790018
0.025897484
-0.016905295
0.057645142
-0.03995826
-0.12528849
-0.07982784
-0.008836189
-0.059223797
-0.016026417
-0.10147885
-0.062317785
-0.00619071
-0.038082518
0.0006944246
0.008593139
0.029585717
0.1292833
0.03555043
0.10181825
0.07446052
0.030176384
0.116284765
0.053116594
0.08999151
0.05403329
0.01925477
0.033492513
-0.03324597
0.03695967
0.014298139
0.015234516
0.030804103
0.035547197
0.114277326
0.15858243
-0.005764163
0.021649042
-0.00544449
0.08444165
0.055967733
0.03672103
0.010255834
0.029721972
0.061821487
-0.08374861
-0.052939262
0.0042688577
0.03765114
-0.034951426
-0.220298
0.047677893
0.07458898
0.08136052
-0.044334885
-0.11360582
0.010300783
0.074912354
0.025996162
0.06709633
0.14885145
-0.041310843
-0.0008073923
-0.111861676
0.05654433
0.08084019
-0.05110835
-0.07710339
-0.10306109
0.064428516
0.044357236
-0.03924879
-0.08079813
-0.009497979
-0.0031624744
-0.0979471
0.093033254
-0.0010727753
-0.10229682
-0.13116208
-0.06028543
-0.009775869
-0.006906839
0.09790764
0.00826939
0.0016586471
-0.03428839
-0.052909244
-0.05911365
0.02354575
-0.042727638
-0.019513251
-0.017907806
-0.04496975
0.06377958
0.0752293
-0.056348428
-0.09745479
-0.16948223
-0.054141384
-0.024286112
-0.00078332314
-0.031881213
-0.08822558
-0.030506665
-0.012946761
-0.08606649
-0.10261931
-0.090862766
-0.064954236
-0.019026954
0.01262765
-0.024481986
-0.123344235
-0.112855405
0.07523085
-0.038326476
0.028260248
-0.16371746
-0.04314645
-0.0009352497
-0.12736228
-0.012262715
-0.079537764
-0.123490565
0.043946315
-0.141653
-0.06501098
-0.2107476
-0.079467304
-0.14245196
0.054827087
0.07719167
0.071340874
0.0031016371
0.007127537
-0.035954893
-0.027662002
-0.039760727
-0.044332836
0.025248826
0.056922924
0.09857332
0.012365041
0.039484132
-0.032984696
0.0047577997
0.04972143
0.010171873
0.051648386
-0.032091975
-0.28522563
-0.19720422
-0.13517801
-0.037710242
-0.03440713
-0.00011794686
0.012383941
0.044022635
0.0096866
0.02508063
0.08597832
0.06928015
-0.08568814
0.013437332
-0.09878501
0.00084846246
0.039055996
0.059981998
0.0075881635
-0.108798996
-0.06243306
0.032094516
-0.021401433
-0.07142778
-0.16257595
-0.026975423
0.07442436
0.050296362
0.068022035
0.016248029
0.16240105
0.005691224
0.015059647
-0.028052347
0.0170188
-0.040512066
-0.032587267
-0.18446696
-0.047903776
-0.1132085
-0.20054044
0.0052770865
-0.09837412
-0.087540984
-0.061112627
-0.14259021
-0.19615763
-0.0650383
-0.019744795
0.05152684
0.0022839564
-0.08438223
-0.13865085
-0.09709958
0.067817524
0.05654272
-0.11852742
-0.06389564
0.009317692
-0.005732699
-0.05440695
0.009714814
-0.032502413
-0.038382348
0.009760857
-0.15966551
0.022452427
0.042664908
0.032160915
0.019751966
-0.06509558
-0.09986907
-0.013754419
0.07856466
0.030705038
0.030527212
0.057103015
0.15071476
0.14348315
0.045825046
0.06294806
0.08211175
0.023215968
0.06357074
0.10283066
-0.03479538
-0.056576658
-0.07265154
-0.05535087
-0.039295003
-0.017457455
-0.061488155
-0.10085445
-0.07081515
-0.085113585
-0.0029285322
0.03578519
0.020048553
-0.037913464
-0.033799063
-0.105501726
-0.08409146
-0.1554155
-0.18250601
-0.105948284
0.03279158
0.08165726
0.057512563
0.036933117
0.04594419
-0.08255062
0.10243325
0.0407425
0.013182628
-0.015390351
0.10653073
0.04509621
0.026387228
0.05014878
0.06193276
0.07989523
0.019968674
0.06807089
0.0695909
0.08187876
-0.12784281
-0.10974351
-0.021355428
-0.0050241807
0.034337007
0.0652727
0.0633986
-0.03194367
0.0657364
-0.03915824
0.06973233
9.9822406e-05
-0.0532062
-0.012934654
-0.07948496
0.10561071
0.057051852
-0.016419241
-0.04771469
-0.11584569
0.06917673
0.020372326
-0.03863533
-0.09671541
0.038279213
-0.055505756
-0.059309315
-0.054376297
-0.22365658
-0.18094218
0.17839804
0.08661197
-0.038378827
-0.03881325
-0.06317302
0.13798559
0.0757235
-0.110339105
-0.016196508
-0.048962608
0.0019348818
0.13422751
-0.02544864
-0.060831584
-0.03669981
-0.14393152
0.119215295
0.051215872
-0.05481434
-0.040020626
-0.22112776
-0.04349908
0.040281277
-0.04571962
0.08485757
0.030767787
0.048109766
0.045017216
0.060949195
0.04856353
-0.04187465
-0.011031534
0.015306979
-0.034232643
0.016415395
0.0148334615
-0.024285618
-0.0029923
-0.015809063
0.033693574
0.07663202
0.028560732
-0.00012701775
0.054459047
0.037896443
-0.051865347
-0.08669401
-0.059906796
-0.071268484
-0.06881796
-0.0024407513
-0.016576609
0.03735259
0.00022218765
0.07238843
0.02107206
0.01035387
-0.034493383
-0.11255019
-0.041006833
-0.031088753
-0.0918746
-0.06361588
-0.017377304
0.062499117
-0.03215055
0.040640675
0.009149546
0.04949507
0.0012999806
-0.09579562
-0.089523695
-0.1518458
-0.004461512
-0.06982266
0.07537726
0.059595205
0.013027311
-0.012056123
0.047873117
-0.015746204
-0.008574531
0.011626367
-0.030247213
0.049115516
-0.15074001
0.016086584
0.016529854
0.02521916
-0.07164159
-0.0014694858
-0.061301608
-0.05108176
0.0031822538
0.096151896
-0.066419676
-0.26878467
-0.25284573
-0.11817881
0.0745745
0.06513788
0.06774859
0.065248676
0.0842557
0.0382292
-0.02899077
-0.022965344
0.09135333
0.076735586
-0.018268418
-0.0032856064
-0.058854327
-0.016558716
-0.08018997
-0.09602375
0.03644913
0.03048186
0.0040008198
-0.11767899
-0.16563033
-0.023715138
0.18694986
0.1251171
0.13214964
0.11142063
-0.017635385
-0.06481158
0.036606103
0.021472534
-0.013483153
-0.09424713
-0.07306644
0.024604332
-0.064105414
0.04251085
-0.11316282
-0.0023724528
0.039946757
-0.039326232
0.018997608
-0.009417551
-0.04226585
0.005693546
-0.029990194
0.046429
-0.07984422
-0.13677375
-0.104925446
-0.10453471
-0.027806092
-0.0074936883
-0.04389896
-0.0350718
-0.06565642
-0.057473265
-0.033880524
-0.08641215
0.09736899
-0.0318638
-0.033497613
-0.0183772
-0.008329124
0.09740319
0.027270861
0.046987038
-0.0051742494
0.10371891
0.04605976
-0.013569818
0.050032407
-0.022239128
-0.04598688
0.039691344
0.020834466
0.06668894
0.0150154475
-0.022678956
-0.0216605
-0.075750306
-0.061024904
-0.04839116
-0.007881517
0.06421776
-0.02863096
-0.038015697
-0.054148156
-0.048087627
0.025859054
-0.09265194
-0.03231944
0.020787043
0.07881871
-0.026537273
-0.071794614
-0.026136046
-0.1009168
-0.004404833
-0.07444055
-0.0237709
0.0098708775
-0.026740199
-0.061635923
0.0647796
0.06746915
0.09910805
0.042627346
-0.040087745
-0.051962834
0.11608305
0.01926802
-0.03886026
-0.021506567
-0.09128923
-0.028179191
-0.0046098395
0.020136442
0.059784662
-0.07538436
-0.03003237
-0.03659559
-0.052483633
0.057629883
0.07381559
0.066430576
-0.002684619
-0.09259681
-0.074451484
-0.06448398
-0.04227695
-0.028673727
-0.045393612
-0.055413187
0.025067337
-0.027643757
0.0660724
-0.009508195
-0.0021763276
0.07271025
0.0020143755
0.060691535
0.0094734235
0.031200537
0.04297763
0.0525799
0.03125954
0.08821612
0.0040634396
0.060524844
0.06275194
0.07276862
-0.0453175
-0.12580676
-0.024874108
0.124510914
0.14461724
-0.102750085
-0.11563305
-0.020256057
0.004180152
0.067856625
-0.007535161
-0.03357011
0.050404686
-0.096334636
0.023187805
0.027467636
-0.029104782
-0.018183934
0.062514596
-0.018958207
-0.051492017
-0.08752036
-0.04182042
0.012498769
-0.030493008
-0.13507876
-0.1414821
-0.020277807
-0.025932373
-0.016956741
0.08526881
0.007532915
0.09427216
-0.0026690806
-0.046265922
0.1947416
0.08175664
0.10668094
0.08966401
0.08178059
0.17154637
0.07335256
-0.016534058
0.006509616
-0.014729867
0.06470779
-0.078245424
-0.11115573
-0.10863644
-0.084943704
0.049491026
0.07516286
0.030902209
-0.050421562
0.0050709434
0.02995674
-0.04756552
-0.036298484
0.027230501
-0.00613307
0.041944794
-0.12170361
0.0013001278
-0.0018981628
-0.014824621
0.043702878
-0.065542735
-0.07263154
-0.037054073
-0.00394973
0.012970427
-0.20229237
-0.10804525
-0.050953314
-0.037267823
-0.008555357
0.04750876
0.03633692
-0.07216104
-0.13931362
0.05504025
-0.015436446
0.068455435
0.037045952
-0.03186558
0.070100434
0.041642472
0.07767213
0.0028337492
0.07042872
0.0501791
-0.06748841
-0.0097328285
-0.08637664
-0.018671224
0.053704407
-0.08693766
-0.03451661
-0.048662048
0.06595645
-0.06026316
-0.06071604
-0.060057614
-0.0198855
-0.16168334
0.0955701
0.085002035
0.09038907
0.03130256
-0.0054797926
0.048401635
-0.0663302
-0.024756648
-0.009528243
-0.010059459
0.01921816
-0.029958686
-0.05206342
0.0011430004
0.06898602
0.07045315
0.043710213
0.003393391
0.057498615
0.032278713
-0.119494356
-0.049821716
-0.030762218
-0.07111918
-0.07459436
-0.015237429
-0.041670874
0.027352396
-0.008391348
-0.056906298
-0.0005302762
0.024558792
-0.057097998
-0.013986786
0.002767717
-0.052729454
-0.0031331123
0.015569925
-0.11930612
-0.02367586
0.06974579
0.10814604
0.12618703
0.13727322
0.07705128
-0.28264955
-0.1953513
-0.070946604
0.047819372
0.13368988
-0.14823453
-0.04433349
-0.04555409
-0.02092256
0.059527297
0.037827555
-0.08975198
-0.08478217
-0.04751594
0.0037167035
0.037472863
-0.06316262
-0.009735119
0.08703907
0.04709012
0.019007565
0.0016439689
0.027555125
0.07466194
0.026281614
-0.05817225
0.0015987084
0.024916047
-0.028540542
-0.0686994
0.010186816
0.033535823
-0.0006991474
0.05006417
0.019547213
-0.025735272
-0.08207935
-0.054100517
-0.052420605
-0.08203284
-0.059778787
-0.055686425
-0.0009799155
-0.008124866
0.04388627
0.064712
0.051376313
0.092722714
0.107105836
0.014099982
0.04179255
0.028875457
-0.017713223
0.011763763
-0.115912125
-0.03670255
0.006086916
0.029141787
0.057370037
0.031478897
-0.055143226
0.06795597
0.057356827
0.051308446
0.01167475
0.06183209
0.012981445
0.09934043
0.061032865
0.037589584
0.026358346
-0.010509954
0.066212505
-0.008400963
0.07090229
0.057038587
0.08386177
0.045515765
0.0046780147
-0.0701397
0.011880139
0.00946571
0.035106197
0.02679854
-0.06079368
0.042790383
0.055280905
0.0033752494
0.049351227
0.07143795
0.054441765
-0.082030535
-0.031456277
0.026064215
0.050788287
-0.0031523488
-0.048878517
0.08929143
0.08544479
-0.009884693
-0.0368289
-0.06742893
0.037243273
0.016720494
0.17353885
-0.07443343
-0.043902285
-0.021197127
-0.1312855
-0.061976425
-0.018680384
0.054681152
-0.11262756
-0.11874946
-0.06650599
-0.037539724
-0.015896019
-0.010864482
0.030339723
0.06094566
0.0005583645
-0.19596384
-0.13180983
-0.25341317
-0.17417042
0.059302572
0.009229278
-0.053543743
-0.033172134
0.0045658913
0.025057644
-0.028752137
0.0010127578
0.06687963
0.080447756
0.007858491
-0.0027044555
-0.054989528
0.12817314
0.10335818
0.03901023
-0.030529134
0.03413405
0.008546856
0.06386325
0.019264514
-0.0338474
-0.041135836
0.019714663
0.02650825
0.05121408
0.13160087
0.06616176
-0.082115255
-0.11472868
0.009791841
-0.013765423
-0.002846843
-0.035872065
-0.0028311305
-0.0493785
0.06458291
0.037536994
0.08401088
0.11203752
0.019806545
0.08703052
0.020303808
-0.04923834
-0.041697085
0.043963604
0.026553228
-0.015611933
0.040399272
-0.031232867
0.065953575
0.07629128
0.054738365
0.0130892
0.010177357
0.046386715
0.12525538
0.1033104
0.0091679245
-0.08985758
-0.042927355
0.043853827
-0.054647733
0.036626093
-0.0005179777
0.058616675
0.033073246
-0.074833244
0.020546913
0.016297024
-0.05621966
-0.037154444
-0.09277665
-0.112692356
-0.09146478
0.06363943
0.08407525
0.11029956
0.10776546
-0.011283089
-0.06042897
-0.02751265
0.02843037
-0.01390174
0.007301582
-0.06535878
0.012732462
0.07757123
-0.030495819
0.03043353
-0.03984069
-0.020620184
0.0040555415
0.040626533
-0.042064343
0.0024009196
0.05868809
-0.06061647
-0.076591276
-0.04614537
-0.042224742
-0.03943598
-0.041290395
-0.04998144
-0.009659262
-0.018918002
0.06237524
-0.06282194
-0.043322343
-0.003932421
-0.0012127811
-0.015556766
-0.065111674
0.005685131
0.07120948
0.001347945
-0.0088726
-0.0958415
-0.06332718
0.034413435
0.07070287
0.0036847247
0.059613183
0.05713171
0.07016538
-0.0014885538
-0.07557929
-0.08974517
0.03599603
0.036093127
-0.014462452
-0.077427045
-0.04044148
0.092212714
0.15557921
0.111186974
0.026227454
0.016920133
0.058261484
0.12101643
0.094296396
0.06470446
-0.076648675
0.0717295
0.07470085
-0.034765102
-0.01021745
-0.012740242
0.10440014
0.14620751
-0.14706819
-0.047263175
0.036440253
-0.0038063547
0.013586979
-0.22411375
-0.19355404
-0.056432392
0.014709711
-0.0077271527
-0.08895893
-0.019252574
-0.07446515
0.0037772565
-0.04940605
-0.05511995
0.08680966
-0.06652918
0.0809616
0.030685473
-0.051492516
-0.049286045
-0.017947694
0.049611654
-0.064479135
0.027309988
-0.035234295
-0.036460422
-0.081365846
-0.0065505225
0.24443726
0.1478433
-0.098622106
-0.10030023
0.014012471
0.04068373
0.040412933
-0.024390599
-0.041624714
0.05196846
0.09828707
0.010417407
-0.06432391
-0.024624886
-0.0023689184
0.21353784
0.025252813
-0.021895919
-0.06478397
0.008460218
0.017550485
0.041662507
0.023296168
-0.005637762
-0.02317615
-0.00031231105
0.010887333
0.032316994
-0.009193222
-0.10587287
-0.120837316
0.019531801
0.003997871
0.084223956
0.017636701
0.030524584
-0.018403532
-0.060298316
-0.17238373
-0.055116866
-0.060037002
0.0029264905
-0.041688606
-0.013563259
-0.08988975
0.019963989
0.13205378
0.038952947
0.010374834
-0.09087745
0.008882913
-0.05575499
-0.07054733
0.023820626
-0.095485725
-0.08156619
0.012253387
-0.02995344
-0.05448514
-0.046251338
-0.006974763
-0.078305095
-0.08942498
-0.14023292
-0.05674682
0.078409
0.024658037
-0.012950711
0.008560561
0.023300486
-0.0139743285
-0.026090417
0.037646305
-0.08556804
0.060957577
0.03124998
-0.022236694
0.044504628
0.009626432
0.020210605
-0.018591028
-0.09560958
-0.055907607
0.027416894
0.009512041
-0.042377688
-0.15139924
-0.11825006
0.01622229
0.03841998
-0.03334729
-0.068038575
-0.106218144
-0.07049293
0.06756162
-0.17285404
-0.043391768
0.08349836
0.07229403
0.09389988
0.017248672
-0.08343935
0.013468808
0.005656765
0.016127856
0.22101386
0.09807188
0.01701146
-0.065789156
-0.00513723
0.114599705
0.012051559
-0.067350954
-0.06698906
0.049133796
0.05665009
0.0568356
-0.009869043
0.0058165058
0.013465916
-0.065373205
0.039095882
0.12187369
0.041039843
-0.09125805
-0.05228946
0.01829407
0.06287548
0.008302377
-0.075960845
0.033261664
-0.011201918
-0.031027608
0.00064273714
-0.033860363
-0.03900703
0.017003456
-0.05038386
-0.09582104
-0.07426375
-0.008687184
-0.006538626
-0.067316525
-0.08379456
-0.002067368
0.07801183
0.090066716
-0.004333155
0.034452323
-0.006107227
-0.045813914
-0.0841479
-0.06568389
-0.030042851
0.018471304
0.016152477
-0.062053338
-0.09426222
-0.059348427
0.15670456
0.08045317
0.015734581
-0.05878916
-0.011146411
-0.027813248
0.1287146
0.10302709
-0.014471379
-0.01822373
-0.003971471
-0.0061691552
0.054446045
-0.04902961
0.07335767
0.0047632884
-0.04275501
-0.019943096
0.027626973
0.02662263
0.02515994
-0.023037134
0.0011813598
0.07544045
0.033448223
-0.033963196
0.018782847
0.044801645
0.1045257
-0.014423828
0.064616956
0.020968366
0.006077816
0.011932179
0.010507598
-0.07396068
-0.075634345
-0.04157994
0.090373226
0.097092636
-0.081964776
-0.05380362
0.04817542
0.101257995
0.12668581
0.06660292
0.09644635
0.01756917
0.028422782
-0.018441845
-0.11112304
0.013484839
0.07298732
0.07329895
0.09582661
-0.05999504
0.050045334
0.08121753
0.04041469
0.10846804
0.1409971
0.0071423994
-0.0105022
-0.011409944
0.0073887897
-0.09734157
-0.06749198
-0.03334367
0.022781914
-0.022624003
-0.107828334
-0.031276032
0.013365365
0.048783448
-0.034204286
-0.059457935
-0.0059497496
-0.07667255
-0.051548034
-0.088342965
-0.004120356
-0.030252824
-0.035913322
-0.09763849
-0.052433144
-0.0892353
0.00042748006
-6.970278e-05
-0.018098354
-0.064806394
-0.102231964
0.0092889555
0.012545029
-0.0033921343
-0.06971265
-0.15958568
0.0451906
0.076060764
0.10202707
0.029076178
-0.009055188
-0.063033484
0.06420812
0.08357822
0.09501093
0.047937974
-0.111681186
0.074006304
0.02657261
0.052833606
0.08566202
0.0071934275
-0.04474903
-0.0025835594
-0.07203254
-0.07101265
-0.004738759
-0.04222419
0.15042487
0.0005222458
0.02722355
-0.03034248
0.01476832
0.18346973
-0.006779257
-0.009031621
0.0038249225
0.057268105
0.1212288
0.0062061558
0.05091747
-0.08373398
-0.022134209
0.083107986
-0.0007097646
0.098926194
0.0153765455
-0.0496837
0.052457627
0.09448475
-0.021499466
0.07115208
0.018824542
0.027197117
0.12370804
0.0033277506
0.010749416
-0.0064669885
0.06137435
0.031404193
0.034717534
-0.061505843
-0.005925647
-0.009276423
0.006505847
-0.10132311
0.0602715
0.13934392
0.15100497
0.13995135
0.08619149
-0.0016385071
-0.019242873
-0.028710736
0.0078109107
-0.06707099
-0.019142317
-0.063579045
0.04294455
-0.03558822
-0.018924695
0.0609431
-0.034000438
0.055887494
0.011082226
0.0038561074
0.018216403
-0.028081039
-0.01594082
0.004281624
0.0472
-0.0065907487
0.0432595
-0.049499527
-0.0023248466
0.06345162
-0.02226872
0.0036004104
-0.07633427
0.03576017
0.109566085
-0.0673367
0.043180402
0.0012010327
0.003614111
-0.056299705
-0.046070036
-0.09149267
0.012558117
-0.10230623
-0.05158847
-0.056939237
-0.07901897
0.019572891
0.018553209
-0.02829409
-0.06869618
-0.024501225
-0.048733134
-0.0035702328
-0.14126007
-0.1346444
-0.100203216
-0.026746346
-0.095408775
-0.029149473
0.076332055
0.05949714
0.08148874
0.045259267
0.07022043
0.07661203
0.030477922
0.16833083
0.1461719
0.0232168
0.1050988
0.033331584
0.05561502
-0.0023256773
-0.0812399
0.22057393
0.06264269
0.05631346
0.0953329
0.01323807
0.06617815
0.10105831
0.07685532
0.033824638
0.03002829
-0.010523988
-0.08018678
0.032957908
-0.010610658
-0.04417454
0.100365676
-0.16526882
-0.015866147
0.07445291
0.004275921
0.022756396
-0.060823422
-0.08374932
-0.0044444427
0.0037586435
0.01721994
-0.14230746
0.028240234
-0.018141732
-0.018478123
-0.026998201
0.030375121
0.038747802
-0.07811128
-0.12501045
0.053279605
0.0571523
0.097427525
0.058470957
0.06391961
0.09830512
0.1563067
0.1799685
0.09296223
0.085097834
-0.08789648
-0.008540707
-0.0027137697
-0.020064877
0.0746698
0.040380843
-0.06282147
-0.06920127
0.096820645
0.23887485
-0.022296207
-0.046012133
-0.0121664675
0.010319656
-0.044987082
0.044513665
-0.006370122
0.068943866
0.054805867
0.028080935
0.02832508
-0.002623676
-0.01635594
0.0074032196
0.013821409
0.0072185793
0.032968212
0.023469917
0.063786626
0.068933785
-0.08063574
0.02762144
-0.025613837
0.0042544957
-0.022877064
-0.036603224
-0.03597749
-0.05250568
-0.05816215
-0.009949967
0.024086867
0.056818116
0.0054042423
-0.012959789
0.08069718
-0.0120243365
-0.043066833
0.0131675275
-0.119509794
-0.11688653
-0.0061891745
0.031840295
0.039830893
-0.035961296
-0.043054357
-0.003567692
0.112528995
0.06951692
0.14696461
0.13674434
-0.14394514
-0.0659551
0.043680917
-0.05978711
0.059857555
-0.01273132
-0.09065561
0.060464937
0.040677097
0.0012252083
-0.09154306
-0.10450407
-0.05243263
0.04927045
-0.03391887
-0.025108416
-0.11471055
-0.011413571
0.081222944
-0.009431641
0.03518599
0.014309673
0.04545109
0.103167005
0.015628204
-0.03454735
-0.07241925
-0.008724128
0.002283561
0.013287204
0.11724741
0.07869687
0.02741503
0.06645791
-0.02305204
0.041282978
0.01081254
0.048434395
-0.013836628
-0.021016527
-0.023997637
0.0031622914
0.034296412
0.05964767
0.03585814
0.03094691
0.094528355
0.021659747
0.08663921
-0.009691037
-0.025549328
-0.049679797
0.032894544
0.06181127
-0.041638743
0.0009699434
-0.05729061
-0.017118871
0.010354483
-0.025134347
0.0051191235
0.058184683
0.107105024
0.010595478
-0.075369634
-0.011983764
0.009521503
0.15372689
0.028174965
0.017829636
0.01694486
-0.015096358
0.014423778
-0.017903382
-0.040830817
-0.03604488
0.022710344
-0.0070785447
-0.005475429
-0.0954258
-0.013595798
-0.008458322
0.06956013
0.010628864
-0.067663506
0.17087792
0.056867618
0.114827104
0.027246738
0.06089454
-0.013600241
0.013173097
0.037236456
0.024573179
-0.049454086
-0.02679137
0.06561249
0.012149112
0.12013365
0.074009925
-0.057483796
-0.07832381
0.008150029
0.013965522
0.036599413
-0.018274063
-0.006764337
-0.064968124
-0.053528383
-0.05654787
-0.020416316
-0.08430591
-0.17479292
-0.08038466
0.056366317
-0.05024527
-0.07735511
-0.09688258
-0.049496673
0.027909718
0.053755164
-0.11362954
-0.14337017
-0.11669334
-0.09992825
-0.025811339
0.12402503
0.21097931
0.103244215
0.15128271
0.025707176
0.108890824
0.12354073
0.069527574
-0.0456019
0.00021441783
0.13197999
0.07996589
0.003080419
0.054401178
0.040721036
0.09710898
0.021989198
-0.064651616
0.0008125352
0.01973246
0.060542185
0.046436828
-0.042311568
-0.016259497
-0.07152382
-0.005708018
0.011843116
0.10740284
0.09068862
0.009318172
0.055951282
0.07483988
0.19909719
0.055805378
-0.07127006
0.08506826
0.024719581
0.025553048
0.022227593
-0.09781234
-0.023048766
-0.039091166
0.021606857
0.07713114
-0.04981565
0.04430705
0.017904589
-0.16009094
-0.014071486
-0.040858947
0.08197842
0.08343055
0.08601018
0.07202272
0.012110497
0.07172692
0.033457726
0.22568412
0.11211334
0.06760748
-0.0515218
0.10345065
0.0022326345
-0.052360386
0.09343092
0.027347337
0.0834239
-0.11913684
-0.069159344
0.00017669355
-0.016941965
-0.026766252
-0.09943249
-0.02229288
-0.19507234
-0.028317198
-0.09076257
-0.012619344
0.092209496
-0.10223038
-0.06111328
-0.012418182
0.04493581
-0.05606996
-0.035823524
-0.097965516
-0.0063010105
0.0028370973
0.02345863
-0.023246046
0.018992066
-0.002003635
0.017807253
0.0064082663
0.18454903
0.009787809
-0.026465954
0.003955966
0.09571525
-0.030763587
-0.16261628
-0.036340985
0.03763068
0.11224235
-0.079658754
-0.021308132
-0.028439375
0.0026901225
0.06632811
-0.13941906
-0.031888653
-0.04532643
0.082307264
0.084930554
-0.013637176
-0.010592188
0.032496214
0.0437041
0.09026963
-0.040889107
0.012698421
0.08251945
0.07638188
0.109852776
0.044674635
0.049520083
0.055011716
-0.052039787
0.012892864
-0.04795365
0.033511262
-0.01450355
-0.074922375
-0.08309889
-0.089101255
0.050487347
-0.056533102
0.03235593
-0.0016839472
-0.024240972
0.021020366
0.120198585
0.008737765
-0.058529686
0.0005302025
-0.054528423
0.04861781
0.07064063
0.08045533
-0.02384948
-0.0072695436
-0.008700466
-0.092240065
-0.123797946
-0.1503376
-0.0037088355
-0.11766116
-0.022004902
-0.026620027
-0.060743116
-0.12089036
-0.18007232
-0.042747773
0.05873793
-1.2589743e-05
-0.036755115
-0.07871409
0.044902455
0.040373657
-0.1398841
0.017684424
-0.19441018
-0.11841728
0.06694175
0.04878768
0.16218947
-0.0028413394
-0.05207675
-0.10145314
0.037957445
0.14431606
0.078473546
-0.0135134375
-0.065212
0.12781566
0.032417748
-0.0013741432
0.008362155
-0.016268032
-0.15579936
-0.011448838
0.045958675
0.01676001
-0.056002665
-0.127929
-0.18771307
-0.105330646
0.005800048
-0.015823165
-0.060960043
-0.003838888
0.0012094753
0.03182505
0.10209056
-0.012656143
0.07970162
0.02691077
0.18240017
0.24111952
-0.15171254
-0.052874267
0.0032437777
0.0027904094
0.11343773
-0.005324336
-0.05743522
-0.051256172
-0.0778669
0.008010553
0.033092555
0.010383358
-0.0359725
-0.20683707
-0.04657569
-0.18798175
-0.1636259
-0.19569425
-0.12068466
0.013725846
0.027695058
-0.02982947
-0.033727277
0.015488914
0.23128407
-0.08753479
0.021846388
0.03675838
-0.028709568
0.09080457
-0.20388435
-0.068683505
-0.029893056
-0.06633651
-0.08967538
-0.025863465
0.03016155
0.06720267
0.016672604
0.077937074
-0.13332844
-0.14409243
-0.15872595
-0.03899561
0.08424733
-0.1784262
-0.018304748
-0.0801513
-0.029972458
0.3476935
0.005165021
-0.041596785
-0.14769533
-0.13864617
0.1965264
-0.04546391
0.028712012
-0.015993198
0.0109547945
0.0570423
-0.032163657
0.104712725
0.03379251
0.053347904
0.12021616
0.023846744
-0.03822571
-0.13080977
-0.16015615
-0.1458107
0.03193522
-0.039450813
-0.118971325
-0.07094431
0.00024914977
-0.17472526
-0.03057785
-0.0550357
0.01127433
-0.010379306
-0.071324736
-0.041450687
-0.023289114
0.015979834
0.049190708
-0.10997056
0.08148461
-0.03182258
0.04845909
0.050317675
-0.14075597
-0.37886292
-0.25216743
-0.040723905
0.13339156
-0.01428349
-0.062220715
-0.05459052
0.08599058
0.18815391
-0.09018959
-0.011669394
0.0006008776
-0.04318254
0.09199999
-0.15037756
-0.1272386
-0.0054809647
0.004239124
0.0037645996
-0.09151619
-0.002654225
-0.021729888
-0.01348465
0.03598946
-0.22623616
-0.14050967
-0.10505665
-0.0145947
0.17564248
-0.07471096
-0.048070893
-0.022827743
0.08903971
0.11611545
-0.20777567
-0.000109855595
0.053146478
0.058602177
0.074823
-0.20027633
-0.021710524
0.027385788
0.101671286
0.026948988
-0.09390558
0.0053613153
0.02922846
0.06947621
0.06369916
-0.019173944
0.04417931
0.077428706
0.030066855
0.08113054
-0.07873081
-0.0016144401
0.06659693
0.03496816
0.058370665
-0.09592954
-0.02196373
-0.072471045
0.030809242
0.09047784
-0.116175115
0.031189004
-0.03607476
-0.034422237
0.0981143
-0.009657984
-0.040609546
-0.025654895
-0.037849717
0.05767782
-0.00094045047
0.04502378
0.0026468588
0.05734961
-0.08262828
0.08138513
0.021732926
-0.018308781
-0.0057384577
-0.025569227
0.10124096
0.08883484
0.06260461
0.049785815
0.037080895
0.0089886
0.05158537
0.06950987
0.045301907
-0.02260052
0.004087773
-0.058562182
-0.06322885
0.09380156
0.02902184
-0.030546114
-0.051056676
-0.023324298
0.017526038
0.04243724
-0.08049305
-0.059133135
0.024140706
0.103230305
0.10014638
-0.051079333
0.023134219
0.0033790437
-0.07931866
-0.051660124
-0.0594391
0.06175982
0.011296424
0.02876081
0.0792929
-0.08863262
-0.0027738335
0.096433625
0.12915172
0.03764017
0.07153852
0.005949999
-0.0400319
-0.03194033
0.04755707
-0.016896311
-0.042408988
0.14625025
0.14194162
-0.095679335
-0.01582874
0.0062287496
0.09027593
0.025085011
-0.05830491
0.050054774
-0.013295371
-0.027151367
-0.047333434
0.0018453487
-0.036340334
-0.033330068
-0.07584756
-0.0029013886
0.09488584
0.033025663
-0.009568938
-0.022238344
-0.06616124
0.025723912
-0.07351545
-0.030712781
-0.09673925
-0.016923953
-0.08499128
-0.0036644859
-0.09784434
-0.011011863
-0.095786385
-0.07624005
0.080281906
0.057949763
-0.069425136
-0.1401644
-0.26370874
0.1367537
0.119917445
-0.14070104
-0.07387875
-0.1942583
0.0823536
0.05182848
-0.012252032
-0.018596787
-0.055378217
0.03708288
-0.018191854
-0.01612691
0.067919664
-0.00054111646
0.17475802
0.0576338
-0.08194283
0.0024015217
-0.13764736
0.06256675
0.087753914
0.12461826
0.010640905
-0.028516745
0.016044104
-0.05150398
-0.13671556
-0.06904629
-0.05865449
-0.005267106
0.08866455
0.009394197
0.012621828
-0.024728483
0.059946842
0.06715492
0.051854312
-0.011966434
-0.10404228
-0.038736004
0.022287844
0.12068096
0.11368469
0.036477894
-0.07685832
-0.051165067
0.054834053
0.0644776
-0.038567103
-0.0033642633
-0.009501286
0.08026703
0.033671085
-0.05165633
-0.026675766
-0.07868701
0.074358016
0.098071575
0.10250663
0.003105374
-0.092488185
-0.011315496
0.041086484
-0.038214084
-0.103007555
-0.030659227
0.08336522
-0.06896305
-0.0950245
-0.0335875
-0.040499575
0.05664289
0.0698146
0.023452753
-0.033937845
-0.12751265
-0.01828955
0.09958796
0.1208511
0.13798702
0.10370826
-0.06517417
0.025262516
0.09539412
0.046677854
0.031095907
-0.08117369
-0.03813941
-0.06396825
-0.044910777
-0.0308603
0.016216267
-0.024686728
0.009620181
-0.006512089
-0.018828515
-0.091535054
0.029791163
0.1586998
0.0753717
-0.053874545
-0.08798865
-0.25607443
-0.05264404
0.10702293
-0.0022254859
-0.12007155
0.02787441
0.104983374
-0.037260316
-0.07915407
-0.063027956
0.032047123
-0.010300746
-0.05680078
-0.06001741
-0.036577307
0.06996026
0.04025841
0.16192904
0.12897417
-0.01791177
-0.051611394
-0.005536291
0.06975426
-0.019100215
-0.260201
-0.09138723
0.10135663
0.03921963
-0.015771922
-0.018584585
-0.062039852
-0.017283294
-0.09869783
-0.042525955
-0.026448853
-0.04682039
-0.10590438
-0.07137065
-0.11259157
-0.0915698
-0.15935196
-0.07025762
-0.009425081
-0.10540643
0.0087364195
-0.17693587
-0.11821385
-0.04873595
0.02280354
0.018522967
-0.08089202
-0.15782276
0.08616735
0.052267365
-0.012754592
-0.08532038
-0.058311947
0.12780742
0.010420341
0.022080768
0.02259442
-0.08175048
0.049716514
-0.04529462
-0.09440336
-0.056118708
-0.0008674036
0.098846726
0.11644364
0.018144984
-0.121460184
-0.05508834
0.013404634
-0.00897512
0.038957972
0.085494034
0.063550666
-0.03656272
0.011628778
-0.08530352
-0.13724598
-0.15995036
0.06281949
0.028963756
-0.028272394
-0.123307765
-0.19453037
0.035537064
0.108717345
0.08118117
-0.044072773
-0.09498187
-0.04608008
0.103498586
0.12868847
-0.020923477
-0.08492718
-0.049164113
-0.01798201
-0.03840558
-0.12963106
-0.11513078
0.12956011
0.05088751
-0.0723782
-0.00794919
0.029132858
0.08545121
0.08529689
-0.0111440215
-0.020096695
-0.040426794
0.08040617
0.086451754
0.09165547
-0.0054987357
0.03280669
-0.14511314
-0.09922444
-0.010003724
0.08532498
0.07737094
0.03953004
-0.08191699
-0.1161403
-0.001345723
-0.012478245
0.017950853
-0.021020852
-0.041010853
-0.19487953
-0.12635876
0.04885204
-0.03364499
-0.051840514
-0.07996812
-0.046972778
0.075618885
-0.02962808
-0.08178253
-0.009854051
-0.06738664
0.028361768
0.03248687
0.010946266
0.019861575
-0.03562244
-0.067470334
-0.07651964
-0.043313958
0.08292056
0.06887263
0.029145434
-0.018040061
0.02088291
0.025287343
-0.017603477
-0.050926737
0.0065939226
0.015202982
0.12590586
0.09981302
-0.04366483
0.029053165
0.012992687
0.06277408
0.04970826
0.017930819
-0.09449705
-0.063714996
0.00074479484
0.004498633
-0.08976445
-0.079628564
0.005945485
0.03740489
0.061972897
0.103922956
0.008985632
0.011383946
-0.060921587
-0.042054735
-0.038863845
0.06285269
0.117743924
-0.04636613
-0.08900994
-0.02277943
0.016473858
0.009976045
0.08816813
0.027551536
-0.048925277
-0.052596066
-0.027595177
-0.045222778
0.20418824
0.07421676
-0.027337765
0.016278746
-0.0064269
-0.2080443
-0.09298626
-0.05177425
-0.092014
0.07637931
0.13316795
-0.006022636
-0.07155144
-0.049858868
-0.05877123
0.014483719
0.010068327
0.10131257
0.07704687
-0.039279453
-0.07278788
-0.087984614
0.02011008
0.009270582
0.0016782004
0.06118811
-0.043053046
-0.03548705
-0.07145537
-0.07753636
0.048817795
-0.058960725
0.027176932
0.16208635
0.10860233
0.09771942
-0.0052313088
0.025202528
0.06919535
0.20614207
0.021470811
0.0044293473
0.05074341
0.15068482
0.09246493
0.033928145
-0.007434995
0.06489215
0.056735218
-0.018936772
-0.0049894443
0.03306569
0.064860456
-0.021490272
-0.1284322
-0.11450437
-0.07533084
-0.039985728
0.037574865
0.037924904
0.08561357
-0.083052926
0.014628266
0.04403042
0.025763845
0.04549192
0.0126899835
0.112928346
0.027998222
0.054088958
-0.0027621018
0.05043401
0.06069015
0.018069146
-0.015211248
0.07834487
0.06797807
0.105446294
-0.0065174755
0.055129677
-0.008702918
-0.08942322
-0.016352652
-0.016564814
0.008009996
0.06695858
-0.046726193
-0.066294745
-0.015991695
0.16763125
0.04106007
-0.029934095
-0.027610015
0.09775597
0.11232554
0.050502975
-0.025513949
0.12012726
0.15635599
0.104406945
0.108704604
0.028790904
0.09231615
0.18430436
0.08049873
-0.06957663
-0.050803065
-0.038151063
-0.12694994
-0.009522755
0.007634021
-0.06565603
-0.05350688
-0.010396973
0.036587246
0.06154177
-0.111911856
-0.11929029
-0.07632107
0.03111256
-0.022518003
-0.2045247
-0.14074954
0.026199428
0.0281904
0.10880889
0.0647571
-0.01645201
-0.18441966
-0.020819847
0.050679065
-0.042866554
-0.07176739
0.043186296
0.073900305
0.00674373
-0.11134095
0.017127765
-0.07810855
-0.0036977718
0.020276347
-0.2457029
-0.08981238
-0.08952548
-0.029090425
0.056148425
-0.110896885
0.0056487704
-0.009449868
0.05538646
0.24300137
-0.11560099
-0.04787869
0.061620045
0.03874393
0.13185368
-0.15085374
-0.010849873
0.12514712
0.14469539
0.07064794
-0.14525159
-0.06329641
-0.0013240412
0.118541464
0.09006296
-0.101945676
-0.14328392
-0.026953483
0.023467664
-0.12943545
-0.08843382
0.028622244
0.028923593
-0.118623264
-0.06783252
8.934479e-05
0.034064345
-0.053834416
-0.20171618
-0.07992881
-0.114182055
-0.16640401
-0.020603498
0.091759875
0.029345822
-0.06745822
-0.0848699
-0.2153122
-0.09796312
-0.05811352
-0.11685223
-0.124751545
-0.20720051
-0.31186196
-0.1854947
-0.17020999
-0.13887197
-0.19197808
-0.19339855
-0.071143605
-0.0954899
-0.25223863
-0.16795
-0.029265009
0.07500569
-0.074060075
-0.03501998
-0.028801652
0.13746649
0.043998502
-0.06386722
-0.03311388
-0.017104054
0.095236845
0.06875652
-0.07685867
0.022184718
-0.026238786
0.029272355
0.053587012
-0.04619828
0.043742593
0.13996032
0.035599977
0.0124733765
0.09536455
0.19101936
0.11308245
-0.049330037
-0.0783469
-0.089878514
-0.07349162
0.030308109
0.03737574
0.035090677
-0.055422977
-0.025146361
0.033800766
-0.038381677
-0.07971432
0.0002263837
0.1287298
0.14957277
0.029190665
0.015576156
-0.11942099
-0.034902416
0.07398244
0.20754384
0.23444772
-0.14601786
-0.03017895
0.04465858
0.15701817
0.19713998
0.027080275
0.04784885
0.07052762
-0.060899135
-0.12786452
0.07788514
0.089594096
-0.07441212
-0.073801875
-0.053228125
0.13049044
0.0063501075
-0.050881702
-0.038658537
-0.083472
0.05749577
0.053210624
0.030802317
0.018898468
0.1797633
-0.1300196
-0.048119318
0.054000326
0.11851299
0.13975765
-0.04795462
0.10065295
0.09346162
0.021054573
-0.10905643
0.0069276635
0.03983782
0.010356506
-0.059986312
-0.2562623
0.00050680205
0.008675147
-0.03567524
-0.06050384
-0.1609861
-0.043949436
-0.036416057
0.028093988
-0.04742095
-0.055810373
-0.049642354
0.013802826
0.010043269
0.023212863
0.28015253
-0.12373092
-0.053545244
0.1311539
0.07607328
-0.054034863
-0.15064612
-0.17503689
-0.060480997
0.038784605
0.01727074
0.014467529
-0.23611191
-0.065195195
-0.13778095
-0.08092336
0.0006635534
-0.12214071
-0.18206418
-0.12513086
0.012158011
-0.21662354
-0.069960214
-0.05839499
0.037342206
0.082824074
0.05799784
0.06260437
-0.017438356
-0.06859181
-0.12618174
-0.023726443
0.033311762
0.0019651987
-0.05408575
-0.045942668
-0.055148084
-0.009991036
-0.047211062
-0.038520463
0.0009782842
-0.042885326
-0.095821835
0.04177876
0.048239782
0.05162426
-0.07641647
0.010283339
-0.01420089
0.054773953
0.08927771
-0.15127377
-0.0051747155
0.020014234
0.035419166
0.08668843
-0.07600598
0.037826035
0.030851489
0.03851635
0.14812118
-0.08881344
-0.030271705
-0.035578508
0.058601752
0.1273971
-0.15176319
-0.022280267
0.06943705
0.07337186
0.11976373
0.029545663
-0.029215725
0.020953123
0.060122494
0.049151916
0.025439365
-0.016850604
0.009979207
-0.013916619
0.013955113
0.03131668
0.099158525
0.014057763
-0.18706852
-0.16954215
0.08174251
0.045221712
-0.074237585
-0.2014612
-0.02978506
-0.013903631
0.020074252
-0.0806309
-0.049529772
0.004178966
0.088743135
-0.06124668
-0.029476425
-0.0058486545
0.09667809
-0.019488508
-0.022142742
0.111821726
0.12956768
0.04985244
-0.15306024
-0.04808566
0.057989743
0.102128424
0.081446566
-0.08772443
-0.0870202
0.024530115
-0.076465115
-0.0058016237
-0.022630787
-0.05325144
0.01845883
-0.09838837
-0.042649116
-0.015278705
-0.07741236
-0.054362424
-0.04815933
0.08315649
0.015046684
-0.0463436
-0.052496973
-0.058762297
0.012597397
-0.056103934
-0.020322304
-0.03603717
-0.004262533
0.04839285
-0.019185742
-0.05720433
-0.06506713
-0.008028254
0.014513941
-0.012599698
-0.05382019
-0.0015743242
-0.14073718
0.036637697
-0.011254279
0.03426424
0.019215869
-0.09446142
0.035253584
-0.04194357
-0.047347274
-0.023211185
0.0059211976
-0.03803462
-0.044099525
-0.059037387
-0.036705367
-0.04111086
-0.02349539
-0.061167974
-0.017461142
-0.054122828
-0.0019653167
-0.033759035
-0.08632468
-0.07683035
-0.050726518
0.02308459
-0.059482574
-0.0018418672
-0.008497102
-0.008570632
-0.073477305
0.032426577
-0.010185155
-0.0173412
-0.052535344
-0.050310872
-0.0011664121
-0.07938207
-0.053258955
-0.0005887137
0.07252562
-0.0077874647
0.0042160316
-0.0011508672
0.042457152
-0.049620826
0.09345348
-0.06869615
0.0008610903
0.0005793685
0.02463614
-0.00659746
-0.0774024
-0.08269869
0.045278005
-0.12122415
0.020222567
-0.039606832
-0.031940166
-0.039233353
-0.029054247
-0.061451823
0.025782762
-0.035929173
-0.035617854
-0.020778673
-0.058499213
0.00254288
-0.00710022
-0.07221552
-0.009432585
-0.03991957
-0.037140775
-0.031154087
0.04836178
0.038295798
-0.10651081
-0.015123994
0.005388689
-0.058597155
-0.041738342
0.045592077
0.008327286
-0.024594197
0.0060836026
0.0026936978
-0.0071554547
-0.045190047
0.037604365
-0.07097679
-0.031365722
-0.013835637
0.0024352777
0.032428395
-0.07185822
-0.026941368
-0.040485717
-0.036102753
-0.078593515
-0.05018406
0.0018707342
-0.052714508
0.02041195
-0.03335095
0.028271101
-0.016373679
-0.048126638
0.006780896
-0.038891897
0.021634175
-0.0055975034
-0.059553266
-0.031083934
0.014067244
-0.0035945955
-0.0028100277
-0.019983344
-0.026678124
-0.026865201
0.05923177
-0.08674464
-0.02637538
-0.0761091
-0.01626352
0.038597576
-0.06988796
0.0058788285
-0.09606689
0.019581731
-0.03300098
0.02581037
0.06686086
0.044270575
-0.0063255336
0.027403295
0.0073066163
-0.025253635
0.00871632
0.02089258
0.028809495
-0.06427832
-0.059320055
0.0035608942
-0.076753475
-0.057721056
-0.004675717
-0.082331955
0.073184624
0.0389406
0.02046386
-0.011011743
-0.041674696
0.07670546
0.081167474
0.065319344
-0.024366956
-0.055570923
0.0051486823
0.0017640205
-0.045382034
-0.07057607
-0.028748285
-0.024514483
-0.033994153
-0.09095035
-0.031246463
-0.04284961
0.025390377
-0.07272209
-0.03249003
-0.04384055
-0.073392615
0.03631418
-0.11287717
-0.09011385
-0.018294992
-0.011049127
-0.05528269
-0.09112089
-0.0074766697
0.02760224
-0.0069005913
-0.0016874659
-0.022412568
-0.049177773
0.024499208
-0.019452643
0.016290892
0.0026039977
0.027015133
-0.012095755
-0.077256896
-0.019136623
-0.0135793425
-0.019921334
-0.027148018
0.004015973
0.008242449
0.024104135
-0.020302158
0.011744905
-0.09443161
-0.010102917
-0.02487235
-0.07898785
-0.034109045
0.05435121
0.0611871
0.030770762
0.0061728545
-0.0018762766
0.037878174
-0.039844923
-0.04420539
-0.06994359
-0.01718513
-0.0057542296
0.007800935
0.024538878
0.01952407
0.022729104
-0.049490698
-0.017179262
-0.086623326
-0.084467955
-0.002819756
-0.06712755
-0.00042056324
0.06837994
0.004785174
-0.013888884
-0.0061884793
0.0041427636
0.015318674
-0.02454969
-0.012369306
-0.04827585
0.013672575
0.041696846
-0.01776212
0.01457949
-0.025756214
0.027963111
0.013134839
0.0046609407
-0.040174372
-0.0105487965
0.0063037076
0.036966026
-0.03680926
-0.032207217
-0.008264185
-0.10748684
-0.038374417
-0.057132266
-0.018331872
0.008261197
0.06252823
0.071642
0.08256755
-0.023624508
-0.012153077
-0.03560563
-0.0028167197
-0.05364273
-0.055774607
-0.06493576
-0.060461223
-0.008761079
-0.01909835
0.0017925779
-0.05852204
-0.0025045676
-0.029572688
0.036312815
-0.04635864
-0.0671815
0.059010927
-0.010464653
0.033247344
-0.015044535
0.00637093
0.087039545
0.112978384
0.026727526
0.0017640492
0.0041226866
0.03690427
-0.046290122
-0.08684951
-0.045630537
0.04492347
-0.033977684
-0.056945223
-0.055708803
0.015262426
0.013608665
0.00085065165
0.012237457
-0.04680334
-0.07268243
-0.095327556
-0.0660449
-0.018652631
-0.06515919
-0.03531295
-0.057490908
-0.053169478
-0.055842116
-0.024352169
-0.02847245
0.022723151
-0.044339173
-0.013829331
-0.04927124
-0.04174064
-0.08837077
-0.027403586
-0.0036604793
0.02191251
-0.08346524
-0.008687095
-0.073137425
-0.05902233
-0.0009234208
-0.08543754
-0.0063982983
0.04253861
-0.053138327
0.041212056
-0.067151666
-0.023063384
-0.0071788654
-0.052607536
-0.0817812
-0.031971302
-0.035714556
0.042565826
0.007837044
-0.02925012
-0.07778122
-0.056987282
-0.02055545
-0.029088957
-0.09436653
0.00622335
-0.1085534
-0.0153662115
-0.03629764
0.0139313685
-0.05376287
-0.026045855
0.004200643
-0.040354304
0.0024607158
0.028081615
0.034384795
0.00074449606
-0.014797297
-0.007630635
-0.08884937
0.03211397
-0.03252563
0.015318683
-0.06998015
-0.09140651
0.008175219
-0.06502846
0.01995774
-0.0073266914
-0.024564778
-0.006003433
-0.018373094
0.03033223
-0.030250298
-0.07221913
0.045780633
0.006502354
-0.05445633
0.0013711589
-0.0005137778
0.0798442
-0.14053318
-0.023433758
0.015591298
-0.055944305
-0.066434905
-0.16146645
-0.06362632
0.053738594
-0.120122574
-0.011087492
-0.08184547
0.006261875
-0.045750204
-0.0960958
0.02196462
0.011017921
-0.039274033
-0.085218795
-0.014390674
-0.04300436
-0.033914104
0.00847838
0.012239331
-0.011592124
-0.14501008
-0.13325362
-0.06417613
0.009844547
-0.022516439
-0.070599265
0.025141304
-0.040216073
-0.009070067
-0.11166097
-0.09889658
0.042248167
-0.0056836773
-0.03107503
-0.1022184
-0.036215503
0.07631327
0.020523546
-0.13101384
-0.002624436
0.036884304
0.03408769
-0.11510989
-0.12745203
-0.04109903
0.0205935
-0.02547192
-0.06093279
-0.036507767
-0.02288773
-0.0012645088
0.018515645
-0.08407456
-0.060273744
0.04627322
0.059813064
-0.011144403
-0.005884301
0.054302696
-0.12836309
-0.05935884
-0.0141904745
0.009886604
-0.07842742
-0.10730954
0.052584305
-0.06880057
0.011159744
-0.048664894
-0.005787397
0.07803599
0.063693024
0.10431221
-0.06465884
0.018555457
-0.07193397
0.12550555
0.039580233
0.043540083
-0.029307732
-0.19775113
-0.03310501
0.0012533868
-0.060997553
-0.11147397
0.031787276
0.12097015
-0.043982733
-0.067194216
0.028523238
0.04387362
0.03233196
-0.05065678
-0.015336882
-0.08023609
-0.06175898
0.05961128
-0.041789293
-0.0741056
-0.093832
-0.05804364
0.03932345
0.013260079
-0.0024485306
-0.00870074
-0.08196184
0.07643349
-0.0070369057
-0.021902477
-0.06601938
-0.10289921
0.03619801
-0.027540611
0.03396192
0.039372686
-0.07368377
0.047840703
0.024785409
-0.0014539598
0.013278687
-0.03312364
-0.01730877
-1.049643e-05
0.12643997
-0.0352797
-0.16927701
-0.05752503
0.05625587
0.09601988
-0.023515675
-0.10221217
-0.07798848
0.016403612
0.06047892
-0.0020303254
-0.14198676
-0.028297082
0.020177096
0.05517098
0.0009292778
-0.048995096
0.012665281
-0.0276513
0.046822347
-0.06397048
-0.073680155
0.012630746
0.021484667
0.009894307
0.029905735
-0.08910956
0.10545361
0.2643027
0.21257165
0.05332129
-0.0032390796
-0.01169132
0.09887253
0.09300681
0.09965391
0.12575316
-0.020185122
-0.04332463
0.06500635
-0.01823363
-0.025139706
-0.121985085
-0.10414023
-0.077755064
0.06908909
-0.014264448
-0.16031764
0.02022945
0.0022924077
0.12034259
0.058499143
0.016056506
0.034745317
-0.027361952
0.078954645
0.00895743
0.017424665
-0.092914745
0.033688102
-0.012256632
0.048124876
-0.14778313
-0.016108504
0.12352192
0.068413
0.012890645
0.010828531
0.13864635
0.05400403
0.034381304
0.037546787
0.018317478
0.0012898466
0.046907917
-0.06406145
-0.073131055
0.12142746
0.10217113
-0.04256777
-0.027423304
-0.061880253
0.09399537
0.07503353
0.029929537
-0.004624581
-0.024395091
0.048057564
0.05385894
-0.08520592
0.11305635
0.0048841937
-0.110530734
-0.21865119
-0.09744104
-0.028966017
0.0042204554
0.09252129
-0.026256254
-0.073196456
-0.21428585
-0.084249936
0.0777217
0.00063171895
-0.03750638
-0.07056716
-0.13324316
-0.07731856
0.015620324
0.06529825
0.040666662
0.01897561
-0.16041875
-0.068317175
0.0059277415
-0.07886577
-0.08886301
0.03715203
-0.02793077
0.04387889
0.051011544
-0.051654376
0.059419304
0.13718368
0.09503949
-0.016546514
0.15641777
0.03310755
0.020103544
0.08633769
0.047671214
0.068521775
-0.06805881
-0.06680429
-0.06360662
0.08642492
0.03513687
-0.004468192
0.024604231
-0.031218434
-0.023429105
-0.061566517
0.031323474
0.03417824
0.047041412
0.07943227
-0.07186791
0.06544891
0.124847874
0.03928559
-0.07916175
-0.13319685
0.066456154
0.08527229
0.06172166
0.034740835
-0.057867095
-0.07542069
-0.011323738
-0.04179571
0.012860993
0.06915596
-0.037727177
-0.012365691
0.028077643
-0.015594772
-0.035286
-0.056926664
-0.0073894835
0.07988484
0.063165575
-0.0767717
0.21788006
0.046363965
-0.10147494
-0.16772601
-0.10272457
0.16896255
0.11394824
-0.027568301
-0.064913765
-0.058595564
-0.07590621
-0.07471084
-0.084769845
0.0070011793
0.03603361
-0.039723847
-0.09840988
-0.01993907
-0.036224563
0.014272276
-0.041224714
-0.015933523
0.0031280417
0.03943957
-0.020667493
-0.04576257
-0.043198396
-0.10053657
-0.0281679
0.030503012
0.20274445
0.038908776
-0.039552793
-0.06928426
-0.15790762
0.15273777
0.011475306
-0.011330605
-0.03891831
-0.20811467
0.06180497
0.031838667
0.07523987
0.006280327
-0.014342934
0.059192777
0.021400372
-0.04928346
-0.022611227
-0.0028611894
0.00937926
0.053392995
-0.034452945
-0.061165802
-0.09816268
0.021376904
0.06223603
-0.07327068
-0.10581289
-0.03129583
0.040261704
0.017600626
-0.08178194
-0.013329366
-0.017424488
0.037080616
-0.11035013
-0.08958436
0.03865437
-0.035448883
-0.15437193
-0.11308981
-0.1177812
-0.06010845
-0.051763956
0.03458719
0.082293704
0.068120636
-0.0036408
-0.03475924
-0.050992597
0.0064733857
0.022293089
-0.12211083
-0.017625099
-0.015033289
0.03825306
0.046936363
-0.03592224
0.06746085
-0.014485127
0.024129143
-0.05353543
0.073120825
-0.030478032
-0.053833093
0.010811412
-0.0031221856
-0.06638188
-0.16889976
-0.09096323
-0.05030081
0.09773838
-0.02444825
-0.031211417
-0.06283688
0.057425916
0.1386721
-0.18022013
-0.25483432
-0.057179835
-0.03470321
-0.026600279
-0.14104697
-0.042632062
0.030348092
-0.06241341
-0.070307784
-0.015478402
0.078864366
-0.015328977
0.005417357
-0.0052815587
0.10641164
0.1909662
-0.13907158
-0.06310519
0.054114092
-0.0033826823
0.00725445
0.022735577
0.08758452
0.09770388
-0.057592735
-0.13267834
-0.012580703
0.05151187
0.0373791
-0.026452065
-0.14060931
-0.026719578
-0.038216453
0.046522528
0.041937012
0.010324499
0.022290643
0.15134338
0.07361954
0.06978303
0.022022331
-0.105335586
-0.036998313
-0.049660474
-0.023493454
-0.0987844
0.0151201775
0.046272393
0.044702996
-0.08744948
-0.010973591
0.01987392
0.10066436
0.14176694
-0.024194056
0.039449774
0.03992948
0.07950501
0.05804038
-0.028467696
0.031948157
0.10412892
0.025769124
0.09109341
0.08189751
0.2192077
-0.07784898
-0.057998657
0.00698778
-0.008068276
-0.12618788
-0.112734154
0.07241426
0.014909441
0.07863879
0.034149252
0.03844115
0.009553127
-0.044401024
0.019232616
0.047211163
-0.05296388
0.11340278
0.04585792
0.08089041
0.0405122
0.068444125
0.13641654
0.23948778
0.12984696
0.16372569
-0.030053519
0.038772292
0.026426006
0.046805456
0.05040706
-0.17346512
-0.09728352
-0.017072722
0.0018611128
-0.05758706
-0.192514
-0.00061158
0.05335056
-0.026387732
-0.04866039
-0.12424923
-0.040057518
-0.040219992
-0.039525915
-0.1196767
-0.045833994
-0.094615325
-0.025079226
-0.13308965
-0.051427957
-0.12680183
-0.004511583
0.05071515
-0.057049256
-0.0749255
-0.12815854
0.010525585
0.020349227
0.009153323
-0.1704987
-0.049466744
-0.1068326
-0.007860234
-0.043783996
-0.04750417
-0.036815166
-0.13675906
-0.025093092
0.091013916
0.12675004
0.015461259
-0.054875404
0.06077213
0.014790601
0.09793913
-0.07558137
-0.00017973839
-0.038950883
-0.004677112
-0.10428675
-0.13958985
-0.13162534
-0.07526288
-0.060643118
-0.11535734
0.11909444
-0.10582376
0.06799484
0.16285194
0.16989537
0.17400026
0.17925967
0.14276326
0.13204914
0.072757244
0.046901338
0.03751641
0.11379361
0.07930846
-0.024619853
-0.100649275
-0.1623741
-0.06394598
0.04272839
-0.0333813
-0.11844245
-0.22283196
0.015224818
0.054980583
0.023704983
0.07909707
-0.07530181
-0.012786379
-0.007927945
0.056518976
-0.04594833
-0.09377991
-0.067074955
-0.008444803
0.010224461
-0.033330303
-0.04611921
0.050107792
0.0418391
-0.07432022
-0.015990468
0.037227813
0.022900807
-0.034450747
-0.0015357045
-0.029617053
0.10983932
0.013743613
-0.021778494
-0.051594295
-0.020908415
0.06401866
0.09652698
0.06963011
0.020474054
0.023093184
0.05080102
0.09068827
0.043068722
-0.050301615
0.118311144
0.039549477
0.07877329
0.017133756
-0.04779074
0.024786197
0.025014255
-0.0329491
-0.05003324
0.054400563
0.09982158
0.011917181
0.014220689
0.10154019
0.059913494
-0.020614272
0.10708774
0.036191452
0.031772282
-0.13456652
-0.13003473
0.01824462
0.031517554
0.0027380546
-0.08930888
-0.055339012
-0.052915554
-0.06963966
-0.031477448
-0.13115145
0.054256666
0.08552999
0.050672784
-0.111583516
-0.025722923
-0.06928188
-0.04729821
0.020358732
-0.029882586
0.16646229
-0.013198351
0.08022497
0.06812665
-0.009686576
0.007863175
0.012724552
0.0078123203
0.009312873
0.0711294
-0.16334738
-0.04836242
-0.013869333
-0.088269904
-0.0013507169
-0.24335486
0.063145444
-0.020840364
0.059604082
0.038570397
-0.062129747
-0.020400941
-0.16254704
-0.053378407
0.043972097
0.0018979642
-0.25954232
-0.15349354
-0.099843845
-0.0024198384
0.047270842
-0.15628996
-0.15016535
0.05971321
0.07076046
0.09823651
-0.16337256
-0.007761447
0.02644508
0.017369255
0.011264514
0.08328182
0.07678948
-0.027582603
-0.046841536
0.057988513
0.12461358
0.096497804
0.06477328
0.047977954
0.12703145
-0.074492335
0.010229442
0.075124845
-0.016351286
-0.010770598
-0.0938817
0.09175127
0.07535701
0.013982581
-0.10430954
-0.073869936
-0.022210343
-0.062587656
-0.06309255
-0.029699303
-0.16317777
-0.053002503
-0.011662073
-0.032764472
0.06607493
-0.11848939
0.041948915
0.020611506
0.022599963
-0.06809084
-0.18875448
0.025190797
0.017435584
-0.0630396
-0.23868094
-0.11183486
-0.04216578
0.022451766
-0.09401632
-0.15351221
-0.08710873
0.037752148
0.06868385
-0.022310032
-0.043481655
0.040540826
-0.024509596
-0.019022148
-0.06777054
-0.023481248
0.0012556143
0.0061308583
0.018356584
-0.07710631
-0.045962136
-0.007306637
0.021743715
0.09605503
0.08326853
0.06660535
-0.08917485
0.007540144
0.064864926
0.047160897
-0.07595869
0.066761665
0.10838476
0.11954391
0.08463149
-0.041568667
-0.032986104
-0.024928616
-0.018758565
-0.07680514
-0.09038102
-0.071404986
-0.09453741
0.050070006
-0.12156715
-0.059731726
0.00407883
-0.06353726
-0.072837286
-0.022797978
0.1598695
-0.047125578
-0.13148008
-0.04458791
0.09615612
0.08718331
0.03217551
-0.07890625
-0.08979556
-0.01461619
-0.10005849
-0.007979615
0.033359423
0.081231624
0.18562607
0.17141438
-0.022769598
-0.01016891
0.08437452
0.076801844
0.018052325
-0.07469927
-0.018264398
0.050763074
0.007745208
0.10764974
-0.061369494
0.012678615
-0.018175911
0.012897181
0.019086627
-0.09579627
0.030072685
0.028690837
-0.089754954
-0.16862357
0.02344226
-0.0823824
-0.052916523
0.045194864
0.09674831
0.068866
-0.056365374
0.08422612
0.109399416
0.00641398
-0.048295643
0.010812119
-0.00997745
-0.0043718624
-0.035546362
0.013541065
-0.064687885
-0.0339934
0.038830545
0.013307822
0.052164257
-0.019351449
-0.09039647
-0.10827109
-0.09979214
-0.00210937
-0.016613204
-0.04898108
0.051504035
0.084397934
-0.03319359
-0.08167551
0.01650902
0.19798927
0.0775792
-0.10428586
-0.077299185
0.16567963
0.059560116
-0.026413951
-0.09690967
-0.16589788
0.080865666
-0.0034204663
-0.018199943
-0.041029457
-0.043631572
-0.043108877
0.04246884
0.08168748
0.016886087
-0.02635341
-0.15566653
-0.057824608
0.05654872
0.07276282
-0.098396845
0.04534643
0.07097118
-0.08828949
0.000752169
-0.09409363
-0.05584984
0.0077846358
0.006955828
0.09806979
-0.10170168
-0.07112515
-0.10218651
-0.0065134214
0.19239262
-0.104926765
-0.10757839
-0.007951305
-0.041303832
0.0045981915
-0.025623228
-0.07196455
-0.0284224
0.0062926486
0.077547796
0.01870092
-0.043110024
0.014485363
0.102977574
0.041764356
-0.013102116
-0.03360146
-0.039178383
-0.017418543
0.04797887
0.022536466
0.0076748035
-0.039326925
-0.028118817
-0.0657819
0.02408653
0.075450666
-0.036656242
0.008011796
0.07479591
0.10502741
0.07391791
0.11235591
0.0059447107
0.12143296
-0.014574512
0.07334358
-0.041728936
-0.019958608
-0.04211444
-0.036269885
0.1012556
-0.06789877
0.12537986
-0.05643519
-0.015900996
0.10621794
-0.05157852
-0.09116933
-0.054022253
-0.038700894
0.011285526
0.0064626434
-0.1666436
0.26416963
0.15833619
0.04917704
-0.027012443
0.018970914
0.12517168
0.24840312
0.1355324
-0.07797484
-0.030002384
-0.11419832
0.026188914
0.08984608
-0.096945584
-0.08871928
-0.096401975
-0.09477176
0.09518837
0.0034841246
-0.024226565
-0.13002197
-0.068056256
-0.14457247
-0.040095344
0.03188184
-0.05680873
0.2960774
0.060164697
0.0012467826
0.038719922
-0.013837236
0.14724855
0.034431055
0.004793438
-0.027973706
0.0784116
-0.023206564
0.013658649
0.05737155
-0.0023076087
-0.079635374
-0.07894312
0.09905166
-0.023442324
0.050738286
-0.029639488
-0.039558902
-0.050202064
0.07460075
0.09006248
0.047885735
-0.028398626
-0.070274
-0.017138923
0.09988753
0.12295911
0.03166967
0.016938876
0.21586841
0.19787595
0.07541268
0.079195626
0.048080925
-0.07580224
-0.009392961
-0.018379718
0.09023379
0.0036717143
0.044524807
-0.013527763
-0.042377133
0.018756837
0.02119863
-0.03784087
-0.010828769
-0.1277476
-0.08464383
-0.15156165
-0.113804094
-0.029782973
0.048247945
0.086610965
-0.003134821
-0.008108634
0.07564017
0.13252938
0.10003832
0.029509095
-0.059973713
0.029935589
0.0685674
-0.003406445
0.00019191005
-0.027763264
-0.05556951
0.061916113
0.06660433
0.07652845
0.02532503
-0.003258583
0.029710121
0.09801594
0.05015424
-0.10392027
-0.044679653
0.067364395
0.077175155
0.053709373
0.07139126
0.13419226
-0.011600128
-0.014628149
-0.1158676
0.06479227
0.23189238
-0.07051865
0.01045316
-0.020471685
-0.08383631
-0.008243857
-0.009340006
0.056917533
0.059355147
0.054083534
-0.0897967
0.044006728
0.11955032
-0.05109426
-0.16035418
-0.21098788
0.08719882
0.14984308
0.06724967
-0.048847474
0.04667857
0.017144851
0.0100925835
0.013994011
0.03134056
-0.061250046
0.056751214
-0.020388559
-0.063147105
-0.009949496
-0.10468729
-0.005470599
-0.04529422
0.028559154
-0.03848889
0.01447281
0.02766158
-0.1727434
-0.1658698
-0.15321596
-0.063161485
0.14671601
0.04877949
0.061779857
0.021460408
-0.0040016337
-0.013565014
0.05557836
-0.079438806
0.005185175
-0.024668153
0.012010619
-0.1102749
-0.14458367
-0.0877795
0.012623898
0.016315062
0.005697355
-0.046017367
0.01901094
0.05614404
-0.16191508
-0.0833088
-0.0950995
-0.02233062
0.12855591
0.1215032
-0.059576664
-0.07206159
0.03134664
0.06153473
0.019066712
-0.034431882
-0.12614465
-0.019186132
-0.049534276
0.036377396
0.052856296
0.039398845
0.053912677
0.10920176
0.04586342
0.038278952
0.09673731
0.030819733
-0.083968274
-0.018198388
0.0430123
0.07858635
0.017900521
0.038042262
-0.05422519
0.016942395
-0.025342003
0.019827278
-0.056760963
0.05275121
0.0096036885
-0.058452856
0.007317258
-0.028917946
0.09168143
0.03937149
-0.10605859
-0.07266822
-0.055741575
0.004945067
-0.030815717
-0.058332905
-0.2089095
-0.053655244
0.031078262
0.12855102
-0.010511478
-0.004916272
-0.06287021
0.002380464
0.09500912
-0.026860118
0.11479728
-0.059063345
-0.009594566
0.036370654
0.03997161
0.12977308
0.07912005
-0.017974557
-0.019762972
-0.136964
-0.00095732766
-0.030710876
-0.066287614
-0.08695566
-0.057899274
-0.04074472
-0.012136552
0.033896342
-0.0063911583
-0.08345464
0.06678833
0.005777597
0.016926672
-0.036183156
-0.07318683
0.030737124
0.0018875808
-0.04727677
0.023045328
0.08957235
-0.035072137
-0.107146755
-0.011162324
0.11173743
-0.0082184365
-0.14379089
-0.053121295
-0.018656047
0.056846768
-0.0030024333
-0.12742573
-0.011824406
0.091788456
0.023783911
0.031654302
0.009149742
0.00036272706
0.0020288907
-0.015206541
-0.04760502
-0.026383618
-0.055187922
-0.019031493
-0.11434981
0.06315942
0.083351925
0.07264295
0.05563745
0.058602713
0.036315605
-0.019422298
0.060030874
0.10416699
0.017655015
-0.101922154
-0.112054355
0.063427
0.12498657
-0.025674047
-0.07027036
-0.06670264
0.008956665
0.0051571033
-0.009862691
-0.050459422
-0.03329632
-0.08210038
-0.0052700024
-0.049187906
-0.076673515
0.09995869
0.010508174
-0.029792285
0.032117892
-0.013619485
0.024707805
0.03391568
-0.002038244
0.07336715
-0.01429905
-0.06385638
0.0052556484
0.023609702
0.029630492
-0.014682158
-0.022281105
-0.050874595
-0.04461008
0.03344826
0.0036988668
-0.030119684
0.0128218075
0.06433657
0.041581865
0.00929594
0.015826799
0.018777741
-0.0021046747
0.037643686
0.0042163436
-0.022699865
-0.033529527
-0.12398326
-0.024423908
-0.122007556
-0.04593031
-0.09349481
0.00228607
0.1017493
0.053524196
0.027162282
-0.025005955
0.024886766
-0.049318958
-0.055872057
-0.10429172
-0.02920058
-0.0092129875
-0.033779602
0.024881488
-0.038881585
-0.080198795
-0.06826863
-0.034413964
0.031155474
0.073877245
0.060714807
-0.10196816
-0.04116908
0.011905014
0.06112606
0.05297907
0.08957401
-0.00021642722
-0.06313599
0.017874485
-0.037035804
0.0595799
0.070468225
-0.047324084
0.013763627
-0.03166884
0.032138173
0.08835326
0.09424441
-0.036780767
-0.11331331
-0.044513308
0.09466907
0.011870866
-0.13489208
-0.19053568
-0.12771703
-0.010303813
-0.005549916
-0.09862198
0.0019127419
-0.033826843
-0.06694114
-0.08550231
0.030530328
0.08127516
-0.11002207
-0.023215227
0.067597404
-0.03140958
-0.07432396
-0.17699783
-0.0034278037
0.12830207
0.09314464
-0.03269793
-0.019375466
-0.08794805
-0.04454347
0.053876396
0.050044257
0.11376403
0.0665602
-0.0023016776
0.04218906
0.06828548
-0.0051409123
-0.026081847
-0.04367826
-0.0828657
0.012005198
-0.12325612
-0.0065536983
0.055983525
0.021354552
-0.047772385
-0.2781327
-0.08818223
-0.006867147
0.10321714
-0.032543555
0.013292643
-0.12331722
-0.027107025
0.08254875
-0.08998798
0.16347313
0.120341025
0.043057438
0.035745185
-0.068297185
0.025878541
0.03661231
0.019258456
0.01999013
0.0025594523
-0.06987859
0.041794
0.06981564
-0.006634318
-0.084163085
0.017768681
-0.03964103
-0.048336275
-0.029705858
0.06952962
0.006925623
-0.004793389
0.0055553974
0.012389388
0.16761945
0.009688658
-0.13526906
-0.053579718
0.030178314
0.25751212
-0.085201666
0.03605117
0.08104159
0.01816661
-0.06299504
-0.16594127
0.02906743
0.05919603
0.07133901
0.056184925
0.007649784
-0.043304082
-0.17636149
-0.08507393
0.11502368
0.022264812
-0.038058184
-0.037213176
-0.01646033
0.11172406
0.05073007
0.0040822965
0.019301692
0.07114568
0.084334865
0.12525596
0.0559785
0.014936215
0.046414435
0.0073755034
0.07263773
-0.0361955
-0.037150085
0.07729652
-0.012599935
0.08495539
0.024689626
-0.19551449
-0.035232116
-0.08353465
-0.05230853
-0.095474035
-0.02945812
-0.11637892
-0.071611196
-0.029719768
-0.035000965
0.05889717
-0.006015397
0.05243107
-0.1006558
-0.054810237
0.015739128
0.07572164
0.043601625
-0.02695456
0.07055073
0.05086226
0.08745406
0.07687575
-0.017374687
0.071654364
0.03508094
-0.046195377
-0.053029455
-0.14090575
-0.024358673
-0.028557912
0.022952706
-0.07593166
-0.078540854
-0.10269273
0.019701073
0.008280161
0.058530077
0.0040147994
0.19375053
0.14583299
0.0965581
-0.025967335
-0.11187484
-0.025174143
0.033571236
0.054173723
-0.02900531
0.08033194
-0.053537615
-0.10117274
-0.057466876
-0.008005561
0.08955386
-0.046108663
-0.056629438
-0.023887414
-0.02098393
-0.035061575
-0.04270644
-0.013215679
-0.032060824
-0.06519344
0.12611033
0.0811135
-0.021555778
-0.015745798
-0.051232383
0.12806727
0.055145733
-0.042534966
-0.086645156
-0.06639093
-0.06994549
-0.081510395
-0.1145486
-0.074529156
-0.12872292
-0.034907725
0.09030984
0.10862583
-0.028719945
-0.071197554
0.051599063
-0.013453851
-0.0597914
-0.09515753
-0.015744384
0.047273908
0.04422972
0.030229641
0.007831626
-0.03632449
-0.09541538
-0.0984809
0.02639123
0.0026054299
-0.10738434
-0.024522072
0.038107887
0.012971837
0.04755467
0.09940728
0.16915339
0.02450753
-0.0028816394
-0.047258984
0.14092395
0.05662584
-0.1292878
-0.07261085
-0.037481263
0.16348384
0.008476548
-0.04648762
0.024868393
0.06983081
0.06497079
0.06533661
-0.08987775
0.12266464
0.10187442
-0.062367667
0.043958817
-0.04637272
0.02936563
-0.08916942
-0.0873147
-0.034935325
0.02530614
-0.061327793
-0.18353328
-0.14996356
-0.0047850483
0.03144028
0.024375832
0.08774331
0.07058951
0.07876496
0.06524273
0.09726982
0.15657654
0.15825155
0.0076810876
0.005232447
-0.055327076
0.09415225
0.09203363
0.008412356
-0.07749942
-0.048572395
0.02247449
-0.029368805
0.01564928
0.001321788
-0.016499482
0.016890906
-0.07284785
0.0304589
-0.021836197
0.03332485
0.01847027
0.017675493
-0.0480388
-0.03658844
-0.022710823
-0.0009262635
0.12814867
-0.01175313
-0.013123487
-0.07192033
0.032639965
0.08970933
0.12466417
0.06418558
0.011316433
-0.048918836
-0.028532939
0.12853868
-0.07427265
0.004074297
-0.0705806
-0.11397455
0.102013275
0.03989811
-0.031093651
-0.037162703
-0.080441475
0.03276716
0.03891472
0.100891955
0.08686914
0.013050205
-0.03326768
0.07753306
-0.049401358
0.085059345
0.08560598
-0.00851719
6.959053e-05
-0.14696117
0.121250585
0.1288214
-0.0145735545
-0.09898591
-0.10258157
-0.046721723
-0.0010987666
-0.044259097
0.005864536
0.026472319
-0.15239802
-0.07558949
-0.0024086952
-0.07613597
-0.13442278
-0.029834265
0.021237286
-0.022378415
0.0053563807
-0.015870629
-0.024159439
0.01236392
0.13548778
0.082681075
-0.07299555
0.06683274
-0.049476307
-0.052269522
-0.042125724
-0.11385896
0.018812787
0.0010482995
0.06763587
-0.02696929
0.0027875484
-0.008477584
-0.05086876
-0.140633
-0.10524226
-0.09014866
-0.10890777
-0.1395133
0.01805427
0.109949015
0.0032815272
0.08751663
0.030806035
0.08641422
0.12342016
0.015663972
0.11102886
0.124361075
0.074349284
0.021270383
-0.043528173
0.08601196
0.09688783
-0.10301343
-0.062399756
-0.06714673
-0.04133102
0.018010955
0.08985649
0.093661
0.06585074
0.08081931
-0.008974904
0.10620877
0.13108842
-0.03216512
0.09652998
-0.0038126826
0.10504
0.07147445
-0.14774488
-0.0059097484
-0.067981675
-0.0016969217
0.031394847
0.015194939
-0.03952993
0.00028155273
-0.017315134
0.04372348
0.041100055
0.09250069
0.04205318
0.06151323
0.096725374
-0.0025765083
-0.03057932
-0.041386925
0.01735928
-0.04800734
-0.20217346
-0.07115556
-0.04482638
-0.039488036
-0.08197524
-0.1328224
-0.05639243
0.014526311
-0.108022094
-0.05294924
-0.04226166
-0.021607017
0.033022214
-0.16509801
-0.08677431
-0.012968946
-0.11907746
0.0017278724
0.22454154
0.11203365
0.014106406
0.009180423
0.013588653
-0.0024876418
-0.019546203
-0.052285098
-0.069779344
0.01789563
-0.07430443
0.035665244
0.07564294
-0.028486587
-0.004591093
0.06192442
0.04150532
0.05482742
-0.012910227
-0.08268357
0.12457321
0.24737746
0.06472815
0.035383288
-0.031021554
-0.01324201
-0.01621199
-0.046979573
-0.014487723
-0.038706835
-0.08419952
-0.07660419
-0.099836275
-0.107328676
-0.09546694
0.07043376
-0.011398394
-0.009994129
0.017675877
0.022073407
-0.0474604
-0.14898992
0.023407301
-0.058524083
-0.021570068
-0.14031562
-0.08039013
-0.067540534
-0.08431734
-0.1613287
-0.16006881
-0.047345962
-0.03713521
-0.03296588
0.034825817
-0.2666387
-0.15911612
-0.09285862
-0.12139397
-0.01508178
0.14315207
0.049695544
0.035165004
0.039287455
0.00012877096
0.19688047
0.030191017
0.117294304
0.077049494
0.09904854
0.08266547
-0.0038931074
0.004947176
0.08964095
0.069919825
-0.07999271
-0.09631699
-0.040754136
0.06770823
-0.051985867
-0.08167672
-0.01688541
0.016666139
-0.018786823
-0.23943862
-0.060436122
-0.034741215
0.08761829
-0.043651067
-0.021788167
0.0016787742
-0.014483229
0.07350072
0.071512945
0.147479
-0.0018552393
-0.09701809
-0.016202271
0.04641148
0.12853761
0.15679346
0.03143549
-0.09753736
-0.11439532
-0.108490236
0.14593689
0.036032986
-0.15477157
-0.11429653
-0.12883173
0.026626917
0.10098344
0.033041254
-0.02731238
0.06861998
0.022988997
0.06965109
0.020696968
-0.0025367772
0.10142111
0.035284914
0.05600212
0.0012672549
-0.020009711
0.0058082365
-0.24478303
-0.0581224
-0.005641767
-0.03756073
-0.05215378
-0.18703875
-0.17511429
-0.076190636
-0.13726921
-0.128163
-0.0010306719
0.021527044
0.07422031
0.038528603
0.10950429
0.09207736
0.050572276
0.04274853
0.072509356
0.039892625
0.057329487
-0.014832873
0.032469876
-0.01384713
0.040529445
-0.008094045
0.01011796
-0.075328074
-0.11665218
-0.049334478
-0.20887636
-0.09848553
-0.104482986
-0.089798965
-0.03184372
0.092370935
0.0491128
0.02414074
0.046359837
0.062002297
0.20210099
0.030439295
-0.021457119
-0.0548206
0.02704195
-0.037731804
0.019614583
-0.014552949
0.0044995397
-0.010874779
-0.04199563
-0.06523969
0.015667556
-0.004537374
0.02519636
-0.0550858
-0.05170537
-0.027355146
-0.04391884
0.01807176
0.066081
0.021693705
0.016156895
-0.06951633
-0.004396879
0.023424871
0.038047694
-0.044622794
0.052135304
0.120218076
0.12007962
-0.10924457
-0.08742396
-0.23637787
-0.04113401
0.034988306
0.098251395
0.086539656
0.07297068
0.21398705
0.08684809
0.024555173
0.008564233
-0.004466773
0.055100504
-0.071540095
-0.14004818
0.013922291
-0.05410759
-0.08114361
0.034512162
-0.03159955
0.02357701
-0.0077862213
0.06539606
0.0011896144
-0.022545768
0.10371844
0.14958496
0.16702254
-0.024385653
0.006576208
-0.02495916
-0.0061120326
0.14543329
-0.013527598
0.025366144
-0.06912929
0.0001743253
-0.074978404
-0.025216175
-0.044302322
0.04792371
-0.009715933
-0.26722
-0.08242522
-0.0072891447
0.021102995
-0.096901275
-0.18657131
-0.0679478
0.06034419
0.045821063
0.055744074
-0.029529423
0.05801004
0.032730747
-0.011135259
-0.09283589
0.105626576
-0.0183141
-0.0016991054
0.023260176
0.06830053
0.024213925
0.008628714
-0.011969426
-0.06806136
-0.022004304
-0.16774943
-0.049320728
-0.038198046
-0.05672001
-0.043878432
-0.07300124
0.042191267
0.11740933
0.053004567
-0.06749399
0.0066476786
0.030967323
-0.059801254
0.06298371
-0.053383168
-0.0034216556
-0.02229632
0.01253085
-0.036002487
-0.010054355
-0.022322474
0.00956232
-0.026524574
0.06910281
0.119368546
-0.066878684
0.012247126
-0.03761027
0.08072362
0.07442012
-0.04947005
-0.058118016
0.044304468
0.08489118
-0.028888805
0.07614101
-0.07641432
-0.13251233
-0.031798664
-0.010822565
0.051260903
-0.14413936
-0.09921996
0.12512657
0.1405087
-0.060434625
0.10151544
-0.030532489
-0.03720939
0.15046024
0.027242452
0.00960672
0.004136956
0.12522098
-0.0034746937
0.043747976
0.00085467217
0.006555416
-0.041591566
0.09172722
-0.0024907538
0.031116443
0.051615294
0.056467198
0.094943985
-0.027205091
-0.10274703
-0.1663514
-0.10870804
-0.014131261
0.08571803
-0.13448341
-0.0930263
-0.025083704
0.02339038
-0.044023566
0.03886507
-0.026546089
-0.03700834
-0.01924702
0.030988049
0.025422104
-0.037439924
0.04666592
0.05858838
0.044643067
0.006342808
0.014816547
0.06807842
-0.02152154
0.06765267
0.0852783
0.04718507
-0.052709695
0.0222997
-0.067205824
0.014090133
-0.057179518
-0.0672403
-0.069375336
-0.17432302
-0.1092231
-0.059185553
0.07178177
0.0062169596
-0.18348093
-0.08910864
0.035697617
0.020969272
0.03776935
0.026388312
0.025616147
0.019526083
0.014111395
-0.02676462
0.00783025
-0.016698912
0.07215503
-0.017351272
0.013244692
-0.022137407
0.051245198
0.031291712
0.1648304
0.022039177
-0.019392397
0.18273105
-0.050262887
0.11128117
0.102263704
0.10883676
0.07729795
-0.021988729
0.06657801
0.07250357
0.08075368
-0.040425036
0.11685015
-0.036957752
-0.022605233
0.019989878
-0.24599962
0.066674575
0.16819766
-0.016377192
-0.0036729798
-0.086990334
0.013777314
0.0035337498
-0.0701286
0.036544584
-0.111269325
-0.13212505
0.069042094
0.045256376
0.022225302
0.016967406
-0.027197512
-0.06749974
0.034394644
0.014847451
0.0134700565
-0.0033468383
-0.013058538
-0.048205975
0.043516036
-0.112946875
-0.057331048
0.09380279
0.054172345
0.07178502
-0.018195398
0.03930486
0.1375641
-0.023922322
0.04656823
0.09280886
0.02124277
0.13234942
0.094246335
0.043520927
0.09663808
0.09842578
0.06914191
0.03964778
0.07236913
-0.0870344
0.058505744
0.03904772
-0.0678783
-0.095434666
-0.015186377
0.07800242
0.042193383
0.07831405
0.10133666
0.10035928
0.07610031
-0.07541409
-0.12102266
0.10367179
0.079554856
0.054916304
0.061725497
-0.007951897
-0.08872374
0.1385444
0.012317941
0.10512276
0.032360353
0.06518761
0.0032982265
0.06630142
0.11926524
0.139203
-0.13011007
0.05730548
0.018915415
0.0003295061
0.058733538
0.0024228743
0.06670841
0.018156413
-0.16722621
0.054892533
0.17013706
-0.0017706765
0.10023001
0.087752745
0.0030323914
0.03879103
-0.049577847
0.0024663897
-0.060942434
0.04875875
-0.0019752756
-0.037133586
-0.029081367
0.031340685
0.0179245
-0.01929082
-0.010692642
0.11107422
0.005452775
0.06881909
0.039185114
-0.08068998
-0.020239115
0.020882761
0.042506237
-0.030895302
-0.16943726
-0.115862474
-0.00088008255
0.07781982
0.0715769
-0.066168204
-0.028337067
-0.014170687
0.011396332
0.07922569
-0.15769911
-0.03959405
0.048831925
0.047918268
-0.010213197
-0.020704884
0.032535188
0.09481591
0.060757443
0.018997284
-0.015305307
-0.06903978
-0.041559156
-0.0057236366
0.05746955
0.048352223
-0.0011332533
0.03956458
-0.07097713
-0.059120137
0.072276
0.015079363
-0.027882462
-0.005446802
-0.05791623
0.025333745
0.010320762
-0.02991112
-0.027473532
-0.06517674
-0.0051318463
0.0738476
0.033822924
0.024950696
0.16171451
-0.056552555
-0.046060786
-0.09061745
0.021725755
-0.066202976
-0.08265644
-0.10563167
-0.06629885
-0.03723448
-0.06927458
-0.010355075
0.022782585
0.06658241
0.07789474
-0.009291438
0.035808675
0.014049412
-0.031480998
0.013855662
0.04809728
-0.0757613
-0.07362999
-0.005069294
-0.07494596
-0.12551346
0.011021916
0.0071193962
-0.06706404
0.014108149
0.10712435
0.10461888
0.031825535
-0.048031528
-0.035363637
0.099021114
0.10843882
0.07527924
0.05284555
0.02166581
0.0023888948
0.04194376
-0.001607807
-0.0065196636
0.0037724313
-0.018466182
-0.011066916
0.020239409
0.092287496
0.0418734
-0.095737636
-0.047199488
0.0042737224
0.09072425
-0.018467875
-0.08448476
-0.120051876
-0.010084876
-0.08382137
-0.01604293
-0.1025529
-0.12915583
-0.057854347
-0.08240427
0.050400145
0.08202304
-0.010026253
0.0023661314
0.013264585
0.0055664154
0.03862657
-0.006508643
0.04217107
-0.013417551
0.00918652
0.04624447
-0.016448973
-0.010664227
0.010964529
0.026391447
-0.03180462
-0.06948479
-0.07303299
0.06479182
0.03298199
0.033781838
0.019618152
0.013963746
-0.023288641
-0.015420176
-0.045860518
-0.00041439358
-0.095430836
-0.10617532
-0.109273
-0.017539574
-0.020609943
0.06741988
0.055611342
-0.040789586
-0.005186257
0.018771559
-0.00079381606
-0.15082341
-0.098012336
-0.03911996
0.01034059
0.026150163
0.0014829602
-0.0029182984
-0.075615816
0.024197849
0.03192823
0.04495424
0.006482489
-0.023604061
0.0041661924
0.052652463
-0.049528647
-0.0105246585
0.09316109
-0.011367336
0.038171276
0.11656753
0.014946614
0.024919685
-0.014806168
0.04947951
0.022809219
-0.011352402
-0.00985215
0.039857917
-0.04827532
-0.1260728
-0.019806247
-0.16841891
-0.045614127
0.03029659
0.0067304405
-0.035872273
0.020565795
0.08386403
-0.06198269
-0.031739186
-0.010559431
-0.0405243
0.0745171
0.1103722
0.15170115
-0.034760393
-0.023220323
0.07551005
-0.038319744
0.011248453
-0.014165458
-0.004603819
0.050968055
0.028077975
0.06334811
-0.01779784
-0.057997193
0.070380084
0.06235045
0.08687251
0.08972008
-0.12457957
-0.092557505
-0.05698411
-0.098096065
-0.10856633
-0.14298554
-0.00369518
-0.024790682
-0.060600005
0.0450957
-0.008945646
0.11296305
0.09158078
0.040673494
0.034894437
0.066200174
0.10589177
-0.011698811
-0.00807454
0.009663773
-0.056640413
0.019354034
0.06333392
0.027607694
-0.02410396
-0.019294892
0.046892427
0.004847279
0.08261043
0.12936915
0.07826385
0.019679612
0.07284798
0.06170645
0.044752557
0.07498516
-0.008387998
-0.00080556574
0.0064523406
0.06005463
0.015141604
0.0015121843
-0.058020465
0.0044540293
0.06897166
-0.031246435
0.027215999
-0.023307525
-0.04395708
-0.006989577
-0.10229685
-0.009079033
0.06293817
0.03623713
-0.03877738
-0.012339365
-0.021255914
0.01576666
0.0773912
0.089623235
0.053140074
0.042316545
0.014758755
0.1418872
0.030178457
0.018540122
0.06872537
0.004887108
0.031781506
0.015927471
-0.07740679
0.008286448
-0.013694452
-0.025549244
-0.14267568
-0.17159711
0.01641475
0.11573733
0.09017383
0.036216356
0.07096117
0.11089375
0.0075127725
-0.066179276
0.051340844
-0.007744569
-0.0008946187
-0.048226427
-0.034362856
-0.03815433
-0.038410418
-0.09979824
-0.009923901
-0.07649021
-0.017993085
0.08119659
-0.11003871
-0.0745519
0.032672804
0.015801074
0.055470582
-0.05242993
-0.07625938
-0.07834639
-0.07581901
-0.040241487
0.0722384
0.07171045
-0.04541668
-0.13109694
-0.004249629
0.08667414
0.038502734
0.0067538125
0.012757441
-0.08476097
-0.012125447
0.013403178
-0.032486733
-0.14949606
-0.16650344
-0.033955835
-0.05854612
-0.008900221
-0.10312066
-0.10736049
-0.087965935
-0.06544178
-0.19399634
-0.18550906
-0.10615082
-0.08241741
-0.054885883
0.0134994425
-0.10693042
-0.1856946
0.13729766
-0.013698955
-0.022184115
-0.0766756
-0.09667001
0.12939768
0.019037336
0.041056875
0.024495607
0.0033497906
0.037805006
0.019949278
0.0544385
-0.0070906808
-0.023727616
0.054071646
-0.031404167
0.017578304
-0.1273489
-0.17876014
0.0055745137
0.03901946
0.0093935495
-0.09969154
-0.22386906
-0.04040358
0.019542396
0.049279697
0.029953102
-0.124593556
0.050012358
0.06265046
