0.028597314
-0.0054724533
0.043168988
-0.075062126
0.031839833
0.0075044427
0.045501877
-0.027674213
0.041849844
0.0100686755
-0.014928767
0.072557926
0.02639894
-0.0660044
-0.022067081
-0.049906753
-0.05538705
-0.045369364
-0.06836895
-0.04790984
0.037318993
0.015462845
0.0022410243
-0.039009932
0.01758363
0.020828944
0.042711105
-0.043656975
0.028123084
0.006767961
-0.018132372
-0.006006214
-0.011409773
-0.0049587837
-0.050094385
-0.03096404
0.019534739
-0.041780926
0.008660024
-0.0024439797
0.01869428
-0.013443734
0.023191022
0.03869148
0.019327782
-0.0055915797
0.012285307
-0.07650996
0.09846923
-0.01983381
-0.03666422
0.0022381868
0.0021078724
0.06548548
-0.0034036823
0.013581188
-0.023448683
-0.0277667
0.0078041265
-0.021561295
0.053977776
-0.039114416
-0.018716592
0.023069425
0.014721409
-0.07815876
-0.039676573
0.022843976
0.011685444
-0.0083327815
-0.05617549
-0.026364066
-0.07689196
-0.036364548
0.005504376
0.00946865
-0.06094721
0.019592056
-0.030197412
-0.026283966
0.045686323
-0.0071028275
-0.039555203
0.0023132456
-0.029087221
0.04501574
0.01239672
-0.024566848
-0.037987873
0.005949013
-0.072063625
0.06281459
0.03304397
0.017567053
-0.033932883
0.003922243
0.041284252
-0.06126746
0.064522006
-0.03544397
0.0217811
-0.0049085896
-0.022648951
-0.039197795
-0.05029038
0.021009838
0.0078172125
0.057894472
-0.06510679
-0.03913382
0.0043341084
0.050249185
0.12430567
0.07508442
0.032867383
0.035377968
-0.036561664
-0.030804971
0.047994383
-0.010124333
