0.0077749356
-0.09540865
0.0046772393
-0.0070957355
-0.031262204
0.011476871
0.048479512
0.10288845
0.09056203
0.06762582
-0.07133386
0.086233735
-0.041030925
0.01276369
-0.049398586
0.00017825414
0.040420514
0.00067907636
0.008532948
-0.08081055
-0.007830966
-0.017307838
0.08987761
0.08885553
0.1456463
-0.044748235
-0.045234486
-0.06862835
0.07251835
-0.030224675
-0.10342045
-0.068557344
0.112797566
-0.008533453
0.067213796
0.0057794712
0.0013979258
0.037071414
0.048050974
0.02471669
0.10890347
-0.040023174
-0.03839329
-0.0003558127
0.04178581
0.034384508
-0.024077216
0.108099096
0.018241713
0.03982965
-0.016049713
0.0015012393
0.037364535
-0.046498198
0.02913888
0.058521315
0.07394389
-0.017117675
0.061990865
-0.01404494
-0.043043546
0.051074393
-0.087229624
0.028095003
-0.007917234
0.057169076
0.014373898
0.036125027
0.009705372
-0.054892592
-0.027154416
-0.05964401
-0.06983517
0.12909965
0.0020707045
-0.002125128
0.046494182
0.035854723
0.054611746
0.040866487
-0.11942448
-0.09863402
0.04991318
-0.019840185
